{"learner":{"attributes":{"scikit_learn":"{\"_estimator_type\": \"classifier\"}"},"feature_names":["gender","admission_type_id","discharge_disposition_id","admission_source_id","time_in_hospital","num_lab_procedures","num_procedures","num_medications","number_outpatient","number_emergency","number_inpatient","number_diagnoses","metformin","repaglinide","nateglinide","chlorpropamide","glimepiride","acetohexamide","glipizide","glyburide","tolbutamide","pioglitazone","rosiglitazone","acarbose","miglitol","troglitazone","tolazamide","insulin","glyburide-metformin","glipizide-metformin","glimepiride-pioglitazone","metformin-rosiglitazone","metformin-pioglitazone","change","diabetesMed","age_num","diag_1_group_Diabetes","diag_1_group_Digestive","diag_1_group_Injury","diag_1_group_Respiratory","diag_2_group_Diabetes","diag_2_group_Digestive","diag_2_group_Injury","diag_2_group_Respiratory","diag_3_group_Diabetes","diag_3_group_Digestive","diag_3_group_Injury","diag_3_group_Respiratory","race_Asian","race_Caucasian","race_Hispanic","race_Other","payer_code_HM","payer_code_MC","payer_code_SP","medical_specialty_Emergency/Trauma","medical_specialty_Family/GeneralPractice","medical_specialty_InternalMedicine","medical_specialty_Nephrology","medical_specialty_Orthopedics","medical_specialty_Orthopedics-Reconstructive","medical_specialty_Radiologist","medical_specialty_Surgery-General","total_visits","meds_per_day","diab_and_circ"],"feature_types":["float","int","int","int","int","int","int","int","int","int","int","int","int","int","int","int","int","int","int","int","int","int","int","int","int","int","int","int","int","int","int","int","int","int","int","float","int","int","int","int","int","int","int","int","int","int","int","int","int","int","int","int","int","int","int","int","int","int","int","int","int","int","int","int","float","int"],"gradient_booster":{"model":{"cats":{"enc":[],"feature_segments":[],"sorted_idx":[]},"gbtree_model_param":{"num_parallel_tree":"1","num_trees":"200"},"iteration_indptr":[0,1,2,3,4,5,6,7,8,9,10,11,12,13,14,15,16,17,18,19,20,21,22,23,24,25,26,27,28,29,30,31,32,33,34,35,36,37,38,39,40,41,42,43,44,45,46,47,48,49,50,51,52,53,54,55,56,57,58,59,60,61,62,63,64,65,66,67,68,69,70,71,72,73,74,75,76,77,78,79,80,81,82,83,84,85,86,87,88,89,90,91,92,93,94,95,96,97,98,99,100,101,102,103,104,105,106,107,108,109,110,111,112,113,114,115,116,117,118,119,120,121,122,123,124,125,126,127,128,129,130,131,132,133,134,135,136,137,138,139,140,141,142,143,144,145,146,147,148,149,150,151,152,153,154,155,156,157,158,159,160,161,162,163,164,165,166,167,168,169,170,171,172,173,174,175,176,177,178,179,180,181,182,183,184,185,186,187,188,189,190,191,192,193,194,195,196,197,198,199,200],"tree_info":[0,0,0,0,0,0,0,0,0,0,0,0,0,0,0,0,0,0,0,0,0,0,0,0,0,0,0,0,0,0,0,0,0,0,0,0,0,0,0,0,0,0,0,0,0,0,0,0,0,0,0,0,0,0,0,0,0,0,0,0,0,0,0,0,0,0,0,0,0,0,0,0,0,0,0,0,0,0,0,0,0,0,0,0,0,0,0,0,0,0,0,0,0,0,0,0,0,0,0,0,0,0,0,0,0,0,0,0,0,0,0,0,0,0,0,0,0,0,0,0,0,0,0,0,0,0,0,0,0,0,0,0,0,0,0,0,0,0,0,0,0,0,0,0,0,0,0,0,0,0,0,0,0,0,0,0,0,0,0,0,0,0,0,0,0,0,0,0,0,0,0,0,0,0,0,0,0,0,0,0,0,0,0,0,0,0,0,0,0,0,0,0,0,0,0,0,0,0,0,0],"trees":[{"base_weights":[2.4464785E-3,-1.7965898E-1,7.312321E-1,-2.9710603E-1,1.628561E-1,6.013191E-1,1.2690256E0,-4.2439112E-1,-9.010646E-2,1.8394817E-1,-4.626524E-1,5.508755E-1,8.775329E-1,1.0755975E0,1.4136235E0,-6.5545154E-1,-3.0502656E-1,-3.26435E-1,-3.4319248E-2,2.1389128E-1,-1.3184926E-1,-7.86128E-1,2.4821839E-1,5.793386E-1,1.3622609E-1,8.967186E-1,-8.260869E-2,1.1510097E0,5.018265E-1,1.450854E0,1.0515476E0,-8.326536E-1,-3.9392215E-1,-5.298797E-1,-2.4589233E-1,-1.2786773E0,-2.7999088E-1,-1.4776593E-1,7.2303735E-2,1.3161272E-1,3.3138227E-1,3.0773723E-1,-3.820631E-1,-1.0380603E0,2.5929216E-2,3.8487473E-1,-7.777778E-2,6.186113E-1,2.8540626E-1,-8.019764E-1,3.537896E-1,9.1104287E-1,-6.2429506E-1,1.2059002E0,4.6155682E-1,6.75256E-1,-7.131644E-1,1.4613472E0,-6.363636E-2,-6.666667E-2,1.1511722E0,-4.285297E-2,2.7046239E-2,-1.7650364E-2,-5.059504E-2,-5.0120708E-2,-2.287538E-2,-1.1174634E-2,-4.600504E-2,-7.568544E-2,5.6370586E-2,-1.1620703E-2,-5.8663607E-2,-2.2218872E-2,-3.3140064E-3,5.409309E-3,-1.22736655E-2,6.8503222E-3,-8.857143E-2,1.1759776E-2,2.5409594E-2,2.1985926E-2,-9.0697676E-2,-4.05725E-2,-7.791786E-3,-5.76757E-2,4.9833443E-2,4.0222842E-2,-8.9999996E-2,-5.8991998E-3,3.9328765E-2,4.7942083E-2,2.9481351E-2,-1.612567E-2,1.8460814E-2,-9.3939394E-2,-1.168816E-2,2.3687078E-2,-4.8740745E-2,4.7835764E-2,2.1504266E-2,-8.095238E-2,6.655563E-2,1.0410464E-2,6.1658055E-2,3.2039706E-2,-6.923077E-2,-2.8754637E-2,4.2656295E-2,-8.260869E-2,6.655563E-2,7.33686E-2,-5E-2,6.0840484E-2,-5.555556E-2],"categories":[],"categories_nodes":[],"categories_segments":[],"categories_sizes":[],"default_left":[0,0,0,0,0,0,0,0,0,0,0,0,0,0,0,0,0,0,0,0,0,0,0,0,0,0,0,0,0,0,0,0,0,0,0,0,0,0,0,0,0,0,0,0,0,0,0,0,0,0,0,0,0,0,0,0,0,0,0,0,0,0,0,0,0,0,0,0,0,0,0,0,0,0,0,0,0,0,0,0,0,0,0,0,0,0,0,0,0,0,0,0,0,0,0,0,0,0,0,0,0,0,0,0,0,0,0,0,0,0,0,0,0,0,0],"id":0,"left_children":[1,3,5,7,9,11,13,15,17,19,21,23,25,27,29,31,33,35,37,39,41,43,45,47,49,51,-1,53,55,57,59,61,63,65,67,69,71,73,75,77,79,81,83,85,87,89,-1,91,93,95,97,99,101,103,105,107,109,111,-1,-1,113,-1,-1,-1,-1,-1,-1,-1,-1,-1,-1,-1,-1,-1,-1,-1,-1,-1,-1,-1,-1,-1,-1,-1,-1,-1,-1,-1,-1,-1,-1,-1,-1,-1,-1,-1,-1,-1,-1,-1,-1,-1,-1,-1,-1,-1,-1,-1,-1,-1,-1,-1,-1,-1,-1],"loss_changes":[3.8352012E3,9.301292E2,4.028728E2,4.536029E2,7.7981735E1,6.4377075E1,2.9893433E1,2.938413E2,8.643809E1,5.4044342E1,4.4548088E1,4.640918E1,3.628882E1,2.0392273E1,7.095337E0,1.6792908E2,9.336542E1,5.5018738E1,6.4191605E1,5.03992E1,5.4600834E1,2.719577E1,1.5654907E1,4.2368286E1,5.2195724E1,1.6090454E1,0E0,1.5624451E1,1.2717954E1,1.8357666E1,1.6565247E1,7.2986084E1,3.6768112E1,4.9584137E1,8.3901764E1,3.44778E1,5.052185E1,6.2111717E1,3.122308E1,3.1760487E1,3.641922E1,5.126683E1,3.0580433E1,2.496566E1,4.753468E1,1.1724019E1,0E0,3.1487427E1,2.2346157E1,2.9040321E1,3.347383E1,1.5100891E1,1.6238073E1,1.0497742E1,1.1856813E1,1.1906534E1,1.7056974E1,1.0001831E1,0E0,0E0,1.0448677E1,0E0,0E0,0E0,0E0,0E0,0E0,0E0,0E0,0E0,0E0,0E0,0E0,0E0,0E0,0E0,0E0,0E0,0E0,0E0,0E0,0E0,0E0,0E0,0E0,0E0,0E0,0E0,0E0,0E0,0E0,0E0,0E0,0E0,0E0,0E0,0E0,0E0,0E0,0E0,0E0,0E0,0E0,0E0,0E0,0E0,0E0,0E0,0E0,0E0,0E0,0E0,0E0,0E0,0E0],"parents":[2147483647,0,0,1,1,2,2,3,3,4,4,5,5,6,6,7,7,8,8,9,9,10,10,11,11,12,12,13,13,14,14,15,15,16,16,17,17,18,18,19,19,20,20,21,21,22,22,23,23,24,24,25,25,27,27,28,28,29,29,30,30,31,31,32,32,33,33,34,34,35,35,36,36,37,37,38,38,39,39,40,40,41,41,42,42,43,43,44,44,45,45,47,47,48,48,49,49,50,50,51,51,52,52,53,53,54,54,55,55,56,56,57,57,60,60],"right_children":[2,4,6,8,10,12,14,16,18,20,22,24,26,28,30,32,34,36,38,40,42,44,46,48,50,52,-1,54,56,58,60,62,64,66,68,70,72,74,76,78,80,82,84,86,88,90,-1,92,94,96,98,100,102,104,106,108,110,112,-1,-1,114,-1,-1,-1,-1,-1,-1,-1,-1,-1,-1,-1,-1,-1,-1,-1,-1,-1,-1,-1,-1,-1,-1,-1,-1,-1,-1,-1,-1,-1,-1,-1,-1,-1,-1,-1,-1,-1,-1,-1,-1,-1,-1,-1,-1,-1,-1,-1,-1,-1,-1,-1,-1,-1,-1],"split_conditions":[2E0,1E0,5E0,5E0,1E0,4E0,8E0,6.5E1,1E0,1E0,5E0,6.4E0,6E0,8.5E1,6.6E1,8E0,2E0,5E0,7.5E1,1.8E1,2.2666667E0,3E0,5.9E1,1E0,1.6E1,1E0,-8.260869E-2,1E1,2E0,3.6E1,1.8571428E0,5E0,1E0,5E0,7E1,1E0,6E0,1.5E1,3.1E1,1E0,5.9E1,1E1,2E0,1E0,4.6E0,4.1E1,-7.777778E-2,4.5E1,6E0,1E0,4E0,6E0,1E0,1.5E0,7.2E1,7E0,4E0,1E0,-6.363636E-2,-6.666667E-2,5E0,-4.285297E-2,2.7046239E-2,-1.7650364E-2,-5.059504E-2,-5.0120708E-2,-2.287538E-2,-1.1174634E-2,-4.600504E-2,-7.568544E-2,5.6370586E-2,-1.1620703E-2,-5.8663607E-2,-2.2218872E-2,-3.3140064E-3,5.409309E-3,-1.22736655E-2,6.8503222E-3,-8.857143E-2,1.1759776E-2,2.5409594E-2,2.1985926E-2,-9.0697676E-2,-4.05725E-2,-7.791786E-3,-5.76757E-2,4.9833443E-2,4.0222842E-2,-8.9999996E-2,-5.8991998E-3,3.9328765E-2,4.7942083E-2,2.9481351E-2,-1.612567E-2,1.8460814E-2,-9.3939394E-2,-1.168816E-2,2.3687078E-2,-4.8740745E-2,4.7835764E-2,2.1504266E-2,-8.095238E-2,6.655563E-2,1.0410464E-2,6.1658055E-2,3.2039706E-2,-6.923077E-2,-2.8754637E-2,4.2656295E-2,-8.260869E-2,6.655563E-2,7.33686E-2,-5E-2,6.0840484E-2,-5.555556E-2],"split_indices":[10,10,10,4,40,10,63,35,34,44,4,64,8,35,5,11,4,11,35,7,64,6,5,12,7,46,0,4,6,7,64,63,44,11,5,59,6,7,7,60,5,4,3,13,64,5,0,35,11,27,6,64,57,64,5,11,1,46,0,0,6,0,0,0,0,0,0,0,0,0,0,0,0,0,0,0,0,0,0,0,0,0,0,0,0,0,0,0,0,0,0,0,0,0,0,0,0,0,0,0,0,0,0,0,0,0,0,0,0,0,0,0,0,0,0],"split_type":[0,0,0,0,0,0,0,0,0,0,0,0,0,0,0,0,0,0,0,0,0,0,0,0,0,0,0,0,0,0,0,0,0,0,0,0,0,0,0,0,0,0,0,0,0,0,0,0,0,0,0,0,0,0,0,0,0,0,0,0,0,0,0,0,0,0,0,0,0,0,0,0,0,0,0,0,0,0,0,0,0,0,0,0,0,0,0,0,0,0,0,0,0,0,0,0,0,0,0,0,0,0,0,0,0,0,0,0,0,0,0,0,0,0,0],"sum_hessian":[2.8895848E4,2.311959E4,5.7762583E3,1.7216316E4,5.9032734E3,4.6541E3,1.1221582E3,1.0660233E4,6.556082E3,5.711392E3,1.9188147E2,3.93793E3,7.161702E2,4.836374E2,6.385209E2,3.6296443E3,7.0305894E3,1.2511304E3,5.3049517E3,5.2170474E3,4.943446E2,1.318008E2,6.0080673E1,3.6846072E3,2.533227E2,7.114202E2,4.75E0,4.2656668E2,5.7070713E1,5.762599E2,6.226095E1,2.1623425E3,1.4673018E3,1.4623107E3,5.568279E3,5.69502E1,1.1941802E3,2.5700437E3,2.7349082E3,3.0695625E3,2.1474849E3,1.7923206E2,3.1511255E2,1.0038048E2,3.1420317E1,5.6580673E1,3.5E0,3.2493523E3,4.3525494E2,4.718028E1,2.0614241E2,7.0518024E2,6.24004E0,3.944163E2,3.2150394E1,5.0330673E1,6.74004E0,5.745099E2,1.75E0,2E0,6.026095E1,2.1249622E3,3.7380474E1,1.3776613E3,8.9640434E1,1.9251096E2,1.2697997E3,5.3905176E3,1.7776096E2,5.222012E1,4.730079E0,1.13499E3,5.919024E1,5.5292426E2,2.0171194E3,2.4580159E3,2.7689243E2,3.0618125E3,7.75E0,1.3923555E3,7.551294E2,1.6948206E2,9.75E0,1.0784064E2,2.072719E2,9.54004E1,4.980079E0,2.2420317E1,9E0,2.5440237E1,3.1140436E1,2.5256372E2,2.9967886E3,5.2390434E1,3.828645E2,1.55E1,3.1680277E1,1.8966234E2,1.648008E1,6.4311945E2,6.2060753E1,4.25E0,1.9900396E0,1.07201185E1,3.8369617E2,2.9900396E1,2.25E0,5.99004E0,4.4340633E1,4.75E0,1.9900396E0,5.735099E2,1E0,5.901095E1,1.25E0],"tree_param":{"num_deleted":"0","num_feature":"66","num_nodes":"115","size_leaf_vector":"1"}},{"base_weights":[-1.0238327E-2,-2.9122537E-1,4.0730736E-1,-4.5987222E-1,-1.341116E-1,2.4438807E-1,8.527232E-1,-5.1462483E-1,-2.3941804E-1,-4.1987062E-1,-6.582612E-2,1.4497261E-1,4.6513593E-1,6.7230976E-1,1.1699003E0,-7.570522E-1,-4.5366132E-1,-2.2326303E-1,-1.503048E0,-6.295764E-1,-2.4206829E-1,-2.0444676E-2,-3.991716E-1,1.2370391E-1,9.655334E-1,1.3245688E-1,4.9734798E-1,6.8791986E-1,-2.7344182E-1,7.800843E-1,1.2376099E0,-6.85587E-1,-1.2492898E0,-4.1457766E-1,-6.764488E-1,-2.1267875E-1,-9.023433E-2,-9.319319E-2,9.289454E-3,-5.64739E-1,-1.0486906E0,-2.949782E-1,4.5743877E-1,1.9052848E-3,-3.0997753E-1,-3.263192E-1,-9.4847924E-1,1.411864E-1,-3.7192345E-1,1.0012336E0,-6.417783E-2,2.3225915E-1,-1.3438014E0,5.2235913E-1,1.07656956E-1,8.1173086E-1,5.8100665E-1,-7.3492247E-1,1.3288407E0,1.0262109E0,3.6043793E-2,1.1875646E0,1.6090004E0,-4.0656473E-2,-2.8563498E-2,-7.664983E-2,-4.2842E-2,-2.4348289E-2,-1.28168855E-2,-3.853026E-2,-1.107313E-2,-6.8688975E-3,-2.1834636E-2,-6.303534E-2,5.4215696E-2,-3.3188432E-2,-9.106361E-3,-9.450527E-2,-4.0740423E-2,-6.779446E-2,-1.2919298E-2,-3.2817263E-2,4.518024E-2,-3.9164233E-3,4.3350253E-3,-2.142278E-2,9.257819E-3,-1.4262559E-2,-6.838401E-2,-6.30699E-2,-1.4813909E-2,7.969922E-3,-1.0348009E-2,-4.257392E-2,-3.949566E-3,5.3116035E-2,-2.3877505E-2,-2.3096115E-3,3.3000644E-2,-9.243743E-2,5.2868582E-2,2.4555122E-2,4.233722E-2,-8.97571E-2,1.1350161E-2,4.2554166E-2,9.0791174E-4,2.9980823E-2,-7.7915527E-3,1.4101933E-2,-7.012548E-2,7.930679E-2,3.1538207E-2,5.765841E-2,1.0747911E-2,9.537942E-3,-7.626123E-2,5.961683E-2,-5.6801062E-2,8.359601E-2,-3.1349377E-3],"categories":[],"categories_nodes":[],"categories_segments":[],"categories_sizes":[],"default_left":[0,0,0,0,0,0,0,0,0,0,0,0,0,0,0,0,0,0,0,0,0,0,0,0,0,0,0,0,0,0,0,0,0,0,0,0,0,0,0,0,0,0,0,0,0,0,0,0,0,0,0,0,0,0,0,0,0,0,0,0,0,0,0,0,0,0,0,0,0,0,0,0,0,0,0,0,0,0,0,0,0,0,0,0,0,0,0,0,0,0,0,0,0,0,0,0,0,0,0,0,0,0,0,0,0,0,0,0,0,0,0,0,0,0,0,0,0,0,0,0,0],"id":1,"left_children":[1,3,5,7,9,11,13,15,17,19,21,23,25,27,29,31,33,35,37,39,41,43,45,47,49,51,53,55,57,59,61,63,65,67,69,71,-1,-1,73,75,77,79,81,83,85,87,89,91,93,95,-1,97,99,101,103,105,107,109,111,113,115,117,119,-1,-1,-1,-1,-1,-1,-1,-1,-1,-1,-1,-1,-1,-1,-1,-1,-1,-1,-1,-1,-1,-1,-1,-1,-1,-1,-1,-1,-1,-1,-1,-1,-1,-1,-1,-1,-1,-1,-1,-1,-1,-1,-1,-1,-1,-1,-1,-1,-1,-1,-1,-1,-1,-1,-1,-1,-1,-1],"loss_changes":[3.3851108E3,4.5691284E2,8.420022E2,1.00272705E2,1.7422368E2,1.8645343E2,1.7705225E2,9.811377E1,3.3483162E1,6.406E1,1.09043945E2,1.0217714E2,2.8210815E1,2.9468994E1,2.8740356E1,4.6181396E1,4.609253E1,2.7015106E1,1.1333405E1,2.0863464E1,3.4687992E1,4.1066017E1,3.4256226E1,4.9568108E1,1.316391E1,3.4832542E1,2.3388E1,2.535968E1,2.5318617E1,3.09599E1,1.5880249E1,1.659198E1,1.7425568E1,5.1804443E1,3.3812866E1,2.7387627E1,0E0,0E0,8.179257E0,2.5869492E1,1.9047127E1,3.336773E1,3.341159E1,4.009437E1,2.6757343E1,3.228911E1,2.0160728E1,3.5036034E1,2.7322935E1,1.3713669E1,0E0,2.627208E1,2.0122635E1,2.2499084E1,3.3637856E1,2.814502E1,1.4501007E1,1.8184952E1,3.8566875E-1,1.284816E1,1.0704321E1,1.0749878E1,1.1764221E1,0E0,0E0,0E0,0E0,0E0,0E0,0E0,0E0,0E0,0E0,0E0,0E0,0E0,0E0,0E0,0E0,0E0,0E0,0E0,0E0,0E0,0E0,0E0,0E0,0E0,0E0,0E0,0E0,0E0,0E0,0E0,0E0,0E0,0E0,0E0,0E0,0E0,0E0,0E0,0E0,0E0,0E0,0E0,0E0,0E0,0E0,0E0,0E0,0E0,0E0,0E0,0E0,0E0,0E0,0E0,0E0,0E0,0E0],"parents":[2147483647,0,0,1,1,2,2,3,3,4,4,5,5,6,6,7,7,8,8,9,9,10,10,11,11,12,12,13,13,14,14,15,15,16,16,17,17,18,18,19,19,20,20,21,21,22,22,23,23,24,24,25,25,26,26,27,27,28,28,29,29,30,30,31,31,32,32,33,33,34,34,35,35,38,38,39,39,40,40,41,41,42,42,43,43,44,44,45,45,46,46,47,47,48,48,49,49,51,51,52,52,53,53,54,54,55,55,56,56,57,57,58,58,59,59,60,60,61,61,62,62],"right_children":[2,4,6,8,10,12,14,16,18,20,22,24,26,28,30,32,34,36,38,40,42,44,46,48,50,52,54,56,58,60,62,64,66,68,70,72,-1,-1,74,76,78,80,82,84,86,88,90,92,94,96,-1,98,100,102,104,106,108,110,112,114,116,118,120,-1,-1,-1,-1,-1,-1,-1,-1,-1,-1,-1,-1,-1,-1,-1,-1,-1,-1,-1,-1,-1,-1,-1,-1,-1,-1,-1,-1,-1,-1,-1,-1,-1,-1,-1,-1,-1,-1,-1,-1,-1,-1,-1,-1,-1,-1,-1,-1,-1,-1,-1,-1,-1,-1,-1,-1,-1,-1],"split_conditions":[1E0,4E0,3E0,1E0,1E0,2E0,5E0,8E0,1E0,6E0,1E0,3E0,2E0,1E0,6E0,1E0,1E0,1E1,1E0,1E0,1E0,7.5E1,7E1,1E0,1.5E1,5.9E1,3E0,4.4E1,1E0,6E0,1.1E1,3.7E1,2E0,1E0,5.4E1,2E0,-9.023433E-2,-9.319319E-2,3.8E1,2E1,3.7E1,7E0,1.8E1,5E1,1E0,1E0,8.1E1,3E0,3E0,2.7E1,-6.417783E-2,4.2E1,1E0,7.2E1,1.6E1,1E0,1.1E1,2.9E1,1.6E1,5.7E1,1E0,2.9E1,1E0,-4.0656473E-2,-2.8563498E-2,-7.664983E-2,-4.2842E-2,-2.4348289E-2,-1.28168855E-2,-3.853026E-2,-1.107313E-2,-6.8688975E-3,-2.1834636E-2,-6.303534E-2,5.4215696E-2,-3.3188432E-2,-9.106361E-3,-9.450527E-2,-4.0740423E-2,-6.779446E-2,-1.2919298E-2,-3.2817263E-2,4.518024E-2,-3.9164233E-3,4.3350253E-3,-2.142278E-2,9.257819E-3,-1.4262559E-2,-6.838401E-2,-6.30699E-2,-1.4813909E-2,7.969922E-3,-1.0348009E-2,-4.257392E-2,-3.949566E-3,5.3116035E-2,-2.3877505E-2,-2.3096115E-3,3.3000644E-2,-9.243743E-2,5.2868582E-2,2.4555122E-2,4.233722E-2,-8.97571E-2,1.1350161E-2,4.2554166E-2,9.0791174E-4,2.9980823E-2,-7.7915527E-3,1.4101933E-2,-7.012548E-2,7.930679E-2,3.1538207E-2,5.765841E-2,1.0747911E-2,9.537942E-3,-7.626123E-2,5.961683E-2,-5.6801062E-2,8.359601E-2,-3.1349377E-3],"split_indices":[10,4,10,63,34,10,10,7,60,4,39,9,4,40,63,39,44,63,18,37,52,5,5,40,63,5,8,5,45,4,10,5,4,53,5,6,0,0,5,7,5,7,7,5,63,40,5,8,4,7,0,5,44,5,5,52,63,5,7,5,47,63,43,0,0,0,0,0,0,0,0,0,0,0,0,0,0,0,0,0,0,0,0,0,0,0,0,0,0,0,0,0,0,0,0,0,0,0,0,0,0,0,0,0,0,0,0,0,0,0,0,0,0,0,0,0,0,0,0,0,0],"split_type":[0,0,0,0,0,0,0,0,0,0,0,0,0,0,0,0,0,0,0,0,0,0,0,0,0,0,0,0,0,0,0,0,0,0,0,0,0,0,0,0,0,0,0,0,0,0,0,0,0,0,0,0,0,0,0,0,0,0,0,0,0,0,0,0,0,0,0,0,0,0,0,0,0,0,0,0,0,0,0,0,0,0,0,0,0,0,0,0,0,0,0,0,0,0,0,0,0,0,0,0,0,0,0,0,0,0,0,0,0,0,0,0,0,0,0,0,0,0,0,0,0],"sum_hessian":[2.8850434E4,1.7245436E4,1.1604999E4,8.316513E3,8.928922E3,8.498178E3,3.1068213E3,6.660867E3,1.6556459E3,1.7211512E3,7.2077705E3,5.86051E3,2.637668E3,1.982357E3,1.1244642E3,1.3361436E3,5.3247236E3,1.6359081E3,1.9737778E1,7.885589E2,9.3259235E2,6.3450244E3,8.627463E2,5.713567E3,1.4694325E2,2.3330066E2,2.4043672E3,1.9504368E3,3.1920322E1,1.6826334E2,9.5620087E2,1.1688392E3,1.673043E2,4.532455E3,7.9226843E2,1.6261589E3,9.749191E0,1.5748127E1,3.9896512E0,6.8494476E2,1.0361412E2,8.675502E2,6.50422E1,5.8912534E3,4.5377115E2,7.631296E2,9.961667E1,5.519587E3,1.9397983E2,1.451934E2,1.74985E0,2.1931647E2,1.3984194E1,2.2590374E3,1.4532996E2,9.007406E2,1.049696E3,2.520286E1,6.7174616E0,1.2615301E2,4.211032E1,8.463518E2,1.0984902E2,5.495732E2,6.192661E2,9.541872E1,7.18856E1,3.1084106E3,1.4240446E3,6.558508E2,1.364176E2,1.2182616E3,4.078973E2,1.7497885E0,2.2398627E0,5.4353046E2,1.4141432E2,2.0996315E1,8.2617805E1,2.7723206E1,8.3982697E2,1.8468178E1,4.657402E1,3.0270845E3,2.864169E3,3.662643E2,8.750683E1,7.3540155E2,2.7728014E1,6.668695E1,3.292972E1,5.2457183E3,2.738687E2,7.283536E1,1.2114446E2,1.3970398E2,5.4894176E0,1.3338193E2,8.593454E1,1.1744487E1,2.2397063E0,2.062788E3,1.9624925E2,7.7485995E0,1.3758134E2,8.581151E2,4.262552E1,1.0240194E3,2.5676746E1,1.0216778E1,1.4986082E1,3.9788117E0,2.73865E0,1.0871772E2,1.7435287E1,3.9112278E1,2.9980419E0,8.451031E2,1.2487092E0,1.0586435E2,3.984675E0],"tree_param":{"num_deleted":"0","num_feature":"66","num_nodes":"121","size_leaf_vector":"1"}},{"base_weights":[-7.5193504E-3,-2.865844E-1,4.0201607E-1,-5.1734835E-1,2.7403647E-2,2.8646302E-1,1.0237979E0,-7.567602E-1,-4.3225297E-1,-4.985852E-2,5.5884165E-1,1.4331271E-1,5.0063765E-1,7.819935E-1,1.1709558E0,-7.072176E-1,-1.0936382E0,-4.9262083E-1,-2.2223079E-1,1.3366154E-1,-2.4268748E-1,9.471329E-1,-3.5188448E-1,3.683615E-2,2.579996E-1,4.5735937E-1,9.0311205E-1,5.4567254E-1,8.9527595E-1,1.0698282E0,1.3827946E0,-7.186563E-1,3.2842737E-1,-1.3805603E0,-7.564847E-1,-6.4000964E-1,-4.107658E-1,-4.4694325E-1,-8.574323E-2,2.8762913E-1,-5.8478035E-2,-1.4381193E-1,-4.7850588E-1,1.2003078E0,7.141809E-1,-5.9207195E-1,1.1116298E0,8.7931775E-2,-4.3282074E-1,4.4998428E-1,6.582208E-2,4.9792007E-1,-1.2553468E0,9.3834907E-1,-8.423918E-2,6.179282E-1,-8.7200284E-2,9.0962654E-1,-7.220348E-2,1.1059145E0,5.751348E-1,7.2237974E-1,1.4064457E0,-4.2743865E-2,-3.1464104E-2,7.0575155E-2,-6.8012015E-3,-4.1809823E-2,-8.2433544E-2,-2.0952491E-2,-6.750221E-2,-2.893039E-2,-5.030169E-2,-1.9010121E-2,-4.5226928E-2,-2.0395396E-2,-9.3164936E-2,-5.5174757E-4,-3.0974561E-2,2.717017E-4,1.845083E-2,-2.162423E-2,1.3831904E-3,-2.4209911E-2,-2.7447683E-3,-9.1964304E-2,-5.450256E-3,6.1325748E-2,-1.6447376E-2,3.7417132E-2,-8.0206454E-2,-1.4382671E-2,-5.2062243E-2,6.48487E-2,-6.737E-2,-1.0642873E-3,1.4055699E-2,-1.5048409E-2,-6.0913023E-2,3.6745813E-2,1.3414484E-2,-6.1430125E-3,2.3002913E-2,4.2086314E-2,2.3327498E-2,-1.0017192E-1,-9.135061E-3,-7.26238E-2,4.7906276E-2,-8.317017E-2,3.3368744E-2,-6.966163E-2,4.612575E-2,5.7417978E-2,3.853312E-2,3.368073E-2,-6.738136E-2,6.548166E-2,-7.650659E-2,7.24711E-2,5.654934E-2],"categories":[],"categories_nodes":[],"categories_segments":[],"categories_sizes":[],"default_left":[0,0,0,0,0,0,0,0,0,0,0,0,0,0,0,0,0,0,0,0,0,0,0,0,0,0,0,0,0,0,0,0,0,0,0,0,0,0,0,0,0,0,0,0,0,0,0,0,0,0,0,0,0,0,0,0,0,0,0,0,0,0,0,0,0,0,0,0,0,0,0,0,0,0,0,0,0,0,0,0,0,0,0,0,0,0,0,0,0,0,0,0,0,0,0,0,0,0,0,0,0,0,0,0,0,0,0,0,0,0,0,0,0,0,0,0,0,0,0,0,0],"id":2,"left_children":[1,3,5,7,9,11,13,15,17,19,21,23,25,27,29,31,33,35,37,39,41,43,45,47,49,51,53,55,57,59,61,63,65,67,69,71,73,75,77,79,81,83,85,87,89,91,93,95,97,99,101,103,105,107,-1,109,-1,111,-1,113,115,117,119,-1,-1,-1,-1,-1,-1,-1,-1,-1,-1,-1,-1,-1,-1,-1,-1,-1,-1,-1,-1,-1,-1,-1,-1,-1,-1,-1,-1,-1,-1,-1,-1,-1,-1,-1,-1,-1,-1,-1,-1,-1,-1,-1,-1,-1,-1,-1,-1,-1,-1,-1,-1,-1,-1,-1,-1,-1,-1],"loss_changes":[3.2974377E3,1.2433385E3,8.398192E2,2.0117139E2,2.985309E2,3.022802E2,6.427588E1,4.2490723E1,9.243506E1,2.2467757E2,3.2667798E2,7.2188934E1,6.839606E1,1.8148071E1,2.2876709E1,2.7041504E1,3.0929138E1,6.812842E1,4.999975E1,9.625666E1,7.2116745E1,3.73172E1,9.788084E1,7.3640144E1,1.04983734E2,2.4854779E2,3.6462463E1,3.882071E1,1.7058838E1,1.3180725E1,4.668701E0,2.6713013E1,1.2971773E1,2.4505554E1,3.031276E1,4.48692E1,5.4701294E1,3.3311256E1,4.0515446E1,4.1480286E1,4.6663963E1,6.60356E1,4.5944617E2,1.2775482E1,2.80934E1,3.2276604E1,1.9677242E1,5.83861E1,3.0816723E1,7.3507324E1,1.059508E2,3.7215454E1,6.611351E1,1.9265228E1,0E0,2.6140648E1,0E0,1.5139038E1,0E0,9.364258E0,1.1266161E1,2.1368805E1,2.5078125E0,0E0,0E0,0E0,0E0,0E0,0E0,0E0,0E0,0E0,0E0,0E0,0E0,0E0,0E0,0E0,0E0,0E0,0E0,0E0,0E0,0E0,0E0,0E0,0E0,0E0,0E0,0E0,0E0,0E0,0E0,0E0,0E0,0E0,0E0,0E0,0E0,0E0,0E0,0E0,0E0,0E0,0E0,0E0,0E0,0E0,0E0,0E0,0E0,0E0,0E0,0E0,0E0,0E0,0E0,0E0,0E0,0E0,0E0],"parents":[2147483647,0,0,1,1,2,2,3,3,4,4,5,5,6,6,7,7,8,8,9,9,10,10,11,11,12,12,13,13,14,14,15,15,16,16,17,17,18,18,19,19,20,20,21,21,22,22,23,23,24,24,25,25,26,26,27,27,28,28,29,29,30,30,31,31,32,32,33,33,34,34,35,35,36,36,37,37,38,38,39,39,40,40,41,41,42,42,43,43,44,44,45,45,46,46,47,47,48,48,49,49,50,50,51,51,52,52,53,53,55,55,57,57,59,59,60,60,61,61,62,62],"right_children":[2,4,6,8,10,12,14,16,18,20,22,24,26,28,30,32,34,36,38,40,42,44,46,48,50,52,54,56,58,60,62,64,66,68,70,72,74,76,78,80,82,84,86,88,90,92,94,96,98,100,102,104,106,108,-1,110,-1,112,-1,114,116,118,120,-1,-1,-1,-1,-1,-1,-1,-1,-1,-1,-1,-1,-1,-1,-1,-1,-1,-1,-1,-1,-1,-1,-1,-1,-1,-1,-1,-1,-1,-1,-1,-1,-1,-1,-1,-1,-1,-1,-1,-1,-1,-1,-1,-1,-1,-1,-1,-1,-1,-1,-1,-1,-1,-1,-1,-1,-1,-1],"split_conditions":[1E0,2E0,4E0,6E0,2.2E1,2E0,5E0,1E0,6E0,6E0,2.3E1,2E0,1.5E1,1E0,1.1E1,1E0,1.2E1,6.5E1,5.1E1,1E0,1E1,9E0,2.8E1,1E0,6E0,1E1,1E0,1.1E1,1E0,1E1,4E0,3.7E1,4E0,5.5E1,4.6E1,1E0,8E0,1.3E1,1E0,1E0,1E0,7E0,1.4E1,1E0,1E0,4.6E1,1E0,1.8E1,5.5E1,9E0,1.5E1,4.5E1,1.2E1,4E0,-8.423918E-2,7E0,-8.7200284E-2,2.5E1,-7.220348E-2,8.5E1,1E0,2E0,2.5E1,-4.2743865E-2,-3.1464104E-2,7.0575155E-2,-6.8012015E-3,-4.1809823E-2,-8.2433544E-2,-2.0952491E-2,-6.750221E-2,-2.893039E-2,-5.030169E-2,-1.9010121E-2,-4.5226928E-2,-2.0395396E-2,-9.3164936E-2,-5.5174757E-4,-3.0974561E-2,2.717017E-4,1.845083E-2,-2.162423E-2,1.3831904E-3,-2.4209911E-2,-2.7447683E-3,-9.1964304E-2,-5.450256E-3,6.1325748E-2,-1.6447376E-2,3.7417132E-2,-8.0206454E-2,-1.4382671E-2,-5.2062243E-2,6.48487E-2,-6.737E-2,-1.0642873E-3,1.4055699E-2,-1.5048409E-2,-6.0913023E-2,3.6745813E-2,1.3414484E-2,-6.1430125E-3,2.3002913E-2,4.2086314E-2,2.3327498E-2,-1.0017192E-1,-9.135061E-3,-7.26238E-2,4.7906276E-2,-8.317017E-2,3.3368744E-2,-6.966163E-2,4.612575E-2,5.7417978E-2,3.853312E-2,3.368073E-2,-6.738136E-2,6.548166E-2,-7.650659E-2,7.24711E-2,5.654934E-2],"split_indices":[10,2,10,11,2,10,10,39,4,2,2,2,2,27,63,61,7,35,5,53,2,11,2,44,2,2,50,63,50,4,5,5,5,35,5,39,3,4,39,34,34,11,2,61,52,5,39,7,5,11,2,35,2,11,0,5,0,35,0,35,12,2,7,0,0,0,0,0,0,0,0,0,0,0,0,0,0,0,0,0,0,0,0,0,0,0,0,0,0,0,0,0,0,0,0,0,0,0,0,0,0,0,0,0,0,0,0,0,0,0,0,0,0,0,0,0,0,0,0,0,0],"split_type":[0,0,0,0,0,0,0,0,0,0,0,0,0,0,0,0,0,0,0,0,0,0,0,0,0,0,0,0,0,0,0,0,0,0,0,0,0,0,0,0,0,0,0,0,0,0,0,0,0,0,0,0,0,0,0,0,0,0,0,0,0,0,0,0,0,0,0,0,0,0,0,0,0,0,0,0,0,0,0,0,0,0,0,0,0,0,0,0,0,0,0,0,0,0,0,0,0,0,0,0,0,0,0,0,0,0,0,0,0,0,0,0,0,0,0,0,0,0,0,0,0],"sum_hessian":[2.8850238E4,1.7158451E4,1.1691787E4,9.889538E3,7.268913E3,9.860715E3,1.8310728E3,2.591259E3,7.298279E3,6.3470625E3,9.218502E2,5.911349E3,3.9493655E3,6.9514746E2,1.1359253E3,2.2617385E3,3.2952057E2,5.667804E3,1.6304747E3,3.252185E3,3.0948777E3,6.4627057E2,2.7557965E2,3.0660842E3,2.8452651E3,3.5678489E3,3.815165E2,2.2713432E2,4.6801312E2,7.7297327E2,3.6295206E2,2.2373333E3,2.4405285E1,1.763498E2,1.5317078E2,2.0213417E3,3.6464624E3,6.152521E2,1.0152227E3,1.8051575E3,1.4470276E3,2.1817207E3,9.131569E2,3.0770288E2,3.385677E2,2.3724E2,3.8339653E1,2.7659768E3,3.0010757E2,1.4226755E3,1.4225895E3,3.486002E3,8.184702E1,3.770204E2,4.496133E0,2.2089368E2,6.240642E0,4.6576706E2,2.2460697E0,7.192692E2,5.370404E1,1.3639372E1,3.493127E2,8.829728E2,1.3543605E3,6.7126555E0,1.7692629E1,5.955333E1,1.1679646E2,9.8742355E1,5.4428425E1,1.7331759E3,2.8816577E2,3.4355781E3,2.1088434E2,6.000037E2,1.5248363E1,8.9146564E2,1.2375707E2,4.0432077E2,1.4008367E3,2.7013736E2,1.1768903E3,4.5095398E2,1.7307667E3,1.9415482E2,7.190021E2,3.027132E2,4.989686E0,3.3431848E2,4.2491927E0,1.42383E2,9.4857E1,3.6091873E1,2.2477803E0,1.7675591E3,9.9841766E2,2.5815414E2,4.1953426E1,5.527745E2,8.699011E2,9.625833E2,4.6000616E2,2.8931985E2,3.1966821E3,4.7707077E1,3.4139946E1,2.498723E0,3.7452164E2,3.9937289E0,2.1689995E2,1.9961841E0,4.6377087E2,6.36286E2,8.298318E1,5.170546E1,1.9985793E0,1.1150824E1,2.4885478E0,2.9848257E2,5.0830124E1],"tree_param":{"num_deleted":"0","num_feature":"66","num_nodes":"121","size_leaf_vector":"1"}},{"base_weights":[-5.2562826E-3,-1.6432361E-1,6.3318676E-1,-3.751281E-1,1.0445447E-1,5.257122E-1,1.0871527E0,-4.821542E-1,-1.937125E-2,5.0676353E-2,5.383059E-1,5.0357705E-1,9.949926E-1,1.0951759E0,-7.787203E-2,-7.127533E-1,-4.0013206E-1,3.187911E-2,-4.880345E-1,2.242596E-1,-1.3839412E-1,8.7417006E-1,-1.3477151E-1,5.338733E-1,1.00830495E-1,1.0439833E0,-8.045282E-2,1.1370664E0,6.294935E-1,-7.316485E-1,-4.2244617E-2,-4.5407388E-1,-2.0976111E-1,-3.0411458E-1,9.169384E-2,4.2187434E-2,-7.491095E-1,3.4144148E-1,3.3463657E-2,-5.2838486E-2,-3.469377E-1,1.1365584E0,6.3820875E-1,-3.8223776E-1,1.1443791E0,4.525684E-1,6.419291E-1,-9.6566424E-2,5.449541E-1,-2.3105705E-2,1.1780348E0,8.2343E-1,1.1884067E0,7.046443E-1,-7.462331E-2,-4.305946E-2,-3.0911235E-2,-6.4700894E-2,1.5283346E-2,-2.822192E-2,-1.7867243E-2,-2.1569986E-2,-1.9511896E-3,-1.2880436E-2,-5.7482906E-2,-1.1445354E-2,7.03741E-3,1.7388929E-2,-3.1685937E-2,-2.7483199E-2,-8.307214E-2,1.4379159E-2,3.8949557E-2,-3.6979893E-3,1.4425312E-2,-1.35913985E-2,4.258854E-3,-9.549906E-2,-1.6226153E-3,5.865406E-2,-3.5023108E-2,3.4268342E-2,-2.3510015E-2,-2.8143335E-2,1.2241664E-2,6.767039E-2,1.8203447E-2,2.438422E-3,2.4468632E-2,3.2777883E-2,9.370216E-3,3.1259745E-2,-2.0704588E-2,4.9416475E-2,-4.070012E-2,6.0804E-2,-1.3583734E-2,-4.6436433E-2,4.645786E-2,6.0690153E-2,3.3347804E-2,3.962465E-2,-2.776472E-2],"categories":[],"categories_nodes":[],"categories_segments":[],"categories_sizes":[],"default_left":[0,0,0,0,0,0,0,0,0,0,0,0,0,0,0,0,0,0,0,0,0,0,0,0,0,0,0,0,0,0,0,0,0,0,0,0,0,0,0,0,0,0,0,0,0,0,0,0,0,0,0,0,0,0,0,0,0,0,0,0,0,0,0,0,0,0,0,0,0,0,0,0,0,0,0,0,0,0,0,0,0,0,0,0,0,0,0,0,0,0,0,0,0,0,0,0,0,0,0,0,0,0,0],"id":3,"left_children":[1,3,5,7,9,11,13,15,17,19,21,23,25,27,-1,29,31,33,35,37,39,41,43,45,47,49,-1,51,53,55,57,59,61,63,65,67,69,71,73,75,77,79,81,83,85,87,89,-1,91,93,95,97,99,101,-1,-1,-1,-1,-1,-1,-1,-1,-1,-1,-1,-1,-1,-1,-1,-1,-1,-1,-1,-1,-1,-1,-1,-1,-1,-1,-1,-1,-1,-1,-1,-1,-1,-1,-1,-1,-1,-1,-1,-1,-1,-1,-1,-1,-1,-1,-1,-1,-1],"loss_changes":[2.9259348E3,1.3068734E3,2.7980103E2,4.9217456E2,2.3653383E2,4.7784912E1,2.5026245E1,1.8766724E2,7.184561E1,2.96127E2,2.5287344E2,5.4134766E1,2.8260864E1,2.0671753E1,0E0,3.2984253E1,7.519861E1,5.4224052E1,4.084733E1,1.0515993E2,7.704082E1,4.5463135E1,1.1852856E2,3.599463E1,2.825847E2,2.9368057E1,0E0,1.5198364E1,1.5838165E1,3.6705933E1,3.1962755E1,6.0781128E1,6.131478E1,1.5737881E1,3.604557E1,2.0509518E1,3.5046585E1,6.844821E1,4.908833E1,9.262088E1,6.174466E2,2.4434967E1,2.0972717E1,3.5628582E1,9.411774E0,3.5052277E1,1.0847351E1,0E0,2.0018547E1,1.9901047E1,1.0381882E1,2.7645851E1,1.0593384E1,1.0427315E1,0E0,0E0,0E0,0E0,0E0,0E0,0E0,0E0,0E0,0E0,0E0,0E0,0E0,0E0,0E0,0E0,0E0,0E0,0E0,0E0,0E0,0E0,0E0,0E0,0E0,0E0,0E0,0E0,0E0,0E0,0E0,0E0,0E0,0E0,0E0,0E0,0E0,0E0,0E0,0E0,0E0,0E0,0E0,0E0,0E0,0E0,0E0,0E0,0E0],"parents":[2147483647,0,0,1,1,2,2,3,3,4,4,5,5,6,6,7,7,8,8,9,9,10,10,11,11,12,12,13,13,15,15,16,16,17,17,18,18,19,19,20,20,21,21,22,22,23,23,24,24,25,25,27,27,28,28,29,29,30,30,31,31,32,32,33,33,34,34,35,35,36,36,37,37,38,38,39,39,40,40,41,41,42,42,43,43,44,44,45,45,46,46,48,48,49,49,50,50,51,51,52,52,53,53],"right_children":[2,4,6,8,10,12,14,16,18,20,22,24,26,28,-1,30,32,34,36,38,40,42,44,46,48,50,-1,52,54,56,58,60,62,64,66,68,70,72,74,76,78,80,82,84,86,88,90,-1,92,94,96,98,100,102,-1,-1,-1,-1,-1,-1,-1,-1,-1,-1,-1,-1,-1,-1,-1,-1,-1,-1,-1,-1,-1,-1,-1,-1,-1,-1,-1,-1,-1,-1,-1,-1,-1,-1,-1,-1,-1,-1,-1,-1,-1,-1,-1,-1,-1,-1,-1,-1,-1],"split_conditions":[2E0,2E0,5E0,1E0,2.2E1,2E1,8.4E1,6E0,1E0,6E0,2.3E1,1E1,8E0,8.5E1,-7.787203E-2,3E0,6E0,6E0,2.2666667E0,8.5E1,1E1,9E0,2.8E1,3E0,1.2E1,1E0,-8.045282E-2,6E0,1.4E1,5E0,2E0,9E0,5.4E1,1E0,2E0,4.5E1,5.2E1,5E0,1E0,9E0,1.2E1,3E0,1E0,1E0,4E0,2E0,1E0,-9.6566424E-2,1E0,6.5E1,9.5E1,1.5E0,7E0,6.6E1,-7.462331E-2,-4.305946E-2,-3.0911235E-2,-6.4700894E-2,1.5283346E-2,-2.822192E-2,-1.7867243E-2,-2.1569986E-2,-1.9511896E-3,-1.2880436E-2,-5.7482906E-2,-1.1445354E-2,7.03741E-3,1.7388929E-2,-3.1685937E-2,-2.7483199E-2,-8.307214E-2,1.4379159E-2,3.8949557E-2,-3.6979893E-3,1.4425312E-2,-1.35913985E-2,4.258854E-3,-9.549906E-2,-1.6226153E-3,5.865406E-2,-3.5023108E-2,3.4268342E-2,-2.3510015E-2,-2.8143335E-2,1.2241664E-2,6.767039E-2,1.8203447E-2,2.438422E-3,2.4468632E-2,3.2777883E-2,9.370216E-3,3.1259745E-2,-2.0704588E-2,4.9416475E-2,-4.070012E-2,6.0804E-2,-1.3583734E-2,-4.6436433E-2,4.645786E-2,6.0690153E-2,3.3347804E-2,3.962465E-2,-2.776472E-2],"split_indices":[10,2,10,10,2,2,5,11,44,2,2,2,63,35,0,63,4,11,64,35,2,11,2,10,2,49,0,63,2,11,4,11,5,21,4,5,5,2,10,11,2,63,60,10,1,4,54,0,12,35,35,64,64,5,0,0,0,0,0,0,0,0,0,0,0,0,0,0,0,0,0,0,0,0,0,0,0,0,0,0,0,0,0,0,0,0,0,0,0,0,0,0,0,0,0,0,0,0,0,0,0,0,0],"split_type":[0,0,0,0,0,0,0,0,0,0,0,0,0,0,0,0,0,0,0,0,0,0,0,0,0,0,0,0,0,0,0,0,0,0,0,0,0,0,0,0,0,0,0,0,0,0,0,0,0,0,0,0,0,0,0,0,0,0,0,0,0,0,0,0,0,0,0,0,0,0,0,0,0,0,0,0,0,0,0,0,0,0,0,0,0,0,0,0,0,0,0,0,0,0,0,0,0,0,0,0,0,0,0],"sum_hessian":[2.8809188E4,2.3063648E4,5.745538E3,1.2925609E4,1.0138039E4,4.647435E3,1.098103E3,9.936078E3,2.9895315E3,9.020961E3,1.1170779E3,4.4400776E3,2.0735725E2,1.0953658E3,2.737212E0,2.6049016E3,7.331177E3,2.6956794E3,2.9385226E2,4.703005E3,4.317956E3,7.450171E2,3.7206076E2,4.129141E3,3.1093674E2,2.0411624E2,3.2410097E0,1.00364136E3,9.172448E1,2.5334177E3,7.148393E1,5.711447E3,1.6197296E3,4.0675497E2,2.2889243E3,9.7228195E1,1.9662407E2,2.9130786E3,1.7899264E3,3.0627195E3,1.2552367E3,3.509476E2,3.940695E2,3.1233682E2,5.972393E1,2.3591914E3,1.7699498E3,5.516622E1,2.5577051E2,2.2872448E1,1.8124379E2,1.4357652E2,8.600648E2,8.923218E1,2.4923007E0,1.1796049E3,1.3538127E3,1.4955434E1,5.6528503E1,2.6654382E3,3.0460088E3,7.0414014E2,9.155895E2,3.8678595E2,1.9969006E1,3.032606E2,1.9856638E3,6.729032E1,2.9937878E1,1.6266606E2,3.395801E1,2.5952808E3,3.177978E2,1.2599485E3,5.299779E2,1.1836503E3,1.8790691E3,2.0940189E2,1.0458348E3,3.444606E2,6.4869757E0,3.7835382E2,1.5715678E1,2.4256729E2,6.9769554E1,4.6526123E1,1.3197807E1,1.9726051E2,2.161931E3,1.7179949E3,5.195498E1,2.3634433E2,1.942618E1,9.927313E0,1.2945136E1,1.7676604E2,4.477759E0,7.727568E0,1.3584895E2,8.188562E2,4.1208656E1,8.376286E1,5.4693193E0],"tree_param":{"num_deleted":"0","num_feature":"66","num_nodes":"103","size_leaf_vector":"1"}},{"base_weights":[-7.023989E-4,-1.5367657E-1,6.063433E-1,-3.508032E-1,9.8243415E-2,4.634398E-1,9.188682E-1,-4.614357E-1,4.2207614E-3,5.1024772E-2,4.798991E-1,4.3796304E-1,9.839348E-1,8.4204614E-1,1.2744734E0,-6.925502E-1,-3.7932187E-1,-2.3515639E-1,9.6711E-2,2.3013133E-1,-1.4435767E-1,8.13315E-1,-2.1997674E-1,4.417947E-1,-8.946939E-2,1.118145E0,1.8976222E-1,9.26633E-1,6.7176676E-1,1.2935361E0,2.4941337E-1,-6.389395E-1,-1.0661399E0,-5.236015E-1,-2.9947463E-1,-6.8039405E-1,-8.6205885E-2,-3.6525496E-3,2.4486557E-1,3.775634E-1,4.9803622E-2,-5.252866E-2,-3.6889052E-1,8.415768E-1,-7.4783134E-1,-4.530015E-1,1.0449764E0,5.105113E-1,3.1172505E-1,1.335894E0,6.1264247E-1,8.615438E-1,-4.3849555E-1,7.946094E-1,1.0389849E0,7.146186E-1,-1.277752E0,1.3214114E0,7.1494275E-1,6.994636E-2,-7.917212E-2,-3.2360777E-2,5.6087818E-2,-4.3451868E-2,-7.094147E-2,-2.3307925E-2,-4.4130918E-2,-2.5683338E-2,-1.198472E-2,-1.7831748E-2,-5.006808E-2,9.227386E-3,-1.6647555E-2,-5.1602977E-3,2.1021096E-2,-9.4021045E-2,1.3882503E-2,2.0568026E-2,-2.1966523E-2,-3.1685368E-3,1.47577245E-2,-3.9545437E-3,3.1099388E-2,-7.6645665E-2,2.1692698E-3,4.494394E-2,5.634232E-3,4.7847636E-2,-8.986705E-2,-3.1610746E-2,8.464481E-3,6.027195E-2,-7.662776E-2,2.3693478E-2,4.3949824E-2,1.7913379E-2,-5.6686223E-2,6.875081E-2,5.296829E-3,5.3272795E-2,-5.9301317E-2,5.7620775E-2,-5.7789277E-2,1.3973683E-2,-8.7806016E-2,4.09148E-2,-7.750168E-2,5.5189688E-2,2.2789985E-2,3.651024E-2,-7.57239E-2,-9.694128E-2,2.8102292E-2,6.7895345E-2,4.426987E-2,-8.120102E-2,6.1671775E-2],"categories":[],"categories_nodes":[],"categories_segments":[],"categories_sizes":[],"default_left":[0,0,0,0,0,0,0,0,0,0,0,0,0,0,0,0,0,0,0,0,0,0,0,0,0,0,0,0,0,0,0,0,0,0,0,0,0,0,0,0,0,0,0,0,0,0,0,0,0,0,0,0,0,0,0,0,0,0,0,0,0,0,0,0,0,0,0,0,0,0,0,0,0,0,0,0,0,0,0,0,0,0,0,0,0,0,0,0,0,0,0,0,0,0,0,0,0,0,0,0,0,0,0,0,0,0,0,0,0,0,0,0,0,0,0,0,0],"id":4,"left_children":[1,3,5,7,9,11,13,15,17,19,21,23,25,27,29,31,33,35,37,39,41,43,45,47,-1,49,51,53,55,57,59,61,63,65,67,69,71,73,75,77,79,81,83,85,87,89,91,93,95,97,99,101,103,105,107,109,111,113,115,-1,-1,-1,-1,-1,-1,-1,-1,-1,-1,-1,-1,-1,-1,-1,-1,-1,-1,-1,-1,-1,-1,-1,-1,-1,-1,-1,-1,-1,-1,-1,-1,-1,-1,-1,-1,-1,-1,-1,-1,-1,-1,-1,-1,-1,-1,-1,-1,-1,-1,-1,-1,-1,-1,-1,-1,-1,-1],"loss_changes":[2.6817515E3,1.1455032E3,2.5917114E2,5.0827173E2,1.8246925E2,5.248871E1,4.8724365E1,1.8697363E2,6.811372E1,3.1542862E2,2.603189E2,3.3275574E1,1.9550919E1,2.1010864E1,5.967163E0,5.1096558E1,8.373303E1,5.6803562E1,3.2996704E1,1.2500554E2,8.887053E1,3.3953857E1,1.06738045E2,3.3810547E1,0E0,1.661821E1,1.2199143E1,1.402002E1,4.286049E1,4.1482544E0,1.7207033E1,3.370569E1,2.1215973E1,5.3062073E1,5.9929596E1,2.1963074E1,4.306003E1,5.593496E1,6.2964382E1,7.160849E1,5.878777E1,5.4890854E1,6.0052124E2,3.0904114E1,2.669661E1,3.4135273E1,2.5167076E1,3.31391E1,8.896461E1,5.141159E0,4.1611687E1,9.472438E0,1.4809839E1,2.7059235E1,1.9810364E1,1.8198074E1,1.4660852E1,3.5726929E0,2.22471E1,0E0,0E0,0E0,0E0,0E0,0E0,0E0,0E0,0E0,0E0,0E0,0E0,0E0,0E0,0E0,0E0,0E0,0E0,0E0,0E0,0E0,0E0,0E0,0E0,0E0,0E0,0E0,0E0,0E0,0E0,0E0,0E0,0E0,0E0,0E0,0E0,0E0,0E0,0E0,0E0,0E0,0E0,0E0,0E0,0E0,0E0,0E0,0E0,0E0,0E0,0E0,0E0,0E0,0E0,0E0,0E0,0E0,0E0],"parents":[2147483647,0,0,1,1,2,2,3,3,4,4,5,5,6,6,7,7,8,8,9,9,10,10,11,11,12,12,13,13,14,14,15,15,16,16,17,17,18,18,19,19,20,20,21,21,22,22,23,23,25,25,26,26,27,27,28,28,29,29,30,30,31,31,32,32,33,33,34,34,35,35,36,36,37,37,38,38,39,39,40,40,41,41,42,42,43,43,44,44,45,45,46,46,47,47,48,48,49,49,50,50,51,51,52,52,53,53,54,54,55,55,56,56,57,57,58,58],"right_children":[2,4,6,8,10,12,14,16,18,20,22,24,26,28,30,32,34,36,38,40,42,44,46,48,-1,50,52,54,56,58,60,62,64,66,68,70,72,74,76,78,80,82,84,86,88,90,92,94,96,98,100,102,104,106,108,110,112,114,116,-1,-1,-1,-1,-1,-1,-1,-1,-1,-1,-1,-1,-1,-1,-1,-1,-1,-1,-1,-1,-1,-1,-1,-1,-1,-1,-1,-1,-1,-1,-1,-1,-1,-1,-1,-1,-1,-1,-1,-1,-1,-1,-1,-1,-1,-1,-1,-1,-1,-1,-1,-1,-1,-1,-1,-1,-1,-1],"split_conditions":[2E0,2E0,4E0,1E0,2.2E1,2E1,8E0,6E0,7E0,6E0,2.3E1,1E0,1E0,2E1,1E0,1E0,6.5E1,3.4E1,1.8E1,1E0,1E1,1E0,2.8E1,1E0,-8.946939E-2,2.3E1,1E0,5E0,1E0,1E1,5E0,4E0,4.6E1,1E0,1E0,6.5E1,4.5E1,1E0,9E0,9.5E1,1E0,2E0,1.5E1,1E0,1E1,1E0,1E0,7.2E1,1E1,1E0,4.2E1,2E0,4.2E1,6E0,8.5E1,1E0,1E0,6.6E1,1.7E1,6.994636E-2,-7.917212E-2,-3.2360777E-2,5.6087818E-2,-4.3451868E-2,-7.094147E-2,-2.3307925E-2,-4.4130918E-2,-2.5683338E-2,-1.198472E-2,-1.7831748E-2,-5.006808E-2,9.227386E-3,-1.6647555E-2,-5.1602977E-3,2.1021096E-2,-9.4021045E-2,1.3882503E-2,2.0568026E-2,-2.1966523E-2,-3.1685368E-3,1.47577245E-2,-3.9545437E-3,3.1099388E-2,-7.6645665E-2,2.1692698E-3,4.494394E-2,5.634232E-3,4.7847636E-2,-8.986705E-2,-3.1610746E-2,8.464481E-3,6.027195E-2,-7.662776E-2,2.3693478E-2,4.3949824E-2,1.7913379E-2,-5.6686223E-2,6.875081E-2,5.296829E-3,5.3272795E-2,-5.9301317E-2,5.7620775E-2,-5.7789277E-2,1.3973683E-2,-8.7806016E-2,4.09148E-2,-7.750168E-2,5.5189688E-2,2.2789985E-2,3.651024E-2,-7.57239E-2,-9.694128E-2,2.8102292E-2,6.7895345E-2,4.426987E-2,-8.120102E-2,6.1671775E-2],"split_indices":[10,2,10,10,2,2,10,11,11,2,2,23,9,7,44,39,35,5,7,53,2,52,2,53,0,2,33,10,16,2,7,9,5,39,34,35,5,9,5,35,10,9,2,57,7,10,38,5,2,54,5,8,5,8,35,46,55,5,7,0,0,0,0,0,0,0,0,0,0,0,0,0,0,0,0,0,0,0,0,0,0,0,0,0,0,0,0,0,0,0,0,0,0,0,0,0,0,0,0,0,0,0,0,0,0,0,0,0,0,0,0,0,0,0,0,0,0],"split_type":[0,0,0,0,0,0,0,0,0,0,0,0,0,0,0,0,0,0,0,0,0,0,0,0,0,0,0,0,0,0,0,0,0,0,0,0,0,0,0,0,0,0,0,0,0,0,0,0,0,0,0,0,0,0,0,0,0,0,0,0,0,0,0,0,0,0,0,0,0,0,0,0,0,0,0,0,0,0,0,0,0,0,0,0,0,0,0,0,0,0,0,0,0,0,0,0,0,0,0,0,0,0,0,0,0,0,0,0,0,0,0,0,0,0,0,0,0],"sum_hessian":[2.8876785E4,2.3065164E4,5.8116226E3,1.2939585E4,1.0125578E4,3.9897654E3,1.8218574E3,9.865118E3,3.0744663E3,9.011771E3,1.1138074E3,3.805346E3,1.8441939E2,1.5009684E3,3.2088895E2,2.584224E3,7.280894E3,8.564128E2,2.2180535E3,4.7016255E3,4.3101455E3,7.5430145E2,3.5950595E2,3.7996113E3,5.7347193E0,1.5741014E2,2.7009256E1,9.998487E2,5.0111972E2,3.1477332E2,6.1156507E0,2.2622922E3,3.2193207E2,2.5919058E3,4.6889883E3,2.137903E2,6.426225E2,1.3228784E3,8.951751E2,2.586151E3,2.1154749E3,3.0599338E3,1.2502117E3,7.413417E2,1.2959769E1,3.041234E2,5.538255E1,2.4842444E3,1.3153668E3,1.08870605E2,4.8539528E1,1.2873064E1,1.4136192E1,4.6339297E2,5.3645575E2,4.9096146E2,1.0158262E1,2.9908047E2,1.5692824E1,3.903954E0,2.2116966E0,2.2523376E3,9.9545145E0,2.0874033E2,1.13191734E2,2.2363813E3,3.5552438E2,1.02147144E3,3.667517E3,1.074833E2,1.0630699E2,3.0652478E2,3.360977E2,1.0719823E3,2.508961E2,1.2742966E1,8.824321E2,2.4838823E3,1.0226851E2,1.4481982E3,6.6727673E2,2.9448494E3,1.1508435E2,3.2627795E2,9.239337E2,6.870925E2,5.4249146E1,4.971859E0,7.9879107E0,2.3611017E2,6.801324E1,5.2637936E1,2.7446122E0,2.2616357E3,2.2260873E2,1.2750629E3,4.0304058E1,1.0540012E2,3.4704866E0,3.910302E1,9.436511E0,1.1625557E1,1.2475069E0,9.660251E0,4.475941E0,4.5940286E2,3.9900968E0,4.819989E2,5.4456863E1,4.8822018E2,2.7412794E0,7.433459E0,2.7248042E0,2.7402917E2,2.5051313E1,2.460611E0,1.3232213E1],"tree_param":{"num_deleted":"0","num_feature":"66","num_nodes":"117","size_leaf_vector":"1"}},{"base_weights":[8.676102E-3,-2.2855341E-1,3.5784298E-1,-4.4881243E-1,6.404743E-2,2.6159963E-1,8.852013E-1,-6.739649E-1,-3.6867875E-1,9.887806E-3,4.5506513E-1,1.425597E-1,4.3976378E-1,7.483014E-1,1.0929945E0,-6.2476426E-1,-1.0259289E0,-4.253987E-1,-1.6986045E-1,1.854391E-1,-1.8199348E-1,7.840289E-1,-2.7256858E-1,2.2134079E-2,2.7178344E-1,4.10859E-1,1.0007956E0,8.30425E-1,4.8190567E-1,6.866031E-1,1.1560454E0,-6.47449E-1,-9.67117E-2,-1.3108062E0,-6.919866E-1,-5.373529E-1,-3.2749325E-1,-2.2689776E-1,1.6865158E-1,2.225819E-1,-3.5589534E-1,-9.821148E-2,-3.7485874E-1,8.181902E-1,-7.3151046E-1,-4.6887287E-1,9.4247335E-1,6.639692E-2,-3.7892413E-1,8.363727E-1,2.3107842E-1,4.5098045E-1,1.259957E-1,1.0282807E0,-6.400508E-2,8.633702E-1,-2.6348302E-1,2.1043989E-1,7.929056E-1,7.748688E-1,-8.0020964E-2,1.2345761E0,9.6459013E-1,-4.1805983E-2,-2.9812483E-2,-6.904635E-2,1.3720694E-2,-4.0976483E-2,-7.780508E-2,-3.8310457E-2,6.8455E-2,-3.663631E-2,-2.0539898E-2,-1.553158E-2,-4.4222172E-2,-1.05253365E-2,-5.8272917E-2,1.2972422E-2,-4.7394987E-2,1.7251298E-2,2.7982064E-3,-1.34090325E-2,-9.047015E-2,-2.5761416E-2,-2.0506426E-3,-7.969462E-2,-2.4726293E-3,4.419863E-2,-2.3630268E-3,4.59242E-2,-8.593486E-2,-4.1193657E-2,-5.3226673E-3,5.490909E-2,-6.566702E-2,-2.4865684E-3,8.867688E-3,3.8701732E-4,-2.7703056E-2,6.8827644E-2,9.522559E-3,9.833045E-3,3.0344188E-2,1.8923027E-2,2.9715735E-2,8.562483E-4,3.0583287E-2,5.988446E-2,3.2843556E-2,4.5739766E-2,2.218397E-2,-4.1865967E-2,5.8166217E-2,-3.3869923E-3,3.882734E-2,4.535527E-2,-4.7439706E-2,4.9397957E-2,3.17109E-3,6.293735E-2,4.0777963E-2,4.933315E-2,-6.415642E-2],"categories":[],"categories_nodes":[],"categories_segments":[],"categories_sizes":[],"default_left":[0,0,0,0,0,0,0,0,0,0,0,0,0,0,0,0,0,0,0,0,0,0,0,0,0,0,0,0,0,0,0,0,0,0,0,0,0,0,0,0,0,0,0,0,0,0,0,0,0,0,0,0,0,0,0,0,0,0,0,0,0,0,0,0,0,0,0,0,0,0,0,0,0,0,0,0,0,0,0,0,0,0,0,0,0,0,0,0,0,0,0,0,0,0,0,0,0,0,0,0,0,0,0,0,0,0,0,0,0,0,0,0,0,0,0,0,0,0,0,0,0,0,0],"id":5,"left_children":[1,3,5,7,9,11,13,15,17,19,21,23,25,27,29,31,33,35,37,39,41,43,45,47,49,51,53,55,57,59,61,63,65,67,69,71,73,75,77,79,81,83,85,87,89,91,93,95,97,99,101,103,105,107,-1,109,111,113,115,117,-1,119,121,-1,-1,-1,-1,-1,-1,-1,-1,-1,-1,-1,-1,-1,-1,-1,-1,-1,-1,-1,-1,-1,-1,-1,-1,-1,-1,-1,-1,-1,-1,-1,-1,-1,-1,-1,-1,-1,-1,-1,-1,-1,-1,-1,-1,-1,-1,-1,-1,-1,-1,-1,-1,-1,-1,-1,-1,-1,-1,-1,-1],"loss_changes":[2.3947292E3,1.1094751E3,5.9338794E2,1.7695459E2,1.5658241E2,2.0973737E2,5.051892E1,4.3981445E1,8.163739E1,2.1883601E2,2.1552968E2,9.229953E1,6.383319E1,2.3469849E1,1.7516052E1,2.7049438E1,2.9009827E1,6.1608337E1,3.112276E1,6.829327E1,5.0118477E1,3.268347E1,6.741864E1,5.4548073E1,6.556073E1,4.3022583E1,1.3441376E1,3.023352E1,2.1739994E1,2.1111233E1,8.087891E0,2.0462585E1,4.5371525E1,1.9040741E1,2.3519958E1,6.4681335E1,2.7988953E1,2.095716E1,2.3839314E1,6.4762955E1,2.7336092E1,5.1626564E1,3.7266797E2,3.4572723E1,2.4690525E1,3.1101112E1,1.5277733E1,3.5661495E1,2.0687721E1,6.673845E1,3.441687E1,3.411383E1,2.4667814E1,1.127269E1,0E0,1.704358E1,2.1531694E1,2.2085163E1,2.4842827E1,1.4408268E1,0E0,3.3695679E0,1.0398819E1,0E0,0E0,0E0,0E0,0E0,0E0,0E0,0E0,0E0,0E0,0E0,0E0,0E0,0E0,0E0,0E0,0E0,0E0,0E0,0E0,0E0,0E0,0E0,0E0,0E0,0E0,0E0,0E0,0E0,0E0,0E0,0E0,0E0,0E0,0E0,0E0,0E0,0E0,0E0,0E0,0E0,0E0,0E0,0E0,0E0,0E0,0E0,0E0,0E0,0E0,0E0,0E0,0E0,0E0,0E0,0E0,0E0,0E0,0E0,0E0],"parents":[2147483647,0,0,1,1,2,2,3,3,4,4,5,5,6,6,7,7,8,8,9,9,10,10,11,11,12,12,13,13,14,14,15,15,16,16,17,17,18,18,19,19,20,20,21,21,22,22,23,23,24,24,25,25,26,26,27,27,28,28,29,29,30,30,31,31,32,32,33,33,34,34,35,35,36,36,37,37,38,38,39,39,40,40,41,41,42,42,43,43,44,44,45,45,46,46,47,47,48,48,49,49,50,50,51,51,52,52,53,53,55,55,56,56,57,57,58,58,59,59,61,61,62,62],"right_children":[2,4,6,8,10,12,14,16,18,20,22,24,26,28,30,32,34,36,38,40,42,44,46,48,50,52,54,56,58,60,62,64,66,68,70,72,74,76,78,80,82,84,86,88,90,92,94,96,98,100,102,104,106,108,-1,110,112,114,116,118,-1,120,122,-1,-1,-1,-1,-1,-1,-1,-1,-1,-1,-1,-1,-1,-1,-1,-1,-1,-1,-1,-1,-1,-1,-1,-1,-1,-1,-1,-1,-1,-1,-1,-1,-1,-1,-1,-1,-1,-1,-1,-1,-1,-1,-1,-1,-1,-1,-1,-1,-1,-1,-1,-1,-1,-1,-1,-1,-1,-1,-1,-1],"split_conditions":[1E0,2E0,4E0,6E0,2.2E1,2E0,8E0,1E0,6E0,6E0,2.3E1,2E0,2E1,7E0,5E0,2E0,1.2E1,9E0,8.5E1,9.5E1,1E1,1E0,2.8E1,1E0,3E0,1E0,8E0,8E0,6E0,4E0,2.1E1,4E0,2E0,5.5E1,9.5E1,6.5E1,9E0,1E0,3.1111112E0,1E0,1E0,6E0,1.4E1,1E0,1E1,9E0,1E0,1E0,2.2666667E0,7E0,2E1,2E1,8.5E1,2.3E1,-6.400508E-2,6E0,2.3E1,3E0,1E0,1.1E1,-8.0020964E-2,8.5E1,1E0,-4.1805983E-2,-2.9812483E-2,-6.904635E-2,1.3720694E-2,-4.0976483E-2,-7.780508E-2,-3.8310457E-2,6.8455E-2,-3.663631E-2,-2.0539898E-2,-1.553158E-2,-4.4222172E-2,-1.05253365E-2,-5.8272917E-2,1.2972422E-2,-4.7394987E-2,1.7251298E-2,2.7982064E-3,-1.34090325E-2,-9.047015E-2,-2.5761416E-2,-2.0506426E-3,-7.969462E-2,-2.4726293E-3,4.419863E-2,-2.3630268E-3,4.59242E-2,-8.593486E-2,-4.1193657E-2,-5.3226673E-3,5.490909E-2,-6.566702E-2,-2.4865684E-3,8.867688E-3,3.8701732E-4,-2.7703056E-2,6.8827644E-2,9.522559E-3,9.833045E-3,3.0344188E-2,1.8923027E-2,2.9715735E-2,8.562483E-4,3.0583287E-2,5.988446E-2,3.2843556E-2,4.5739766E-2,2.218397E-2,-4.1865967E-2,5.8166217E-2,-3.3869923E-3,3.882734E-2,4.535527E-2,-4.7439706E-2,4.9397957E-2,3.17109E-3,6.293735E-2,4.0777963E-2,4.933315E-2,-6.415642E-2],"split_indices":[10,2,10,11,2,10,63,39,4,2,2,2,2,4,10,8,7,11,35,35,2,52,2,44,2,12,63,3,63,6,7,11,4,35,35,35,64,40,64,53,47,11,2,57,7,11,39,0,64,3,2,7,35,2,0,64,7,6,18,63,0,35,23,0,0,0,0,0,0,0,0,0,0,0,0,0,0,0,0,0,0,0,0,0,0,0,0,0,0,0,0,0,0,0,0,0,0,0,0,0,0,0,0,0,0,0,0,0,0,0,0,0,0,0,0,0,0,0,0,0,0,0,0],"split_type":[0,0,0,0,0,0,0,0,0,0,0,0,0,0,0,0,0,0,0,0,0,0,0,0,0,0,0,0,0,0,0,0,0,0,0,0,0,0,0,0,0,0,0,0,0,0,0,0,0,0,0,0,0,0,0,0,0,0,0,0,0,0,0,0,0,0,0,0,0,0,0,0,0,0,0,0,0,0,0,0,0,0,0,0,0,0,0,0,0,0,0,0,0,0,0,0,0,0,0,0,0,0,0,0,0,0,0,0,0,0,0,0,0,0,0,0,0,0,0,0,0,0,0],"sum_hessian":[2.8908453E4,1.7213604E4,1.169485E4,9.820535E3,7.393068E3,9.891194E3,1.8036554E3,2.5758186E3,7.244717E3,6.494538E3,8.9852936E2,5.9305273E3,3.960667E3,1.0900812E3,7.135742E2,2.262343E3,3.1347565E2,5.6357734E3,1.6089432E3,3.391607E3,3.1029314E3,6.187255E2,2.798038E2,3.0703716E3,2.8601558E3,3.7682559E3,1.9241116E2,8.3160065E2,2.584805E2,9.743735E1,6.1613684E2,2.1689407E3,9.3402214E1,1.6758662E2,1.4588902E2,2.6271533E3,3.00862E3,1.3772195E3,2.3172377E2,3.17439E3,2.1721687E2,2.1642678E3,9.386637E2,6.0553644E2,1.3189083E1,2.4141457E2,3.8389248E1,2.7659424E3,3.0442914E2,1.9102623E2,2.6691294E3,3.302529E3,4.6572665E2,1.9066283E2,1.7483315E0,8.0749225E2,2.4108429E1,1.3890752E2,1.1957299E2,9.445319E1,2.9841526E0,4.3305777E2,1.830791E2,4.5968008E2,1.7092606E3,2.0330648E1,7.307157E1,5.725584E1,1.1033078E2,1.414244E2,4.464633E0,1.0308916E3,1.5962617E3,2.9217227E3,8.689746E1,1.3547838E3,2.2435686E1,2.1500723E2,1.6716541E1,1.8291289E3,1.3452611E3,2.0597162E2,1.1245248E1,2.6008246E2,1.9041853E3,1.9695067E2,7.41713E2,5.627414E2,4.2795036E1,4.9631743E0,8.225908E0,1.21312386E2,1.2010217E2,3.6390553E1,1.998696E0,1.3517461E3,1.4141964E3,9.520125E1,2.0922789E2,1.03412155E2,8.7614075E1,2.4465862E3,2.2254324E2,2.1954055E3,1.1071238E3,3.812897E2,8.443695E1,1.2941083E2,6.1252007E1,7.1829865E2,8.91936E1,1.748816E1,6.6202707E0,9.3729866E1,4.517765E1,1.1266496E2,6.908033E0,7.238425E1,2.206895E1,4.0754462E2,2.5513153E1,1.8185431E2,1.224792E0],"tree_param":{"num_deleted":"0","num_feature":"66","num_nodes":"123","size_leaf_vector":"1"}},{"base_weights":[-1.1088104E-2,-1.5122084E-1,5.4696095E-1,-2.6591152E-1,2.832376E-2,4.499958E-1,9.57694E-1,-3.8610065E-1,-7.859682E-2,-7.4676864E-2,1.0797023E-1,3.5009572E-1,5.793313E-1,5.0885373E-1,1.0281442E0,-5.45142E-1,-3.01223E-1,-3.7181523E-2,-3.94835E-1,-9.007277E-2,1.0527092E0,1.290226E-1,-4.887773E-1,7.2277516E-1,3.2236925E-1,5.9077257E-1,-1.27989E-1,5.954296E-1,-9.708167E-1,1.0573238E0,5.617408E-1,-7.0333254E-1,-4.1191962E-1,-2.874931E-1,-1.1843709E0,-2.0619805E-1,2.4704333E-2,-2.6197076E-1,-1.1427011E0,-7.497888E-2,-1.2544725E0,1.3862398E0,-4.4597555E-2,1.3488196E-1,-1.4348377E0,-3.0926E-1,-1.3540317E0,1.098797E0,4.3306568E-1,3.4642406E-2,3.4996644E-1,6.0571414E-1,7.7037215E-2,-7.0889586E-1,5.6387115E-1,9.510732E-1,2.1676083E-1,-8.953489E-2,4.877683E-2,1.0200546E0,1.3395251E0,-2.907214E-1,9.926949E-1,-6.461283E-2,-2.8569836E-2,-4.2194005E-2,-1.586742E-2,-2.3750862E-2,-1.1205771E-2,4.763516E-2,-6.7135714E-2,-2.0242456E-2,4.89796E-3,-3.124858E-4,1.9550104E-2,-1.0493338E-2,-9.127232E-2,-6.6176616E-2,1.4712487E-2,9.461503E-4,-1.0926053E-2,-9.32796E-2,-3.347651E-2,7.984164E-2,4.915421E-2,4.3364402E-2,-7.9749726E-2,8.383454E-3,-4.23075E-3,-9.233318E-2,3.263112E-2,-9.161057E-3,-8.7182395E-2,-7.886001E-2,1.1278885E-2,1.7759837E-3,6.02989E-2,5.0203938E-2,1.4539692E-3,-6.3751794E-2,5.8135046E-3,1.3584906E-2,2.2395935E-2,3.0976309E-2,-6.841568E-3,4.4569626E-2,-2.4594689E-2,-9.239523E-2,9.686866E-3,5.679536E-2,-2.4153037E-2,5.0829973E-2,-6.6613756E-2,3.833148E-2,-1.8774465E-2,2.9909E-2,5.1991183E-2,7.048834E-2,1.0619451E-2,-6.6380024E-2,3.3292837E-2,5.8978647E-2,1.5852924E-2],"categories":[],"categories_nodes":[],"categories_segments":[],"categories_sizes":[],"default_left":[0,0,0,0,0,0,0,0,0,0,0,0,0,0,0,0,0,0,0,0,0,0,0,0,0,0,0,0,0,0,0,0,0,0,0,0,0,0,0,0,0,0,0,0,0,0,0,0,0,0,0,0,0,0,0,0,0,0,0,0,0,0,0,0,0,0,0,0,0,0,0,0,0,0,0,0,0,0,0,0,0,0,0,0,0,0,0,0,0,0,0,0,0,0,0,0,0,0,0,0,0,0,0,0,0,0,0,0,0,0,0,0,0,0,0,0,0,0,0,0,0,0,0],"id":6,"left_children":[1,3,5,7,9,11,13,15,17,19,21,23,25,27,29,31,33,35,37,39,41,43,45,47,49,51,53,55,57,59,61,63,65,67,69,71,73,75,77,79,81,83,85,87,89,91,93,95,97,99,101,103,105,107,109,111,113,-1,-1,115,117,119,121,-1,-1,-1,-1,-1,-1,-1,-1,-1,-1,-1,-1,-1,-1,-1,-1,-1,-1,-1,-1,-1,-1,-1,-1,-1,-1,-1,-1,-1,-1,-1,-1,-1,-1,-1,-1,-1,-1,-1,-1,-1,-1,-1,-1,-1,-1,-1,-1,-1,-1,-1,-1,-1,-1,-1,-1,-1,-1,-1,-1],"loss_changes":[2.2368318E3,4.7079462E2,2.2821753E2,3.140506E2,7.312329E1,5.983246E1,3.4120728E1,1.14549805E2,7.141757E1,6.7563034E1,6.3210472E1,2.6881866E1,1.6450256E1,1.9872505E1,1.2280334E1,6.200299E1,6.687253E1,5.0458565E1,6.244551E1,6.73181E1,1.9256474E1,4.469004E1,2.621893E1,1.9231064E1,1.9395752E1,1.5239075E1,1.3674827E1,1.9039726E1,1.5639112E1,7.9852295E0,2.1534592E1,1.0414697E2,6.537793E1,6.477957E1,2.9885574E1,7.815898E1,4.0046013E1,4.340324E1,2.5065079E1,5.1056656E1,1.627427E1,1.8476639E0,2.0037066E1,3.4837257E1,1.6861568E1,2.5591553E1,1.0638996E1,8.85466E0,2.3922096E1,2.313569E1,1.6975952E1,1.9929443E1,2.704457E1,1.9273022E1,9.910706E0,1.2336494E1,2.3250057E1,0E0,0E0,5.96344E0,7.6601257E0,2.0912352E1,4.504696E0,0E0,0E0,0E0,0E0,0E0,0E0,0E0,0E0,0E0,0E0,0E0,0E0,0E0,0E0,0E0,0E0,0E0,0E0,0E0,0E0,0E0,0E0,0E0,0E0,0E0,0E0,0E0,0E0,0E0,0E0,0E0,0E0,0E0,0E0,0E0,0E0,0E0,0E0,0E0,0E0,0E0,0E0,0E0,0E0,0E0,0E0,0E0,0E0,0E0,0E0,0E0,0E0,0E0,0E0,0E0,0E0,0E0,0E0,0E0,0E0],"parents":[2147483647,0,0,1,1,2,2,3,3,4,4,5,5,6,6,7,7,8,8,9,9,10,10,11,11,12,12,13,13,14,14,15,15,16,16,17,17,18,18,19,19,20,20,21,21,22,22,23,23,24,24,25,25,26,26,27,27,28,28,29,29,30,30,31,31,32,32,33,33,34,34,35,35,36,36,37,37,38,38,39,39,40,40,41,41,42,42,43,43,44,44,45,45,46,46,47,47,48,48,49,49,50,50,51,51,52,52,53,53,54,54,55,55,56,56,59,59,60,60,61,61,62,62],"right_children":[2,4,6,8,10,12,14,16,18,20,22,24,26,28,30,32,34,36,38,40,42,44,46,48,50,52,54,56,58,60,62,64,66,68,70,72,74,76,78,80,82,84,86,88,90,92,94,96,98,100,102,104,106,108,110,112,114,-1,-1,116,118,120,122,-1,-1,-1,-1,-1,-1,-1,-1,-1,-1,-1,-1,-1,-1,-1,-1,-1,-1,-1,-1,-1,-1,-1,-1,-1,-1,-1,-1,-1,-1,-1,-1,-1,-1,-1,-1,-1,-1,-1,-1,-1,-1,-1,-1,-1,-1,-1,-1,-1,-1,-1,-1,-1,-1,-1,-1,-1,-1,-1,-1],"split_conditions":[2E0,1E0,5E0,5E0,1E0,3E0,6E0,6.5E1,1E0,4E0,1E0,4.5E1,1E0,1.1E1,1E0,1E0,7.3E1,6.5E1,6.9E1,9E0,3.8E0,1E1,8E0,6E0,2E0,1E0,1E0,6.5E1,6.9E1,1.1E1,1E0,2.1E1,2.2666667E0,1E0,5E0,2.8E0,1E0,1E0,9.2E1,1E0,1.05E1,9E0,5E0,1E0,5E0,3E0,1E0,3E0,1E0,2.5714285E0,3.2E0,5E0,3.1E1,1E0,2E0,4E0,3.9E1,-8.953489E-2,4.877683E-2,5E0,1E0,4.1666665E0,4.6E0,-6.461283E-2,-2.8569836E-2,-4.2194005E-2,-1.586742E-2,-2.3750862E-2,-1.1205771E-2,4.763516E-2,-6.7135714E-2,-2.0242456E-2,4.89796E-3,-3.124858E-4,1.9550104E-2,-1.0493338E-2,-9.127232E-2,-6.6176616E-2,1.4712487E-2,9.461503E-4,-1.0926053E-2,-9.32796E-2,-3.347651E-2,7.984164E-2,4.915421E-2,4.3364402E-2,-7.9749726E-2,8.383454E-3,-4.23075E-3,-9.233318E-2,3.263112E-2,-9.161057E-3,-8.7182395E-2,-7.886001E-2,1.1278885E-2,1.7759837E-3,6.02989E-2,5.0203938E-2,1.4539692E-3,-6.3751794E-2,5.8135046E-3,1.3584906E-2,2.2395935E-2,3.0976309E-2,-6.841568E-3,4.4569626E-2,-2.4594689E-2,-9.239523E-2,9.686866E-3,5.679536E-2,-2.4153037E-2,5.0829973E-2,-6.6613756E-2,3.833148E-2,-1.8774465E-2,2.9909E-2,5.1991183E-2,7.048834E-2,1.0619451E-2,-6.6380024E-2,3.3292837E-2,5.8978647E-2,1.5852924E-2],"split_indices":[10,63,10,4,27,10,63,35,39,9,40,35,40,4,47,27,5,35,5,64,64,8,11,11,4,54,6,35,5,10,6,5,64,34,11,64,56,54,5,8,64,11,9,39,6,8,16,11,34,64,64,9,5,0,6,6,5,0,0,11,43,64,64,0,0,0,0,0,0,0,0,0,0,0,0,0,0,0,0,0,0,0,0,0,0,0,0,0,0,0,0,0,0,0,0,0,0,0,0,0,0,0,0,0,0,0,0,0,0,0,0,0,0,0,0,0,0,0,0,0,0,0,0],"split_type":[0,0,0,0,0,0,0,0,0,0,0,0,0,0,0,0,0,0,0,0,0,0,0,0,0,0,0,0,0,0,0,0,0,0,0,0,0,0,0,0,0,0,0,0,0,0,0,0,0,0,0,0,0,0,0,0,0,0,0,0,0,0,0,0,0,0,0,0,0,0,0,0,0,0,0,0,0,0,0,0,0,0,0,0,0,0,0,0,0,0,0,0,0,0,0,0,0,0,0,0,0,0,0,0,0,0,0,0,0,0,0,0,0,0,0,0,0,0,0,0,0,0,0],"sum_hessian":[2.8601586E4,2.2861518E4,5.7400693E3,1.3949978E4,8.91154E3,4.64547E3,1.0945991E3,8.496926E3,5.453052E3,3.8860603E3,5.0254795E3,2.6230818E3,2.0223883E3,1.4961584E2,9.449832E2,2.9548284E3,5.5420967E3,4.8225913E3,6.3046045E2,3.8346138E3,5.1446476E1,4.8549863E3,1.704929E2,1.7990184E2,2.44318E3,1.9903579E3,3.2030334E1,1.4191023E2,7.7056074E0,8.881509E2,5.6832355E1,1.3488737E3,1.6059548E3,5.4585605E3,8.353628E1,1.2919135E3,3.530678E3,5.3649774E2,9.39627E1,3.7865933E3,4.80205E1,3.9252285E1,1.2194192E1,4.8377744E3,1.7212095E1,1.4232224E2,2.8170668E1,7.707341E1,1.0282843E2,2.1402483E2,2.2291553E3,1.933932E3,5.6425888E1,1.7397902E1,1.4632432E1,7.240048E1,6.950976E1,5.4780207E0,2.2275867E0,7.8861584E2,9.953501E1,1.9192812E1,3.763954E1,2.452688E2,1.1036049E3,2.8702518E2,1.3189297E3,1.3771891E3,4.0813716E3,5.41647E0,7.8119804E1,7.8130005E2,5.106134E2,3.2564722E3,2.7420578E2,5.2029285E2,1.6204914E1,8.3529915E1,1.043278E1,2.289636E3,1.4969573E3,2.2414036E1,2.5606466E1,2.3838911E1,1.5413374E1,7.955605E0,4.238587E0,4.2092573E3,6.285169E2,1.4472277E1,2.739818E0,1.3186322E2,1.0459015E1,2.4684717E1,3.4859524E0,7.179676E0,6.989374E1,4.1990986E1,6.083744E1,1.16990385E1,2.0232579E2,1.2411741E3,9.879811E2,1.8987787E3,3.5153294E1,2.2974258E1,3.3451633E1,7.2288156E0,1.01690855E1,9.407342E0,5.2250905E0,7.092004E1,1.4804432E0,3.5891872E1,3.3617886E1,3.6699635E1,7.5191626E2,9.345996E1,6.0750546E0,9.023721E0,1.0169091E1,2.890005E1,8.739493E0],"tree_param":{"num_deleted":"0","num_feature":"66","num_nodes":"123","size_leaf_vector":"1"}},{"base_weights":[8.1542916E-5,-2.2231156E-1,3.2664326E-1,-3.4035107E-1,-1.1272103E-1,2.3492213E-1,8.244523E-1,-6.296842E-1,-2.930204E-1,-3.0319852E-1,-6.66814E-2,1.2872893E-1,3.9354208E-1,7.486202E-1,1.1798767E0,-5.726399E-1,-1.2472749E0,-2.8377774E-1,-1.203892E0,-4.2648032E-1,-1.0453495E-1,-3.2545865E-2,-3.1184724E-1,1.1576754E-1,6.781181E-1,3.9710337E-1,-8.725303E-2,6.3043517E-1,8.495302E-1,1.2352574E0,8.079675E-1,-6.0249776E-1,5.5855405E-1,-1.3642415E0,-1.959738E-1,-6.036244E-1,-2.598871E-1,-1.6496053E0,-5.886479E-1,-8.5742146E-1,-3.4284362E-1,-6.291122E-2,-1.2014045E0,-1.3961935E-1,2.2044083E-2,-4.3208063E-1,-1.3657656E-1,1.36274E-1,-2.8032938E-1,7.823303E-1,-9.2783254E-1,3.4381366E-1,5.4380196E-1,6.9186336E-1,-2.0031769E-2,1.0003992E0,6.25053E-1,1.1572752E0,1.419892E0,9.18815E-1,-7.225163E-2,-3.213621E-2,-2.029159E-3,4.8749153E-2,-7.222631E-2,-8.9698255E-2,-3.859636E-2,-3.6364537E-2,7.3049225E-2,-3.424298E-2,6.2456117E-3,-1.0362761E-2,-1.9244205E-2,-9.150962E-2,-3.411489E-2,-4.1457955E-3,-8.345516E-2,6.340963E-4,-4.8998848E-2,-2.0265518E-2,1.2645056E-2,1.8231148E-3,-1.993833E-2,-9.1097616E-2,2.8297359E-3,-6.6043064E-3,-8.597131E-2,2.3551647E-5,1.4999225E-2,-1.8216621E-2,-6.881164E-2,-2.2351074E-3,-6.266754E-2,7.6346486E-3,-1.8027822E-2,5.4567553E-2,-2.1617139E-2,4.4060364E-2,-1.912712E-2,3.0059954E-2,-8.630341E-2,1.450827E-2,2.288034E-2,1.5796212E-2,3.3408158E-2,3.5908837E-2,-3.7965894E-2,-2.8360931E-2,2.309036E-2,2.2381363E-2,5.41671E-2,3.3465188E-2,-5.0915074E-2,5.98899E-2,3.1121839E-2,7.252505E-2,2.0387126E-2,3.540088E-3,4.9219154E-2],"categories":[],"categories_nodes":[],"categories_segments":[],"categories_sizes":[],"default_left":[0,0,0,0,0,0,0,0,0,0,0,0,0,0,0,0,0,0,0,0,0,0,0,0,0,0,0,0,0,0,0,0,0,0,0,0,0,0,0,0,0,0,0,0,0,0,0,0,0,0,0,0,0,0,0,0,0,0,0,0,0,0,0,0,0,0,0,0,0,0,0,0,0,0,0,0,0,0,0,0,0,0,0,0,0,0,0,0,0,0,0,0,0,0,0,0,0,0,0,0,0,0,0,0,0,0,0,0,0,0,0,0,0,0,0,0,0,0,0],"id":7,"left_children":[1,3,5,7,9,11,13,15,17,19,21,23,25,27,29,31,33,35,37,39,41,43,45,47,49,51,-1,53,55,57,59,61,63,65,67,69,71,73,75,77,79,81,83,85,87,89,91,93,95,97,99,101,103,105,107,109,111,113,115,117,-1,-1,-1,-1,-1,-1,-1,-1,-1,-1,-1,-1,-1,-1,-1,-1,-1,-1,-1,-1,-1,-1,-1,-1,-1,-1,-1,-1,-1,-1,-1,-1,-1,-1,-1,-1,-1,-1,-1,-1,-1,-1,-1,-1,-1,-1,-1,-1,-1,-1,-1,-1,-1,-1,-1,-1,-1,-1,-1],"loss_changes":[2.0885447E3,2.212641E2,5.3176025E2,1.1259857E2,7.778924E1,1.6568457E2,4.796057E1,4.00459E1,5.9262024E1,4.2248825E1,5.9801064E1,4.1899338E1,3.0740112E1,1.7309265E1,5.5295105E0,3.617157E1,1.1657974E1,5.340869E1,1.844629E1,3.8100967E1,3.0175243E1,3.667846E1,1.8345573E1,4.6827225E1,2.343103E1,3.0609436E1,0E0,2.7705414E1,2.6612183E1,2.3013E0,1.2308037E1,2.3350494E1,2.460053E1,2.0785522E1,1.0638642E1,2.8875366E1,4.284384E1,5.827118E0,1.6965603E1,1.8404633E1,3.336425E1,2.1355112E1,1.8970669E1,2.4989872E1,2.4923054E1,3.2603294E1,3.655371E1,4.4737656E1,5.96628E1,1.5073395E1,1.168632E1,1.7524902E1,2.9488068E1,2.4726685E1,1.6285E1,2.1491302E1,2.4383347E1,3.5460205E0,1.7922974E0,2.2943382E0,0E0,0E0,0E0,0E0,0E0,0E0,0E0,0E0,0E0,0E0,0E0,0E0,0E0,0E0,0E0,0E0,0E0,0E0,0E0,0E0,0E0,0E0,0E0,0E0,0E0,0E0,0E0,0E0,0E0,0E0,0E0,0E0,0E0,0E0,0E0,0E0,0E0,0E0,0E0,0E0,0E0,0E0,0E0,0E0,0E0,0E0,0E0,0E0,0E0,0E0,0E0,0E0,0E0,0E0,0E0,0E0,0E0,0E0,0E0],"parents":[2147483647,0,0,1,1,2,2,3,3,4,4,5,5,6,6,7,7,8,8,9,9,10,10,11,11,12,12,13,13,14,14,15,15,16,16,17,17,18,18,19,19,20,20,21,21,22,22,23,23,24,24,25,25,27,27,28,28,29,29,30,30,31,31,32,32,33,33,34,34,35,35,36,36,37,37,38,38,39,39,40,40,41,41,42,42,43,43,44,44,45,45,46,46,47,47,48,48,49,49,50,50,51,51,52,52,53,53,54,54,55,55,56,56,57,57,58,58,59,59],"right_children":[2,4,6,8,10,12,14,16,18,20,22,24,26,28,30,32,34,36,38,40,42,44,46,48,50,52,-1,54,56,58,60,62,64,66,68,70,72,74,76,78,80,82,84,86,88,90,92,94,96,98,100,102,104,106,108,110,112,114,116,118,-1,-1,-1,-1,-1,-1,-1,-1,-1,-1,-1,-1,-1,-1,-1,-1,-1,-1,-1,-1,-1,-1,-1,-1,-1,-1,-1,-1,-1,-1,-1,-1,-1,-1,-1,-1,-1,-1,-1,-1,-1,-1,-1,-1,-1,-1,-1,-1,-1,-1,-1,-1,-1,-1,-1,-1,-1,-1,-1],"split_conditions":[1E0,4E0,4E0,5E0,1E0,2E0,8E0,1.9E1,1E0,7E0,1E0,3E0,1E0,1E0,1E0,8.5E0,6E0,6E0,1E0,9E0,2E0,8E0,1E0,1E0,1E0,3E0,-8.725303E-2,8E0,2E1,4.6666665E0,2.4E1,2E0,1E0,2.4E1,1E0,1E0,2E0,1E0,6.4E0,4E0,1E0,1E0,4E0,7E0,1E0,4.1666665E0,1.1E1,1E0,1.375E0,3E0,6E0,2E1,2.8E0,9E0,1.1E1,1.5714285E0,1E0,4.25E0,1E0,1.5555556E0,-7.225163E-2,-3.213621E-2,-2.029159E-3,4.8749153E-2,-7.222631E-2,-8.9698255E-2,-3.859636E-2,-3.6364537E-2,7.3049225E-2,-3.424298E-2,6.2456117E-3,-1.0362761E-2,-1.9244205E-2,-9.150962E-2,-3.411489E-2,-4.1457955E-3,-8.345516E-2,6.340963E-4,-4.8998848E-2,-2.0265518E-2,1.2645056E-2,1.8231148E-3,-1.993833E-2,-9.1097616E-2,2.8297359E-3,-6.6043064E-3,-8.597131E-2,2.3551647E-5,1.4999225E-2,-1.8216621E-2,-6.881164E-2,-2.2351074E-3,-6.266754E-2,7.6346486E-3,-1.8027822E-2,5.4567553E-2,-2.1617139E-2,4.4060364E-2,-1.912712E-2,3.0059954E-2,-8.630341E-2,1.450827E-2,2.288034E-2,1.5796212E-2,3.3408158E-2,3.5908837E-2,-3.7965894E-2,-2.8360931E-2,2.309036E-2,2.2381363E-2,5.41671E-2,3.3465188E-2,-5.0915074E-2,5.98899E-2,3.1121839E-2,7.252505E-2,2.0387126E-2,3.540088E-3,4.9219154E-2],"split_indices":[10,4,10,11,34,10,10,7,60,4,39,9,23,6,57,64,1,7,27,7,63,11,53,52,55,1,0,4,7,64,7,63,12,7,56,52,6,53,64,7,52,53,8,1,56,64,4,40,64,6,11,7,64,64,4,64,16,64,47,64,0,0,0,0,0,0,0,0,0,0,0,0,0,0,0,0,0,0,0,0,0,0,0,0,0,0,0,0,0,0,0,0,0,0,0,0,0,0,0,0,0,0,0,0,0,0,0,0,0,0,0,0,0,0,0,0,0,0,0],"split_type":[0,0,0,0,0,0,0,0,0,0,0,0,0,0,0,0,0,0,0,0,0,0,0,0,0,0,0,0,0,0,0,0,0,0,0,0,0,0,0,0,0,0,0,0,0,0,0,0,0,0,0,0,0,0,0,0,0,0,0,0,0,0,0,0,0,0,0,0,0,0,0,0,0,0,0,0,0,0,0,0,0,0,0,0,0,0,0,0,0,0,0,0,0,0,0,0,0,0,0,0,0,0,0,0,0,0,0,0,0,0,0,0,0,0,0,0,0,0,0],"sum_hessian":[2.87559E4,1.7106473E4,1.1649428E4,8.23475E3,8.871724E3,9.838212E3,1.8112155E3,1.1559723E3,7.078778E3,1.7258529E3,7.1458706E3,5.894058E3,3.9441543E3,1.4952917E3,3.1592368E2,1.0599924E3,9.597986E1,7.008969E3,6.980866E1,1.0642683E3,6.6158453E2,6.2735137E3,8.723566E2,5.759391E3,1.3466699E2,3.9384102E3,5.7441177E0,6.9203406E2,8.032577E2,2.729566E2,4.2967068E1,1.0331888E3,2.6803638E1,8.6102516E1,9.877339E0,4.854555E2,6.5235137E3,3.950678E1,3.030188E1,1.7147667E2,8.927917E2,6.3841547E2,2.3169073E1,2.1178926E3,4.1556216E3,5.1654694E2,3.558097E2,5.4765205E3,2.828707E2,1.26942406E2,7.724595E0,2.8914177E3,1.0469926E3,6.322615E2,5.9772587E1,4.7832413E2,3.2493356E2,1.9701389E2,7.5942726E1,4.1516632E1,1.4504364E0,9.6403186E2,6.915696E1,2.2615303E1,4.1883354E0,4.8724316E1,3.73782E1,7.9039454E0,1.9733943E0,4.3680917E2,4.864631E1,4.592451E3,1.9310626E3,3.2539852E1,6.966926E0,2.137402E1,8.927861E0,2.1281506E1,1.5019516E2,8.0835175E2,8.4439926E1,4.933373E2,1.4507814E2,1.5215334E1,7.953738E0,2.10892E3,8.972649E0,3.8572341E3,2.9838736E2,4.8325647E2,3.329049E1,3.2972406E2,2.6085606E1,5.3019956E3,1.745248E2,2.7604496E1,2.5526619E2,1.1723477E2,9.707634E0,2.7341442E0,4.990451E0,1.9674194E3,9.239981E2,3.709002E2,6.760924E2,6.214974E2,1.0764102E1,2.7905405E1,3.1867182E1,6.324235E1,4.1508176E2,3.1699066E2,7.9429173E0,1.8198589E2,1.5027995E1,7.3293144E1,2.6495812E0,3.12893E0,3.83877E1],"tree_param":{"num_deleted":"0","num_feature":"66","num_nodes":"119","size_leaf_vector":"1"}},{"base_weights":[-4.1615814E-3,-1.2786205E-1,4.9930876E-1,-2.040467E-1,9.5653616E-2,3.563818E-1,8.046375E-1,-3.1119058E-1,-8.287873E-2,8.0137506E-2,7.133457E-1,3.04341E-1,5.005739E-1,5.757186E-1,9.27568E-1,-4.5279342E-1,-1.7906025E-1,-3.7648293E-1,-4.7678765E-2,-8.8061E-2,1.3836893E-1,7.9636747E-1,-8.124902E-2,1.8858756E-1,3.8407516E-1,5.4422617E-1,-1.6268286E-1,6.948229E-1,2.036085E-1,6.6196346E-1,9.88896E-1,-5.1767266E-1,-1.4443573E-1,-1.3927463E-1,-4.5570603E-1,-4.729421E-1,-2.063425E-2,-1.824785E-1,-8.796806E-3,-3.9948314E-2,-8.29076E-1,2.876471E-2,2.143527E-1,8.631998E-1,-7.662568E-2,2.0808041E-1,-1.4323208E0,5.1448125E-1,2.2707401E-1,3.45241E-1,6.758757E-1,-1.2038109E0,2.6827246E-1,7.0957977E-1,-7.594027E-2,-4.8806712E-1,3.900121E-1,6.907247E-1,-7.520816E-2,1.0191816E0,5.717307E-1,-2.325665E-2,-4.4514768E-2,-1.132978E-2,2.0813556E-2,-1.8730206E-2,-4.5705736E-3,-2.5253648E-2,3.2935023E-2,-2.2694213E-2,-8.2651146E-2,5.0895875E-3,-5.0154876E-2,-7.607122E-3,-3.680913E-2,-5.29793E-3,2.169114E-3,1.5515417E-3,-1.7037496E-2,-3.2799594E-2,-9.221689E-2,-5.099111E-3,6.8083457E-3,-6.7712315E-3,1.2831184E-2,4.8910953E-2,-2.5229638E-2,1.1126254E-2,-6.4037986E-2,-9.800374E-2,1.9001372E-2,2.6456267E-2,-3.2035735E-2,-3.299776E-2,1.3301809E-2,2.0082405E-2,-3.110602E-2,3.9366953E-2,1.057241E-2,1.9481527E-2,-1.00829005E-1,2.4171622E-2,-8.554806E-2,-6.9458514E-2,3.5949536E-2,1.7952971E-2,-6.1348837E-2,-2.3770606E-2,3.2194115E-2,3.85736E-2,-8.158538E-3,5.2369446E-2,3.443119E-2,3.2541174E-2,-7.757986E-2],"categories":[],"categories_nodes":[],"categories_segments":[],"categories_sizes":[],"default_left":[0,0,0,0,0,0,0,0,0,0,0,0,0,0,0,0,0,0,0,0,0,0,0,0,0,0,0,0,0,0,0,0,0,0,0,0,0,0,0,0,0,0,0,0,0,0,0,0,0,0,0,0,0,0,0,0,0,0,0,0,0,0,0,0,0,0,0,0,0,0,0,0,0,0,0,0,0,0,0,0,0,0,0,0,0,0,0,0,0,0,0,0,0,0,0,0,0,0,0,0,0,0,0,0,0,0,0,0,0,0,0,0,0,0,0],"id":8,"left_children":[1,3,5,7,9,11,13,15,17,19,21,23,25,27,29,31,33,35,37,39,41,43,-1,45,47,49,51,53,55,57,59,61,63,65,67,69,71,73,75,77,79,81,83,85,-1,87,89,91,93,95,97,99,101,103,-1,105,107,109,-1,111,113,-1,-1,-1,-1,-1,-1,-1,-1,-1,-1,-1,-1,-1,-1,-1,-1,-1,-1,-1,-1,-1,-1,-1,-1,-1,-1,-1,-1,-1,-1,-1,-1,-1,-1,-1,-1,-1,-1,-1,-1,-1,-1,-1,-1,-1,-1,-1,-1,-1,-1,-1,-1,-1,-1],"loss_changes":[1.785916E3,3.9201294E2,2.4653516E2,2.2286261E2,5.6033302E1,2.8769836E1,5.0192993E1,1.7038922E2,8.326364E1,5.5939617E1,2.9109406E1,2.6090363E1,2.9637863E1,2.788797E1,1.8422424E1,8.789728E1,5.183104E1,2.9596619E1,3.771875E1,5.234335E1,3.5322037E1,2.2963493E1,0E0,3.689142E1,3.4228867E1,2.4857819E1,2.8945719E1,1.6714188E1,2.0143713E1,1.4914398E1,1.1412659E1,7.070166E1,3.5371094E1,4.6411423E1,3.2921997E1,1.4510056E1,2.2352491E1,2.694976E1,2.8328117E1,2.9486736E1,1.4520966E1,2.4418827E1,3.7073654E1,2.1857979E1,0E0,2.4914974E1,1.4029577E1,1.5827866E1,2.65433E1,2.1171532E1,2.9619781E1,2.5208536E1,2.038884E1,1.0404053E1,0E0,2.128315E1,2.7211824E1,1.5328278E1,0E0,7.520447E0,1.2184618E1,0E0,0E0,0E0,0E0,0E0,0E0,0E0,0E0,0E0,0E0,0E0,0E0,0E0,0E0,0E0,0E0,0E0,0E0,0E0,0E0,0E0,0E0,0E0,0E0,0E0,0E0,0E0,0E0,0E0,0E0,0E0,0E0,0E0,0E0,0E0,0E0,0E0,0E0,0E0,0E0,0E0,0E0,0E0,0E0,0E0,0E0,0E0,0E0,0E0,0E0,0E0,0E0,0E0,0E0],"parents":[2147483647,0,0,1,1,2,2,3,3,4,4,5,5,6,6,7,7,8,8,9,9,10,10,11,11,12,12,13,13,14,14,15,15,16,16,17,17,18,18,19,19,20,20,21,21,23,23,24,24,25,25,26,26,27,27,28,28,29,29,30,30,31,31,32,32,33,33,34,34,35,35,36,36,37,37,38,38,39,39,40,40,41,41,42,42,43,43,45,45,46,46,47,47,48,48,49,49,50,50,51,51,52,52,53,53,55,55,56,56,57,57,59,59,60,60],"right_children":[2,4,6,8,10,12,14,16,18,20,22,24,26,28,30,32,34,36,38,40,42,44,-1,46,48,50,52,54,56,58,60,62,64,66,68,70,72,74,76,78,80,82,84,86,-1,88,90,92,94,96,98,100,102,104,-1,106,108,110,-1,112,114,-1,-1,-1,-1,-1,-1,-1,-1,-1,-1,-1,-1,-1,-1,-1,-1,-1,-1,-1,-1,-1,-1,-1,-1,-1,-1,-1,-1,-1,-1,-1,-1,-1,-1,-1,-1,-1,-1,-1,-1,-1,-1,-1,-1,-1,-1,-1,-1,-1,-1,-1,-1,-1,-1],"split_conditions":[2E0,1E0,4E0,7.5E1,3E0,3E0,6E0,8E0,2E0,3E0,2.7E1,4E0,3E0,7E0,5E0,6E0,1E0,1E0,1E0,1E0,1E0,1.2E1,-8.124902E-2,2.6E1,7.5E1,3E0,4E0,1E0,1.5714285E0,1E0,1E1,1E0,3.4E1,1.1E1,2E0,2.4E1,1E0,5E0,4E0,1E0,1E0,1E0,6E0,1E0,-7.662568E-2,1E0,1E0,1E0,1.1818181E0,1E0,5.6666665E0,2E0,5.1666665E0,2.5E1,-7.594027E-2,1E0,1E0,1E0,-7.520816E-2,8.5E1,4E0,-2.325665E-2,-4.4514768E-2,-1.132978E-2,2.0813556E-2,-1.8730206E-2,-4.5705736E-3,-2.5253648E-2,3.2935023E-2,-2.2694213E-2,-8.2651146E-2,5.0895875E-3,-5.0154876E-2,-7.607122E-3,-3.680913E-2,-5.29793E-3,2.169114E-3,1.5515417E-3,-1.7037496E-2,-3.2799594E-2,-9.221689E-2,-5.099111E-3,6.8083457E-3,-6.7712315E-3,1.2831184E-2,4.8910953E-2,-2.5229638E-2,1.1126254E-2,-6.4037986E-2,-9.800374E-2,1.9001372E-2,2.6456267E-2,-3.2035735E-2,-3.299776E-2,1.3301809E-2,2.0082405E-2,-3.110602E-2,3.9366953E-2,1.057241E-2,1.9481527E-2,-1.00829005E-1,2.4171622E-2,-8.554806E-2,-6.9458514E-2,3.5949536E-2,1.7952971E-2,-6.1348837E-2,-2.3770606E-2,3.2194115E-2,3.85736E-2,-8.158538E-3,5.2369446E-2,3.443119E-2,3.2541174E-2,-7.757986E-2],"split_indices":[10,10,10,35,9,1,63,11,4,4,7,4,8,4,10,4,39,63,34,56,27,63,0,7,35,64,1,46,64,54,4,39,7,7,9,7,44,64,4,8,9,6,11,37,0,13,38,40,64,19,64,4,64,35,0,6,6,52,0,35,8,0,0,0,0,0,0,0,0,0,0,0,0,0,0,0,0,0,0,0,0,0,0,0,0,0,0,0,0,0,0,0,0,0,0,0,0,0,0,0,0,0,0,0,0,0,0,0,0,0,0,0,0,0,0],"split_type":[0,0,0,0,0,0,0,0,0,0,0,0,0,0,0,0,0,0,0,0,0,0,0,0,0,0,0,0,0,0,0,0,0,0,0,0,0,0,0,0,0,0,0,0,0,0,0,0,0,0,0,0,0,0,0,0,0,0,0,0,0,0,0,0,0,0,0,0,0,0,0,0,0,0,0,0,0,0,0,0,0,0,0,0,0,0,0,0,0,0,0,0,0,0,0,0,0,0,0,0,0,0,0,0,0,0,0,0,0,0,0,0,0,0,0],"sum_hessian":[2.8673791E4,2.3018895E4,5.6548965E3,1.7167494E4,5.851402E3,3.8533008E3,1.8015953E3,9.110173E3,8.0573203E3,5.709121E3,1.422805E2,2.8336936E3,1.0196072E3,6.3143414E2,1.1701613E3,4.396286E3,4.7138867E3,8.615344E2,7.195786E3,1.4680941E3,4.241027E3,1.3803888E2,4.2416115E0,1.1571608E3,1.676533E3,9.5681384E2,6.2793324E1,4.776739E2,1.5376022E2,2.2171826E2,9.48443E2,3.6315256E3,7.6476086E2,4.1225137E3,5.9137305E2,6.775447E2,1.839897E2,1.6100872E3,5.5856987E3,1.379575E3,8.851926E1,1.7369333E3,2.5040938E3,1.3479987E2,3.2390242E0,1.1442715E3,1.2889239E1,9.1459106E2,7.6194183E2,3.8241898E2,5.743949E2,1.785786E1,4.4935463E1,4.7518558E2,2.4883132E0,3.229754E1,1.2146269E2,2.1948514E2,2.2331362E0,8.829025E2,6.5540474E1,3.1847283E3,4.4679718E2,6.6754236E2,9.72185E1,6.9560333E2,3.4269102E3,5.668107E2,2.45623E1,6.681391E2,9.405567E0,1.6440001E2,1.9589703E1,1.5276649E3,8.2422165E1,1.95126E3,3.634439E3,1.1169166E3,2.6265823E2,7.703268E1,1.1486576E1,7.833574E2,9.535759E2,2.697559E2,2.234338E3,1.24606384E2,1.0193477E1,1.1341189E3,1.01526375E1,9.919252E0,2.9699874E0,9.0367737E2,1.0913692E1,3.1388977E1,7.3055286E2,3.619012E2,2.0517754E1,4.6266037E2,1.117345E2,6.2078753E0,1.1649985E1,4.1211193E1,3.7242696E0,1.466769E0,4.737188E2,1.5286418E1,1.701112E1,2.7351353E1,9.411134E1,2.0061118E2,1.8873957E1,8.1148773E2,7.141477E1,6.385538E1,1.6850895E0],"tree_param":{"num_deleted":"0","num_feature":"66","num_nodes":"115","size_leaf_vector":"1"}},{"base_weights":[-5.1238615E-4,-1.1928778E-1,4.7997227E-1,-3.052972E-1,1.1456155E-1,3.812931E-1,8.8514036E-1,-4.0213102E-1,5.3590657E-3,6.394034E-2,5.101888E-1,3.5833263E-1,8.767957E-1,9.273145E-1,4.3955734E-1,-5.323877E-1,-2.808375E-1,5.535851E-2,-4.653979E-1,2.3080415E-1,-1.18581094E-1,8.151649E-1,-1.6479725E-1,3.8711977E-1,2.6641188E-2,9.022889E-1,-6.5228336E-2,8.259639E-1,1.0604615E0,-3.1486458E-1,6.743647E-1,-4.9703023E-1,-7.614744E-1,-3.5461172E-1,-1.804639E-1,-4.1602284E-2,2.2389905E-1,-2.0782237E-1,-1.0808082E0,1.8497281E-1,6.947648E-1,-3.2057427E-2,-3.31519E-1,1.086218E0,5.6334394E-1,-4.642813E-1,1.1535928E0,3.4734443E-1,6.05823E-1,-9.8438156E-1,4.8875093E-1,1.0252264E0,5.178895E-1,9.3103343E-1,5.9478384E-1,1.0702373E0,-6.735539E-2,-8.5660666E-1,9.4191676E-1,7.618695E-1,-7.601829E-2,-2.6303535E-2,-1.1569184E-2,-1.6721327E-2,-4.684214E-2,-1.702842E-2,-6.376134E-2,-7.5581886E-2,-8.200065E-3,-3.0294277E-3,3.1075075E-2,1.214607E-2,-9.2834406E-2,-2.3644409E-4,-5.8336664E-2,-7.573494E-2,-3.0029578E-2,8.210649E-3,3.2380678E-2,7.662382E-3,4.07358E-2,2.8368537E-3,-1.1298583E-2,-6.7861736E-2,1.683278E-3,6.1441004E-2,3.5077527E-2,1.0149893E-2,3.6378775E-2,-2.6584896E-3,-4.5562632E-2,6.2068284E-2,-5.973389E-3,3.325368E-2,1.6051421E-2,3.3884883E-2,-3.825377E-4,2.1257268E-3,-8.066526E-2,2.6618151E-2,-8.416313E-2,5.318005E-2,-1.2898037E-2,-8.1103645E-2,3.428572E-2,1.7924478E-2,4.869644E-2,-5.7002474E-2,3.332646E-2,5.4190326E-2,1.5044497E-2,5.786989E-2,-5.940441E-2,1.3115806E-2,6.501963E-2,-1.2090615E-2,4.7306906E-2],"categories":[],"categories_nodes":[],"categories_segments":[],"categories_sizes":[],"default_left":[0,0,0,0,0,0,0,0,0,0,0,0,0,0,0,0,0,0,0,0,0,0,0,0,0,0,0,0,0,0,0,0,0,0,0,0,0,0,0,0,0,0,0,0,0,0,0,0,0,0,0,0,0,0,0,0,0,0,0,0,0,0,0,0,0,0,0,0,0,0,0,0,0,0,0,0,0,0,0,0,0,0,0,0,0,0,0,0,0,0,0,0,0,0,0,0,0,0,0,0,0,0,0,0,0,0,0,0,0,0,0,0,0,0,0,0,0],"id":9,"left_children":[1,3,5,7,9,11,13,15,17,19,21,23,25,27,29,31,33,35,37,39,41,43,45,47,49,51,-1,53,55,57,59,61,63,65,67,69,71,73,75,77,79,81,83,85,87,89,91,93,95,97,99,101,103,105,107,109,-1,111,113,115,-1,-1,-1,-1,-1,-1,-1,-1,-1,-1,-1,-1,-1,-1,-1,-1,-1,-1,-1,-1,-1,-1,-1,-1,-1,-1,-1,-1,-1,-1,-1,-1,-1,-1,-1,-1,-1,-1,-1,-1,-1,-1,-1,-1,-1,-1,-1,-1,-1,-1,-1,-1,-1,-1,-1,-1,-1],"loss_changes":[1.638452E3,1.00133203E3,2.2717224E2,3.8569482E2,2.0422264E2,5.1765503E1,2.052124E1,1.5428162E2,7.176335E1,2.7544705E2,2.3826599E2,4.1779602E1,1.241214E1,1.284137E1,1.7607565E1,3.7788574E1,3.7431458E1,4.504827E1,4.6178E1,1.003338E2,7.957432E1,5.3785767E1,1.4300871E2,3.482068E1,1.6427422E2,8.934174E0,0E0,1.3575562E1,1.1698975E1,1.7140787E1,1.5601955E1,3.1391113E1,4.672867E1,3.7283722E1,4.6805E1,2.2074833E1,4.0292454E1,4.0424385E1,1.7037186E1,4.120343E1,2.7441177E1,5.2919083E1,4.6749976E2,2.0133026E1,2.4424591E1,5.4114937E1,7.644066E0,2.8296082E1,2.7270096E1,7.130883E1,2.3751144E1,7.6968384E0,1.9268517E1,9.429413E0,2.3728004E1,4.2109985E0,0E0,1.2916576E1,1.5353894E0,1.3728161E1,0E0,0E0,0E0,0E0,0E0,0E0,0E0,0E0,0E0,0E0,0E0,0E0,0E0,0E0,0E0,0E0,0E0,0E0,0E0,0E0,0E0,0E0,0E0,0E0,0E0,0E0,0E0,0E0,0E0,0E0,0E0,0E0,0E0,0E0,0E0,0E0,0E0,0E0,0E0,0E0,0E0,0E0,0E0,0E0,0E0,0E0,0E0,0E0,0E0,0E0,0E0,0E0,0E0,0E0,0E0,0E0,0E0],"parents":[2147483647,0,0,1,1,2,2,3,3,4,4,5,5,6,6,7,7,8,8,9,9,10,10,11,11,12,12,13,13,14,14,15,15,16,16,17,17,18,18,19,19,20,20,21,21,22,22,23,23,24,24,25,25,27,27,28,28,29,29,30,30,31,31,32,32,33,33,34,34,35,35,36,36,37,37,38,38,39,39,40,40,41,41,42,42,43,43,44,44,45,45,46,46,47,47,48,48,49,49,50,50,51,51,52,52,53,53,54,54,55,55,57,57,58,58,59,59],"right_children":[2,4,6,8,10,12,14,16,18,20,22,24,26,28,30,32,34,36,38,40,42,44,46,48,50,52,-1,54,56,58,60,62,64,66,68,70,72,74,76,78,80,82,84,86,88,90,92,94,96,98,100,102,104,106,108,110,-1,112,114,116,-1,-1,-1,-1,-1,-1,-1,-1,-1,-1,-1,-1,-1,-1,-1,-1,-1,-1,-1,-1,-1,-1,-1,-1,-1,-1,-1,-1,-1,-1,-1,-1,-1,-1,-1,-1,-1,-1,-1,-1,-1,-1,-1,-1,-1,-1,-1,-1,-1,-1,-1,-1,-1,-1,-1,-1,-1],"split_conditions":[2E0,2E0,5E0,1E0,2.2E1,2E1,8.5E1,8E0,1E0,6E0,2.3E1,7E0,4E0,7E0,4E0,1E0,5E1,1.8E1,3E0,5E0,1E1,9E0,2.8E1,4E0,1.4E1,5.2E1,-6.5228336E-2,2E1,1.4E1,5.6E0,1E0,7E0,3.4E1,1E0,1.1111112E0,1E0,1.4E1,5.4E1,3.8E1,6E0,1E0,3E0,1.5E1,2E0,1E0,4E1,1E0,4.5E1,6.4E1,9E0,1E0,3E0,1E0,1.5E0,2.7E1,5E0,-6.735539E-2,2E0,1.9E1,1E0,-7.601829E-2,-2.6303535E-2,-1.1569184E-2,-1.6721327E-2,-4.684214E-2,-1.702842E-2,-6.376134E-2,-7.5581886E-2,-8.200065E-3,-3.0294277E-3,3.1075075E-2,1.214607E-2,-9.2834406E-2,-2.3644409E-4,-5.8336664E-2,-7.573494E-2,-3.0029578E-2,8.210649E-3,3.2380678E-2,7.662382E-3,4.07358E-2,2.8368537E-3,-1.1298583E-2,-6.7861736E-2,1.683278E-3,6.1441004E-2,3.5077527E-2,1.0149893E-2,3.6378775E-2,-2.6584896E-3,-4.5562632E-2,6.2068284E-2,-5.973389E-3,3.325368E-2,1.6051421E-2,3.3884883E-2,-3.825377E-4,2.1257268E-3,-8.066526E-2,2.6618151E-2,-8.416313E-2,5.318005E-2,-1.2898037E-2,-8.1103645E-2,3.428572E-2,1.7924478E-2,4.869644E-2,-5.7002474E-2,3.332646E-2,5.4190326E-2,1.5044497E-2,5.786989E-2,-5.940441E-2,1.3115806E-2,6.501963E-2,-1.2090615E-2,4.7306906E-2],"split_indices":[10,2,10,10,2,2,35,11,44,2,2,2,8,10,4,39,5,7,1,2,2,11,2,10,2,5,0,7,4,64,56,4,5,50,64,58,4,5,5,1,34,1,2,6,27,5,38,35,5,2,50,8,49,64,5,6,0,7,7,34,0,0,0,0,0,0,0,0,0,0,0,0,0,0,0,0,0,0,0,0,0,0,0,0,0,0,0,0,0,0,0,0,0,0,0,0,0,0,0,0,0,0,0,0,0,0,0,0,0,0,0,0,0,0,0,0,0],"split_type":[0,0,0,0,0,0,0,0,0,0,0,0,0,0,0,0,0,0,0,0,0,0,0,0,0,0,0,0,0,0,0,0,0,0,0,0,0,0,0,0,0,0,0,0,0,0,0,0,0,0,0,0,0,0,0,0,0,0,0,0,0,0,0,0,0,0,0,0,0,0,0,0,0,0,0,0,0,0,0,0,0,0,0,0,0,0,0,0,0,0,0,0,0,0,0,0,0,0,0,0,0,0,0,0,0,0,0,0,0,0,0,0,0,0,0,0,0],"sum_hessian":[2.8707637E4,2.3018287E4,5.6893496E3,1.2820359E4,1.0197929E4,4.5766436E3,1.1127059E3,9.77357E3,3.0467886E3,9.042134E3,1.1557953E3,4.375611E3,2.0103282E2,1.0155075E3,9.719836E1,4.711028E3,5.062543E3,2.7550544E3,2.9173398E2,4.723539E3,4.318594E3,7.959548E2,3.5984055E2,4.0260288E3,3.495819E2,1.9929012E2,1.7427063E0,5.8069214E2,4.348154E2,2.2990458E1,7.42079E1,4.0838862E3,6.271415E2,2.9164385E3,2.1461045E3,1.7493898E3,1.0056648E3,2.0660051E2,8.513345E1,4.3001562E3,4.2338287E2,3.0716377E3,1.2469567E3,3.8174338E2,4.1421136E2,2.9375854E2,6.608202E1,3.4086829E3,6.1734595E2,1.0930649E2,2.4027542E2,1.4973517E2,4.9554935E1,3.9715915E2,1.8353296E2,4.3361023E2,1.2051629E0,1.6287891E1,6.7025676E0,7.199048E1,2.2174258E0,3.6805479E3,4.0333826E2,1.8341241E2,4.4372906E2,2.8739683E3,4.247034E1,2.5107138E1,2.1209973E3,1.7015781E3,4.781168E1,9.974288E2,8.236027E0,1.7132047E2,3.5280056E1,4.3592278E1,4.154118E1,4.1167812E3,1.833752E2,7.718959E1,3.461933E2,2.1073684E3,9.642693E2,3.2667856E2,9.2027814E2,2.7689844E2,1.0484496E2,1.303788E2,2.8383258E2,1.5360031E2,1.4015822E2,6.1843067E1,4.2389526E0,2.588736E2,3.1498093E3,5.5250916E2,6.483677E1,4.1871616E1,6.7434875E1,2.3628592E2,3.9895067E0,1.4555342E2,4.181758E0,2.9735417E0,4.6581394E1,2.8333693E1,3.6882547E2,6.6973777E0,1.7683559E2,4.256934E2,7.916828E0,1.9497957E0,1.4338095E1,2.912599E0,3.7899685E0,1.11183405E1,6.0872135E1],"tree_param":{"num_deleted":"0","num_feature":"66","num_nodes":"117","size_leaf_vector":"1"}},{"base_weights":[4.8261965E-3,-1.7882758E-1,2.7667162E-1,-2.6684323E-1,-3.7439216E-2,2.0104946E-1,7.009993E-1,-4.1396835E-1,-1.9035393E-1,-2.5331452E-1,1.2892949E-2,1.0524751E-1,3.4404963E-1,4.9424687E-1,8.275494E-1,-5.562006E-1,-2.9836017E-1,-2.4735533E-1,3.1408634E-2,-1.6233277E-1,-5.388114E-1,5.4368388E-2,-2.9753092E-1,5.561195E-2,3.5350445E-1,3.2524055E-1,6.034748E-1,5.0520396E-1,-7.9449244E-2,7.461196E-1,1.0343119E0,-9.258193E-1,-4.4260553E-1,-5.914534E-1,-2.3807305E-1,-2.1419285E-1,-4.6755123E-1,7.049067E-2,-4.5765775E-1,-6.201898E-1,-1.1483956E-1,-4.4799235E-1,-8.885009E-2,8.5152E-2,-2.6444352E-1,-7.28994E-1,-1.9109108E-1,-1.0917776E-1,1.1159204E-1,3.9537266E-1,-7.186613E-1,3.551801E-1,1.3292177E-1,6.762021E-1,-1.2438431E0,5.445472E-1,-4.0989928E-2,7.8335303E-1,3.0699337E-1,1.0770032E0,7.04238E-1,-2.4580529E-2,-5.540973E-2,-2.0510118E-2,-6.2468436E-2,-3.530268E-2,5.2452862E-2,-1.9763922E-2,-3.3363015E-3,-1.0029185E-2,-4.22417E-2,-2.114162E-2,-7.310748E-2,4.9614976E-3,-5.3734064E-2,-3.6364835E-2,4.6106867E-2,-1.6655188E-2,-7.378929E-2,-1.5051374E-2,1.9120722E-3,-3.2832038E-2,7.4968077E-3,-7.30204E-4,7.2269007E-3,-1.689926E-2,2.6302963E-2,-5.1799376E-2,1.0239482E-2,-6.590334E-3,-5.4140378E-2,-2.9010035E-3,-3.1191919E-2,6.0287854E-3,-3.304519E-2,1.673625E-2,3.7475236E-2,-7.931464E-2,1.9118108E-2,1.3389684E-2,2.2780364E-2,1.6045345E-2,-4.4958005E-3,3.5832312E-2,-8.1438996E-2,-9.8109305E-2,4.8069388E-2,-7.0154764E-2,2.761508E-2,1.096267E-2,-9.558176E-2,-8.017267E-2,3.955647E-2,-1.0821654E-2,3.911118E-2,5.43753E-2,1.8823309E-3,4.048579E-2,-6.806993E-2],"categories":[],"categories_nodes":[],"categories_segments":[],"categories_sizes":[],"default_left":[0,0,0,0,0,0,0,0,0,0,0,0,0,0,0,0,0,0,0,0,0,0,0,0,0,0,0,0,0,0,0,0,0,0,0,0,0,0,0,0,0,0,0,0,0,0,0,0,0,0,0,0,0,0,0,0,0,0,0,0,0,0,0,0,0,0,0,0,0,0,0,0,0,0,0,0,0,0,0,0,0,0,0,0,0,0,0,0,0,0,0,0,0,0,0,0,0,0,0,0,0,0,0,0,0,0,0,0,0,0,0,0,0,0,0,0,0,0,0],"id":10,"left_children":[1,3,5,7,9,11,13,15,17,19,21,23,25,27,29,31,33,35,37,39,41,43,45,47,49,51,53,55,-1,57,59,61,63,65,67,69,71,73,75,77,79,81,-1,83,85,87,89,91,93,95,97,99,101,103,105,107,109,111,113,115,117,-1,-1,-1,-1,-1,-1,-1,-1,-1,-1,-1,-1,-1,-1,-1,-1,-1,-1,-1,-1,-1,-1,-1,-1,-1,-1,-1,-1,-1,-1,-1,-1,-1,-1,-1,-1,-1,-1,-1,-1,-1,-1,-1,-1,-1,-1,-1,-1,-1,-1,-1,-1,-1,-1,-1,-1,-1,-1],"loss_changes":[1.4292637E3,2.1260748E2,3.702436E2,1.18421326E2,7.124095E1,1.3419406E2,4.526178E1,5.9046814E1,8.76086E1,3.2112778E1,6.848103E1,7.229709E1,1.8981873E1,1.5987473E1,1.7433533E1,6.7333984E1,3.499727E1,4.0157745E1,2.713418E1,2.0402016E1,3.2843925E1,4.606839E1,2.8651192E1,4.514115E1,4.417167E1,2.1065948E1,3.6380318E1,1.4259018E1,0E0,1.2502106E1,3.510254E0,2.9418549E1,3.1800522E1,6.4395454E1,4.444654E1,4.0969147E1,3.1439682E1,4.3348057E1,3.9757057E1,2.118686E1,2.4359314E1,3.5036137E1,0E0,2.5353724E1,2.4209429E1,3.5671562E1,2.6512192E1,3.263721E1,2.542461E1,1.997165E1,3.604602E1,2.771753E1,2.0786966E1,2.4953484E1,1.8316648E1,1.010939E1,2.2542883E1,1.4591339E1,1.5731173E1,2.8665466E0,9.290871E0,0E0,0E0,0E0,0E0,0E0,0E0,0E0,0E0,0E0,0E0,0E0,0E0,0E0,0E0,0E0,0E0,0E0,0E0,0E0,0E0,0E0,0E0,0E0,0E0,0E0,0E0,0E0,0E0,0E0,0E0,0E0,0E0,0E0,0E0,0E0,0E0,0E0,0E0,0E0,0E0,0E0,0E0,0E0,0E0,0E0,0E0,0E0,0E0,0E0,0E0,0E0,0E0,0E0,0E0,0E0,0E0,0E0,0E0],"parents":[2147483647,0,0,1,1,2,2,3,3,4,4,5,5,6,6,7,7,8,8,9,9,10,10,11,11,12,12,13,13,14,14,15,15,16,16,17,17,18,18,19,19,20,20,21,21,22,22,23,23,24,24,25,25,26,26,27,27,29,29,30,30,31,31,32,32,33,33,34,34,35,35,36,36,37,37,38,38,39,39,40,40,41,41,43,43,44,44,45,45,46,46,47,47,48,48,49,49,50,50,51,51,52,52,53,53,54,54,55,55,56,56,57,57,58,58,59,59,60,60],"right_children":[2,4,6,8,10,12,14,16,18,20,22,24,26,28,30,32,34,36,38,40,42,44,46,48,50,52,54,56,-1,58,60,62,64,66,68,70,72,74,76,78,80,82,-1,84,86,88,90,92,94,96,98,100,102,104,106,108,110,112,114,116,118,-1,-1,-1,-1,-1,-1,-1,-1,-1,-1,-1,-1,-1,-1,-1,-1,-1,-1,-1,-1,-1,-1,-1,-1,-1,-1,-1,-1,-1,-1,-1,-1,-1,-1,-1,-1,-1,-1,-1,-1,-1,-1,-1,-1,-1,-1,-1,-1,-1,-1,-1,-1,-1,-1,-1,-1,-1,-1],"split_conditions":[1E0,5E0,4E0,6.5E1,1E0,2E0,5E0,1E0,1E0,3E0,1E0,1E0,7.3E1,1.6E1,8E0,2.5E1,2.2666667E0,1E0,1E0,3.2E1,6E0,7.5E1,6.5E1,3E0,1E0,6.1E1,3E0,4E0,-7.9449244E-2,1E1,1E0,2E0,1E0,3E0,2E0,9.5E0,6E0,7.1E1,6.3E1,8E0,7E0,3.1666667E0,-8.885009E-2,6E0,1E0,1E1,1E0,4E0,5E0,3E0,1E0,3.4E0,7.5E1,6.3333335E0,1.2E1,2.5E1,1E0,2.5E1,1E0,1.6E1,1E1,-2.4580529E-2,-5.540973E-2,-2.0510118E-2,-6.2468436E-2,-3.530268E-2,5.2452862E-2,-1.9763922E-2,-3.3363015E-3,-1.0029185E-2,-4.22417E-2,-2.114162E-2,-7.310748E-2,4.9614976E-3,-5.3734064E-2,-3.6364835E-2,4.6106867E-2,-1.6655188E-2,-7.378929E-2,-1.5051374E-2,1.9120722E-3,-3.2832038E-2,7.4968077E-3,-7.30204E-4,7.2269007E-3,-1.689926E-2,2.6302963E-2,-5.1799376E-2,1.0239482E-2,-6.590334E-3,-5.4140378E-2,-2.9010035E-3,-3.1191919E-2,6.0287854E-3,-3.304519E-2,1.673625E-2,3.7475236E-2,-7.931464E-2,1.9118108E-2,1.3389684E-2,2.2780364E-2,1.6045345E-2,-4.4958005E-3,3.5832312E-2,-8.1438996E-2,-9.8109305E-2,4.8069388E-2,-7.0154764E-2,2.761508E-2,1.096267E-2,-9.558176E-2,-8.017267E-2,3.955647E-2,-1.0821654E-2,3.911118E-2,5.43753E-2,1.8823309E-3,4.048579E-2,-6.806993E-2],"split_indices":[10,4,10,35,34,10,10,27,63,1,39,9,5,63,10,5,64,39,21,5,6,5,35,4,16,5,8,1,0,4,57,1,45,63,1,64,1,5,5,4,4,64,0,3,54,4,16,6,8,9,8,64,35,64,4,35,53,35,0,10,4,0,0,0,0,0,0,0,0,0,0,0,0,0,0,0,0,0,0,0,0,0,0,0,0,0,0,0,0,0,0,0,0,0,0,0,0,0,0,0,0,0,0,0,0,0,0,0,0,0,0,0,0,0,0,0,0,0,0],"split_type":[0,0,0,0,0,0,0,0,0,0,0,0,0,0,0,0,0,0,0,0,0,0,0,0,0,0,0,0,0,0,0,0,0,0,0,0,0,0,0,0,0,0,0,0,0,0,0,0,0,0,0,0,0,0,0,0,0,0,0,0,0,0,0,0,0,0,0,0,0,0,0,0,0,0,0,0,0,0,0,0,0,0,0,0,0,0,0,0,0,0,0,0,0,0,0,0,0,0,0,0,0,0,0,0,0,0,0,0,0,0,0,0,0,0,0,0,0,0,0],"sum_hessian":[2.8625973E4,1.7084406E4,1.1541568E4,1.0529069E4,6.5553354E3,9.797048E3,1.7445209E3,3.600052E3,6.9290176E3,1.2386626E3,5.316673E3,5.867736E3,3.9293118E3,6.6423157E2,1.0802893E3,1.6124502E3,1.9876018E3,5.5120864E3,1.4169309E3,9.4051056E2,2.9815204E2,4.6907686E3,6.259043E2,4.8910596E3,9.766761E2,3.6657854E3,2.6352634E2,6.615097E2,2.7218332E0,7.7835614E2,3.019332E2,3.7737793E2,1.2350723E3,3.3758417E2,1.6500177E3,4.7923154E3,7.197711E2,1.3128732E3,1.0405782E2,8.725666E1,8.532539E2,2.7904633E2,1.910573E1,4.2783916E3,4.1237695E2,1.22696106E2,5.0320822E2,1.2399736E3,3.651086E3,9.4057764E2,3.6098427E1,3.171249E3,4.9453635E2,2.5415446E2,9.371884E0,6.170646E2,4.444516E1,7.1679535E2,6.1560795E1,2.6535025E2,3.6582947E1,1.12715225E2,2.6466272E2,1.188832E3,4.6240307E1,3.1607397E2,2.1510176E1,8.598375E2,7.901802E2,4.6923726E3,9.994272E1,6.901652E2,2.960586E1,1.2816228E3,3.1250298E1,8.74427E1,1.6615116E1,6.637468E1,2.0881983E1,3.8455933E2,4.686946E2,2.0678876E2,7.225756E1,1.5968209E3,2.6815708E3,3.778019E2,3.457504E1,9.2256226E1,3.0439882E1,4.72915E2,3.0293219E1,1.1288752E3,1.1109841E2,3.6099482E3,4.1137646E1,8.047104E2,1.3586723E2,1.9942524E1,1.6155903E1,1.6976823E3,1.4735669E3,2.6800674E2,2.265296E2,2.5044908E2,3.7053835E0,7.152278E0,2.219606E0,1.7334598E0,6.153311E2,3.9792095E1,4.653065E0,1.6614153E0,7.151339E2,2.9554047E1,3.200675E1,2.6264984E2,2.700402E0,3.538413E1,1.198816E0],"tree_param":{"num_deleted":"0","num_feature":"66","num_nodes":"119","size_leaf_vector":"1"}},{"base_weights":[4.4517224E-3,-1.3989912E-1,3.1729802E-1,-3.1660438E-1,8.844052E-2,2.262425E-1,5.354181E-1,-3.9348412E-1,-1.16220586E-1,3.7131477E-2,4.6766728E-1,2.930993E-1,-3.0460116E-2,6.438988E-1,-3.5171352E-2,-5.721271E-1,-3.2397637E-1,-2.995915E-1,-3.5890974E-2,1.9157471E-1,-1.305901E-1,7.7291334E-1,-2.6484478E-1,3.2934576E-1,6.442244E-2,-2.2599335E-1,1.622469E-1,5.482348E-1,8.2755464E-1,1.8868322E-2,-1.1418638E0,-6.7545885E-1,-4.497623E-1,-2.9042718E-1,-6.6656435E-1,-2.4507973E-1,-1.1564945E0,-1.4847949E-1,1.4128354E-1,2.283713E-1,-3.4503087E-1,-4.99687E-1,-1.0031713E-1,1.0265428E0,5.2441084E-1,-5.36838E-1,1.0857474E0,3.0485603E-1,5.950478E-1,-2.1483089E-1,2.4172E-1,-1.8710463E-1,-1.0332589E0,-8.671335E-2,1.8651964E-1,6.139846E-1,2.914478E-1,9.043357E-1,4.877567E-1,2.6837906E-1,-2.5528666E-1,-9.087574E-2,3.158332E-1,-2.057619E-2,-3.6724433E-2,-4.084063E-2,-1.7505553E-2,-1.2228012E-2,-2.4139633E-2,-5.187906E-2,-1.6859593E-2,-6.3093826E-3,-2.2647943E-2,-6.956762E-2,3.82734E-2,-6.616194E-3,-9.021513E-2,8.238491E-3,-8.989099E-2,1.6781015E-2,3.9983136E-3,-9.76559E-3,-4.7848236E-2,-3.726188E-2,1.3577736E-2,-8.3011575E-3,6.1405157E-3,5.4557182E-2,1.4640167E-2,2.8659571E-2,-5.6885727E-2,-1.9641664E-2,-7.886024E-2,5.8538932E-2,5.91292E-4,1.6923249E-2,-5.239537E-2,3.440348E-2,-2.1694393E-3,5.6382146E-2,-1.4821348E-2,1.5989887E-2,-1.2391753E-2,-8.497657E-3,-8.395048E-2,9.835624E-3,-8.911105E-2,1.01189595E-2,-8.222679E-2,3.1265877E-2,-2.0610489E-2,2.1254567E-2,-3.0958265E-2,5.0769836E-2,3.3924405E-2,2.7912507E-2,-9.364399E-2,-1.619469E-2,2.0367106E-2,-3.3487033E-2,7.461689E-3,4.631577E-2,-5.962028E-2],"categories":[],"categories_nodes":[],"categories_segments":[],"categories_sizes":[],"default_left":[0,0,0,0,0,0,0,0,0,0,0,0,0,0,0,0,0,0,0,0,0,0,0,0,0,0,0,0,0,0,0,0,0,0,0,0,0,0,0,0,0,0,0,0,0,0,0,0,0,0,0,0,0,0,0,0,0,0,0,0,0,0,0,0,0,0,0,0,0,0,0,0,0,0,0,0,0,0,0,0,0,0,0,0,0,0,0,0,0,0,0,0,0,0,0,0,0,0,0,0,0,0,0,0,0,0,0,0,0,0,0,0,0,0,0,0,0,0,0,0,0,0,0],"id":11,"left_children":[1,3,5,7,9,11,13,15,17,19,21,23,25,27,29,31,33,35,37,39,41,43,45,47,49,51,53,55,57,59,61,63,65,67,69,71,73,75,77,79,81,83,85,87,89,91,93,95,97,99,101,103,105,-1,107,109,111,113,115,117,119,-1,121,-1,-1,-1,-1,-1,-1,-1,-1,-1,-1,-1,-1,-1,-1,-1,-1,-1,-1,-1,-1,-1,-1,-1,-1,-1,-1,-1,-1,-1,-1,-1,-1,-1,-1,-1,-1,-1,-1,-1,-1,-1,-1,-1,-1,-1,-1,-1,-1,-1,-1,-1,-1,-1,-1,-1,-1,-1,-1,-1,-1],"loss_changes":[1.2878184E3,7.873693E2,1.7870117E2,1.6942456E2,1.6564023E2,1.0905365E2,1.6411084E2,9.853003E1,4.4940975E1,1.9430536E2,2.2705063E2,4.17619E1,4.9540394E1,3.8682068E1,2.5404947E1,2.7835938E1,6.5612366E1,4.313392E1,4.2374302E1,7.7185074E1,4.013164E1,4.4612915E1,1.1047964E2,2.8130493E1,3.4261036E1,2.0291626E1,3.0809216E1,2.4599152E1,1.9411743E1,2.781737E1,2.0051735E1,1.8465454E1,3.7092346E1,4.5908844E1,6.196202E1,2.1572567E1,2.6037415E1,3.450293E1,3.789103E1,5.8148132E1,2.280879E1,5.1778008E1,4.876431E1,1.6435822E1,3.015596E1,3.678701E1,4.595722E0,1.8157257E2,2.1774307E1,2.9784267E1,1.6251175E1,1.5675495E1,2.7773266E1,0E0,1.9347532E1,1.3835602E1,3.6902966E1,1.485025E1,2.4745811E1,1.7651308E1,3.2590828E1,0E0,7.656009E0,0E0,0E0,0E0,0E0,0E0,0E0,0E0,0E0,0E0,0E0,0E0,0E0,0E0,0E0,0E0,0E0,0E0,0E0,0E0,0E0,0E0,0E0,0E0,0E0,0E0,0E0,0E0,0E0,0E0,0E0,0E0,0E0,0E0,0E0,0E0,0E0,0E0,0E0,0E0,0E0,0E0,0E0,0E0,0E0,0E0,0E0,0E0,0E0,0E0,0E0,0E0,0E0,0E0,0E0,0E0,0E0,0E0,0E0,0E0,0E0],"parents":[2147483647,0,0,1,1,2,2,3,3,4,4,5,5,6,6,7,7,8,8,9,9,10,10,11,11,12,12,13,13,14,14,15,15,16,16,17,17,18,18,19,19,20,20,21,21,22,22,23,23,24,24,25,25,26,26,27,27,28,28,29,29,30,30,31,31,32,32,33,33,34,34,35,35,36,36,37,37,38,38,39,39,40,40,41,41,42,42,43,43,44,44,45,45,46,46,47,47,48,48,49,49,50,50,51,51,52,52,54,54,55,55,56,56,57,57,58,58,59,59,60,60,62,62],"right_children":[2,4,6,8,10,12,14,16,18,20,22,24,26,28,30,32,34,36,38,40,42,44,46,48,50,52,54,56,58,60,62,64,66,68,70,72,74,76,78,80,82,84,86,88,90,92,94,96,98,100,102,104,106,-1,108,110,112,114,116,118,120,-1,122,-1,-1,-1,-1,-1,-1,-1,-1,-1,-1,-1,-1,-1,-1,-1,-1,-1,-1,-1,-1,-1,-1,-1,-1,-1,-1,-1,-1,-1,-1,-1,-1,-1,-1,-1,-1,-1,-1,-1,-1,-1,-1,-1,-1,-1,-1,-1,-1,-1,-1,-1,-1,-1,-1,-1,-1,-1,-1,-1,-1],"split_conditions":[2E0,2E0,5E0,1E0,2.2E1,2E0,5E0,6E0,7E0,6E0,2.3E1,1E0,2E0,8E0,1E0,1.2E1,1E0,1E0,1.8E1,9.5E1,5E0,9E0,2.8E1,1.5E1,1.6E1,1E0,1.0666667E0,3E0,6E0,1E0,6.8E1,1.3E0,3E1,1E0,1E0,3.6666667E0,6.5E1,1E0,1E0,1E0,3.25E0,1E0,1.5E1,1E0,1E0,1E0,5.1666665E0,1E1,1E0,6E0,1E0,1E0,2.5714285E0,-8.671335E-2,1E0,9.5E1,5.428571E0,2E0,7.3E1,7E0,3.857143E0,-9.087574E-2,2.2222223E0,-2.057619E-2,-3.6724433E-2,-4.084063E-2,-1.7505553E-2,-1.2228012E-2,-2.4139633E-2,-5.187906E-2,-1.6859593E-2,-6.3093826E-3,-2.2647943E-2,-6.956762E-2,3.82734E-2,-6.616194E-3,-9.021513E-2,8.238491E-3,-8.989099E-2,1.6781015E-2,3.9983136E-3,-9.76559E-3,-4.7848236E-2,-3.726188E-2,1.3577736E-2,-8.3011575E-3,6.1405157E-3,5.4557182E-2,1.4640167E-2,2.8659571E-2,-5.6885727E-2,-1.9641664E-2,-7.886024E-2,5.8538932E-2,5.91292E-4,1.6923249E-2,-5.239537E-2,3.440348E-2,-2.1694393E-3,5.6382146E-2,-1.4821348E-2,1.5989887E-2,-1.2391753E-2,-8.497657E-3,-8.395048E-2,9.835624E-3,-8.911105E-2,1.01189595E-2,-8.222679E-2,3.1265877E-2,-2.0610489E-2,2.1254567E-2,-3.0958265E-2,5.0769836E-2,3.3924405E-2,2.7912507E-2,-9.364399E-2,-1.619469E-2,2.0367106E-2,-3.3487033E-2,7.461689E-3,4.631577E-2,-5.962028E-2],"split_indices":[63,2,63,63,2,8,8,11,11,2,2,12,2,63,22,7,44,22,7,35,11,11,2,2,7,16,64,8,9,6,5,64,5,12,0,64,5,46,61,53,64,19,2,57,60,53,64,2,9,7,19,13,64,0,61,35,64,8,5,63,64,0,64,0,0,0,0,0,0,0,0,0,0,0,0,0,0,0,0,0,0,0,0,0,0,0,0,0,0,0,0,0,0,0,0,0,0,0,0,0,0,0,0,0,0,0,0,0,0,0,0,0,0,0,0,0,0,0,0,0,0,0,0],"split_type":[0,0,0,0,0,0,0,0,0,0,0,0,0,0,0,0,0,0,0,0,0,0,0,0,0,0,0,0,0,0,0,0,0,0,0,0,0,0,0,0,0,0,0,0,0,0,0,0,0,0,0,0,0,0,0,0,0,0,0,0,0,0,0,0,0,0,0,0,0,0,0,0,0,0,0,0,0,0,0,0,0,0,0,0,0,0,0,0,0,0,0,0,0,0,0,0,0,0,0,0,0,0,0,0,0,0,0,0,0,0,0,0,0,0,0,0,0,0,0,0,0,0,0],"sum_hessian":[2.8515047E4,1.951237E4,9.002677E3,1.0999668E4,8.512702E3,6.352729E3,2.6499478E3,7.948979E3,3.0506887E3,7.499169E3,1.01353296E3,5.0399575E3,1.3127714E3,2.2265137E3,4.2343405E2,2.2245068E3,5.724472E3,9.284827E2,2.122206E3,3.9040532E3,3.5951157E3,7.1537354E2,2.981594E2,4.350017E3,6.899404E2,6.5152167E2,6.6124963E2,1.4665775E3,7.5993604E2,4.0465762E2,1.8776438E1,1.2035994E3,1.0209075E3,5.2155664E3,5.0890585E2,8.7415924E2,5.4323524E1,1.2977139E3,8.244921E2,3.6540583E3,2.4999493E2,2.7134097E2,3.3237747E3,3.5248517E2,3.6288837E2,2.486806E2,4.9478806E1,3.9848784E3,3.6513876E2,2.6785016E2,4.2209027E2,6.2275336E2,2.8768366E1,7.465875E0,6.5378375E2,1.1665052E3,3.000723E2,6.185145E2,1.4142148E2,2.1186165E2,1.9279597E2,1.2661103E1,6.115335E0,2.2144449E2,9.8215485E2,2.1645004E2,8.044574E2,4.213246E3,1.0023201E3,2.3831226E2,2.705936E2,5.571284E2,3.170308E2,4.8654205E1,5.669318E0,1.2862441E3,1.1469774E1,8.1552954E2,8.962601E0,2.1204182E3,1.5336401E3,2.0191298E2,4.8081966E1,2.0583896E2,6.5502014E1,2.567855E3,7.5591974E2,3.2351477E2,2.8970392E1,3.5317834E2,9.710031E0,2.1965425E2,2.9026354E1,4.576502E1,3.7137878E0,3.889007E3,9.58713E1,3.1863507E2,4.6503677E1,1.4612676E1,2.5323747E2,3.6433096E2,5.7759315E1,6.1677655E2,5.976775E0,1.1166958E1,1.7601408E1,6.490515E2,4.7322316E0,1.1541499E3,1.2355399E1,2.621341E2,3.7938183E1,4.1227936E2,2.0623517E2,1.3806218E2,3.3593028E0,4.0008987E1,1.7185266E2,9.4904915E1,9.789107E1,4.627938E0,1.4873972E0],"tree_param":{"num_deleted":"0","num_feature":"66","num_nodes":"123","size_leaf_vector":"1"}},{"base_weights":[1.4331412E-3,-1.0062622E-1,4.2022672E-1,-2.4987626E-1,8.983524E-2,3.1301495E-1,6.6053694E-1,-3.2722938E-1,-1.4901476E-3,4.371576E-2,4.5273387E-1,2.7574736E-1,6.6429836E-1,5.42316E-1,8.351253E-1,-6.1915827E-1,-2.863521E-1,7.260247E-2,-2.2844207E-1,1.8326327E-1,-1.08357035E-1,7.1737236E-1,-1.1947144E-1,3.1110397E-1,-1.1656305E0,6.96423E-1,-8.9228225E-1,8.2074925E-2,5.789436E-1,7.3195636E-1,9.710358E-1,-6.584348E-1,3.3628348E-1,-4.0843275E-1,-2.1597978E-1,1.2392219E-1,-2.2842641E-1,-1.7571299E-1,-9.668436E-2,3.417894E-1,-1.5223892E-2,-2.987865E-2,-3.030794E-1,7.4387515E-1,-7.670461E-1,-3.1558526E-1,9.280018E-1,3.147063E-1,-8.527183E-2,-8.9038305E-2,-3.2771212E-1,4.2294574E-1,8.38045E-1,5.6373097E-2,-8.661742E-2,-1.4125289E0,3.3226693E-1,6.161472E-1,2.2734475E-1,7.552318E-1,-8.5887814E-1,8.0491805E-1,1.0863478E0,-3.430932E-2,7.842648E-3,3.320751E-2,-4.4394705E-2,-1.8617338E-2,-4.2366963E-2,-1.0475596E-2,-8.681648E-2,-3.1196612E-3,9.338175E-3,-1.5215156E-2,5.5869818E-2,5.187592E-4,-2.6157737E-2,1.8365828E-2,-1.331726E-2,-1.601356E-2,2.4889295E-3,-5.759937E-5,-4.433286E-2,-8.26439E-2,-2.013444E-3,4.8453692E-2,2.7574256E-2,4.202867E-2,-8.581516E-2,-3.150953E-2,7.2720586E-3,5.904317E-2,-4.337154E-3,1.6831858E-2,-2.6697488E-4,1.7460305E-2,-9.506013E-2,2.6269052E-2,-5.4405965E-2,4.4805724E-2,-2.962195E-2,-1.0188343E-1,3.0968754E-2,3.1305984E-2,-2.5394296E-2,-8.260895E-2,3.1190548E-2,2.4921857E-2,-3.2426313E-2,3.985479E-2,2.3442947E-3,-9.485838E-2,2.8869424E-2,4.2446487E-2,-2.6703581E-2,5.513164E-2,2.6280766E-3],"categories":[],"categories_nodes":[],"categories_segments":[],"categories_sizes":[],"default_left":[0,0,0,0,0,0,0,0,0,0,0,0,0,0,0,0,0,0,0,0,0,0,0,0,0,0,0,0,0,0,0,0,0,0,0,0,0,0,0,0,0,0,0,0,0,0,0,0,0,0,0,0,0,0,0,0,0,0,0,0,0,0,0,0,0,0,0,0,0,0,0,0,0,0,0,0,0,0,0,0,0,0,0,0,0,0,0,0,0,0,0,0,0,0,0,0,0,0,0,0,0,0,0,0,0,0,0,0,0,0,0,0,0,0,0,0,0],"id":12,"left_children":[1,3,5,7,9,11,13,15,17,19,21,23,25,27,29,31,33,35,37,39,41,43,45,47,49,51,53,55,57,59,61,63,65,67,69,71,73,75,-1,77,79,81,83,85,87,89,91,93,-1,-1,95,97,99,-1,-1,101,103,105,107,109,111,113,115,-1,-1,-1,-1,-1,-1,-1,-1,-1,-1,-1,-1,-1,-1,-1,-1,-1,-1,-1,-1,-1,-1,-1,-1,-1,-1,-1,-1,-1,-1,-1,-1,-1,-1,-1,-1,-1,-1,-1,-1,-1,-1,-1,-1,-1,-1,-1,-1,-1,-1,-1,-1,-1,-1],"loss_changes":[1.2190889E3,6.519348E2,1.4378406E2,2.4704596E2,1.6862515E2,5.043573E1,3.511548E1,1.1682361E2,5.1377502E1,1.8976633E2,1.721178E2,1.7859818E2,1.9130508E1,1.7321747E1,9.0191345E0,4.538083E1,7.381427E1,3.561295E1,6.727545E1,1.4672939E2,6.538438E1,3.1136658E1,7.427032E1,2.5339996E1,4.26855E1,1.3713394E1,1.5396231E1,2.9307383E1,1.2342072E1,1.5405304E1,4.8028564E0,2.6267761E1,1.9926907E1,4.9486084E1,5.331537E1,2.306016E1,3.4635223E1,4.7237488E1,0E0,4.0344116E1,4.1091442E1,7.509446E1,4.359564E2,3.2559113E1,2.2991375E1,4.4195244E1,1.4739563E1,2.3930634E1,0E0,0E0,3.9821762E1,2.0065866E1,2.0324371E1,0E0,0E0,1.5550707E1,1.6827185E1,1.6021393E1,2.2380054E1,1.1626205E1,1.0363195E1,7.8373184E0,2.8390503E0,0E0,0E0,0E0,0E0,0E0,0E0,0E0,0E0,0E0,0E0,0E0,0E0,0E0,0E0,0E0,0E0,0E0,0E0,0E0,0E0,0E0,0E0,0E0,0E0,0E0,0E0,0E0,0E0,0E0,0E0,0E0,0E0,0E0,0E0,0E0,0E0,0E0,0E0,0E0,0E0,0E0,0E0,0E0,0E0,0E0,0E0,0E0,0E0,0E0,0E0,0E0,0E0,0E0,0E0],"parents":[2147483647,0,0,1,1,2,2,3,3,4,4,5,5,6,6,7,7,8,8,9,9,10,10,11,11,12,12,13,13,14,14,15,15,16,16,17,17,18,18,19,19,20,20,21,21,22,22,23,23,24,24,25,25,26,26,27,27,28,28,29,29,30,30,31,31,32,32,33,33,34,34,35,35,36,36,37,37,39,39,40,40,41,41,42,42,43,43,44,44,45,45,46,46,47,47,50,50,51,51,52,52,55,55,56,56,57,57,58,58,59,59,60,60,61,61,62,62],"right_children":[2,4,6,8,10,12,14,16,18,20,22,24,26,28,30,32,34,36,38,40,42,44,46,48,50,52,54,56,58,60,62,64,66,68,70,72,74,76,-1,78,80,82,84,86,88,90,92,94,-1,-1,96,98,100,-1,-1,102,104,106,108,110,112,114,116,-1,-1,-1,-1,-1,-1,-1,-1,-1,-1,-1,-1,-1,-1,-1,-1,-1,-1,-1,-1,-1,-1,-1,-1,-1,-1,-1,-1,-1,-1,-1,-1,-1,-1,-1,-1,-1,-1,-1,-1,-1,-1,-1,-1,-1,-1,-1,-1,-1,-1,-1,-1,-1,-1],"split_conditions":[2E0,2E0,4E0,1E0,2.2E1,1.5E1,8E0,5E0,3E0,6E0,2.3E1,1E1,1E0,1.4444444E0,8E0,3E0,6.5E1,1E0,1.1E1,1E0,1E1,1E0,2.8E1,1E0,1.2E1,2.4285715E0,4.5E1,3.3E1,6E0,9E0,1E0,6.9E1,1E0,1E0,1E0,7E0,8.5E0,4.4E0,-9.668436E-2,9.5E1,1E0,1E0,1.2E1,9E0,1.8333334E0,1E0,4E0,6.5E0,-8.527183E-2,-8.9038305E-2,1E0,1E0,1E0,5.6373097E-2,-8.661742E-2,6E0,1.2666667E0,2.5E1,1E0,1E1,7.5E1,1E0,6E0,-3.430932E-2,7.842648E-3,3.320751E-2,-4.4394705E-2,-1.8617338E-2,-4.2366963E-2,-1.0475596E-2,-8.681648E-2,-3.1196612E-3,9.338175E-3,-1.5215156E-2,5.5869818E-2,5.187592E-4,-2.6157737E-2,1.8365828E-2,-1.331726E-2,-1.601356E-2,2.4889295E-3,-5.759937E-5,-4.433286E-2,-8.26439E-2,-2.013444E-3,4.8453692E-2,2.7574256E-2,4.202867E-2,-8.581516E-2,-3.150953E-2,7.2720586E-3,5.904317E-2,-4.337154E-3,1.6831858E-2,-2.6697488E-4,1.7460305E-2,-9.506013E-2,2.6269052E-2,-5.4405965E-2,4.4805724E-2,-2.962195E-2,-1.0188343E-1,3.0968754E-2,3.1305984E-2,-2.5394296E-2,-8.260895E-2,3.1190548E-2,2.4921857E-2,-3.2426313E-2,3.985479E-2,2.3442947E-3,-9.485838E-2,2.8869424E-2,4.2446487E-2,-2.6703581E-2,5.513164E-2,2.6280766E-3],"split_indices":[10,2,10,10,2,2,63,11,1,2,2,2,50,64,10,63,35,39,4,53,2,52,2,23,2,64,35,5,64,64,33,5,40,43,59,11,64,64,0,35,34,40,2,11,64,63,1,64,0,0,33,53,21,0,0,10,64,35,53,4,35,56,6,0,0,0,0,0,0,0,0,0,0,0,0,0,0,0,0,0,0,0,0,0,0,0,0,0,0,0,0,0,0,0,0,0,0,0,0,0,0,0,0,0,0,0,0,0,0,0,0,0,0,0,0,0,0],"split_type":[0,0,0,0,0,0,0,0,0,0,0,0,0,0,0,0,0,0,0,0,0,0,0,0,0,0,0,0,0,0,0,0,0,0,0,0,0,0,0,0,0,0,0,0,0,0,0,0,0,0,0,0,0,0,0,0,0,0,0,0,0,0,0,0,0,0,0,0,0,0,0,0,0,0,0,0,0,0,0,0,0,0,0,0,0,0,0,0,0,0,0,0,0,0,0,0,0,0,0,0,0,0,0,0,0,0,0,0,0,0,0,0,0,0,0,0,0],"sum_hessian":[2.8520176E4,2.2932355E4,5.587821E3,1.2856999E4,1.0075356E4,3.86555E3,1.7222706E3,9.803613E3,3.0533862E3,8.940288E3,1.1350685E3,3.4964023E3,3.691477E2,1.029357E3,6.929135E2,1.2024012E3,8.601212E3,2.3024043E3,7.50982E2,4.6620327E3,4.2782554E3,7.7594775E2,3.591208E2,3.4134553E3,8.2947014E1,3.6222473E2,6.922984E0,7.611988E1,9.532372E2,3.9753348E2,2.9538004E2,1.1552228E3,4.717837E1,3.1433613E3,5.4578506E3,1.9675607E3,3.348435E2,7.295268E2,2.1455172E1,2.591529E3,2.0705037E3,3.0501255E3,1.2281296E3,7.628271E2,1.3120624E1,3.0307593E2,5.604486E1,3.408211E3,5.2444196E0,4.718337E1,3.576365E1,1.2494255E2,2.3728218E2,1.9331243E0,4.98986E0,1.0248906E1,6.587097E1,8.613437E2,9.189346E1,3.9231876E2,5.214738E0,1.2429779E2,1.7108224E2,1.1173478E3,3.7875004E1,3.7572853E1,9.605519E0,2.9062627E3,2.3709882E2,5.4358633E3,2.1987408E1,4.96252E2,1.4713087E3,3.1770535E2,1.7138151E1,4.757093E2,2.5381752E2,2.487509E3,1.04020035E2,3.6301224E2,1.7074913E3,2.9521453E3,9.7980225E1,1.9928906E2,1.0288406E3,3.495872E2,4.1323993E2,4.913624E0,8.207E0,1.799267E2,1.2314925E2,4.4734013E1,1.1310851E1,3.1895947E3,2.1861626E2,2.5550045E1,1.0213603E1,1.176213E2,7.321252E0,2.2838463E2,8.8975525E0,7.8354106E0,2.4134953E0,4.8990692E1,1.6880281E1,2.1777632E0,8.5916595E2,7.050291E1,2.1390554E1,3.7030783E2,2.2010918E1,2.84045E0,2.3742878E0,1.2069658E2,3.6012158E0,1.6836348E2,2.718777E0],"tree_param":{"num_deleted":"0","num_feature":"66","num_nodes":"117","size_leaf_vector":"1"}},{"base_weights":[1.8052119E-3,-9.797838E-2,4.102459E-1,-2.5039333E-1,9.3635045E-2,3.4377328E-1,7.1607953E-1,-3.232499E-1,-1.4427851E-2,4.8167393E-2,4.5484897E-1,3.1898615E-1,8.343452E-1,3.2945707E-1,7.816288E-1,-4.9891293E-1,-2.6171827E-1,-1.522745E-1,1.16895E-1,1.872398E-1,-1.0407231E-1,7.001605E-1,-6.663827E-2,3.4479764E-1,-2.7618725E-2,8.702453E-1,-8.3799906E-2,3.883039E-1,-8.763113E-2,7.998814E-1,-7.514094E-2,-8.9134526E-1,-4.7112757E-1,-3.5830054E-1,-1.8250303E-1,-1.16351366E-1,-1.2602581E0,-1.6412903E-1,2.1379995E-1,3.1233105E-1,3.2034E-2,-1.583043E-1,9.036346E-2,9.514617E-1,4.6841303E-1,-3.086432E-1,1.0238681E0,2.8133804E-1,4.2978868E-1,-8.81268E-2,3.4814784E-1,9.237858E-1,-4.004359E-1,4.3285972E-1,-8.617628E-2,6.9144255E-1,9.0967256E-1,-8.702538E-2,2.1433172E-1,-5.200466E-2,1.0553928E-3,-2.3845686E-2,5.4038346E-2,-2.2347331E-2,-1.1011284E-2,-1.1706936E-2,5.2469824E-3,-9.340415E-2,-4.8002265E-3,-7.729617E-2,2.0674108E-2,-3.0460823E-3,-4.012556E-2,1.2571938E-2,-1.9365435E-2,1.6869754E-2,-1.386492E-2,-1.6616475E-2,5.396592E-3,-2.150769E-3,-6.0815424E-2,7.4082926E-2,2.2028387E-3,5.0891854E-2,-3.9435383E-3,-2.2729563E-2,2.8061295E-2,-9.851137E-3,-5.6896698E-2,5.5336665E-2,-7.519595E-3,1.2926518E-2,3.3987228E-2,2.2195982E-2,-2.225661E-2,1.8936042E-2,-7.5484835E-2,6.888008E-2,4.1702855E-2,-4.6973962E-2,5.6215614E-2,2.4963742E-2,-4.1604858E-2,3.519548E-2,-7.564887E-2,-4.9507166E-3,4.656819E-2,-2.4612978E-2,3.901492E-2],"categories":[],"categories_nodes":[],"categories_segments":[],"categories_sizes":[],"default_left":[0,0,0,0,0,0,0,0,0,0,0,0,0,0,0,0,0,0,0,0,0,0,0,0,0,0,0,0,0,0,0,0,0,0,0,0,0,0,0,0,0,0,0,0,0,0,0,0,0,0,0,0,0,0,0,0,0,0,0,0,0,0,0,0,0,0,0,0,0,0,0,0,0,0,0,0,0,0,0,0,0,0,0,0,0,0,0,0,0,0,0,0,0,0,0,0,0,0,0,0,0,0,0,0,0,0,0,0,0],"id":13,"left_children":[1,3,5,7,9,11,13,15,17,19,21,23,25,27,29,31,33,35,37,39,41,43,45,47,49,51,-1,53,-1,55,57,59,61,63,65,67,69,71,73,75,77,79,81,83,85,87,89,91,93,-1,95,97,99,101,-1,103,105,-1,107,-1,-1,-1,-1,-1,-1,-1,-1,-1,-1,-1,-1,-1,-1,-1,-1,-1,-1,-1,-1,-1,-1,-1,-1,-1,-1,-1,-1,-1,-1,-1,-1,-1,-1,-1,-1,-1,-1,-1,-1,-1,-1,-1,-1,-1,-1,-1,-1,-1,-1],"loss_changes":[1.1567439E3,6.661801E2,1.13041016E2,2.1840979E2,1.659576E2,5.5420227E1,2.4933533E1,1.0479486E2,5.429438E1,1.9009253E2,1.4457455E2,3.902368E1,2.1252914E1,1.8547714E1,1.3339905E1,2.702649E1,5.495334E1,5.8094116E1,4.1865852E1,9.108382E1,4.5213516E1,4.430609E1,9.594172E1,2.1769684E1,1.9825775E2,1.5146866E1,0E0,1.416732E1,0E0,9.271301E0,9.353095E0,2.2459366E1,2.1642517E1,3.9550903E1,5.869432E1,5.037564E1,2.2561516E1,2.5938162E1,2.5949352E1,3.848677E1,5.7973106E1,4.0881067E2,6.0203674E1,2.5226166E1,3.4670425E1,2.7296165E1,6.592407E0,2.0965378E1,2.162497E1,0E0,1.4773542E1,7.3502655E0,8.84751E0,1.2218206E1,0E0,1.2677017E1,9.063568E0,0E0,7.0864515E0,0E0,0E0,0E0,0E0,0E0,0E0,0E0,0E0,0E0,0E0,0E0,0E0,0E0,0E0,0E0,0E0,0E0,0E0,0E0,0E0,0E0,0E0,0E0,0E0,0E0,0E0,0E0,0E0,0E0,0E0,0E0,0E0,0E0,0E0,0E0,0E0,0E0,0E0,0E0,0E0,0E0,0E0,0E0,0E0,0E0,0E0,0E0,0E0,0E0,0E0],"parents":[2147483647,0,0,1,1,2,2,3,3,4,4,5,5,6,6,7,7,8,8,9,9,10,10,11,11,12,12,13,13,14,14,15,15,16,16,17,17,18,18,19,19,20,20,21,21,22,22,23,23,24,24,25,25,27,27,29,29,30,30,31,31,32,32,33,33,34,34,35,35,36,36,37,37,38,38,39,39,40,40,41,41,42,42,43,43,44,44,45,45,46,46,47,47,48,48,50,50,51,51,52,52,53,53,55,55,56,56,58,58],"right_children":[2,4,6,8,10,12,14,16,18,20,22,24,26,28,30,32,34,36,38,40,42,44,46,48,50,52,-1,54,-1,56,58,60,62,64,66,68,70,72,74,76,78,80,82,84,86,88,90,92,94,-1,96,98,100,102,-1,104,106,-1,108,-1,-1,-1,-1,-1,-1,-1,-1,-1,-1,-1,-1,-1,-1,-1,-1,-1,-1,-1,-1,-1,-1,-1,-1,-1,-1,-1,-1,-1,-1,-1,-1,-1,-1,-1,-1,-1,-1,-1,-1,-1,-1,-1,-1,-1,-1,-1,-1,-1,-1],"split_conditions":[2E0,2E0,5E0,1E0,2.2E1,1.9E1,6E0,6E0,1E0,6E0,2.3E1,9E0,9.5E1,7.2E1,5E0,3E0,4.3E1,8E0,3.5E1,1E0,1.5E1,9E0,2.8E1,3E0,1.2E1,7E0,-8.3799906E-2,1E0,-8.763113E-2,1E0,1E0,1E0,8.7E1,7.5E1,8.5E1,1E0,2E0,3.2E1,1E0,9.5E1,1E0,1E1,1.6E1,1E0,1.6666666E0,1E0,1E0,7.5E1,1E0,-8.81268E-2,1E0,1.7E1,1.2E1,1.1E1,-8.617628E-2,8.4E1,3E0,-8.702538E-2,6E0,-5.200466E-2,1.0553928E-3,-2.3845686E-2,5.4038346E-2,-2.2347331E-2,-1.1011284E-2,-1.1706936E-2,5.2469824E-3,-9.340415E-2,-4.8002265E-3,-7.729617E-2,2.0674108E-2,-3.0460823E-3,-4.012556E-2,1.2571938E-2,-1.9365435E-2,1.6869754E-2,-1.386492E-2,-1.6616475E-2,5.396592E-3,-2.150769E-3,-6.0815424E-2,7.4082926E-2,2.2028387E-3,5.0891854E-2,-3.9435383E-3,-2.2729563E-2,2.8061295E-2,-9.851137E-3,-5.6896698E-2,5.5336665E-2,-7.519595E-3,1.2926518E-2,3.3987228E-2,2.2195982E-2,-2.225661E-2,1.8936042E-2,-7.5484835E-2,6.888008E-2,4.1702855E-2,-4.6973962E-2,5.6215614E-2,2.4963742E-2,-4.1604858E-2,3.519548E-2,-7.564887E-2,-4.9507166E-3,4.656819E-2,-2.4612978E-2,3.901492E-2],"split_indices":[10,2,10,10,2,2,63,11,0,2,2,2,35,5,6,11,5,64,5,53,2,11,2,10,2,63,0,38,0,8,27,37,5,35,35,64,8,5,55,35,34,2,2,57,64,53,38,5,40,0,50,5,4,4,0,5,5,0,2,0,0,0,0,0,0,0,0,0,0,0,0,0,0,0,0,0,0,0,0,0,0,0,0,0,0,0,0,0,0,0,0,0,0,0,0,0,0,0,0,0,0,0,0,0,0,0,0,0,0],"split_type":[0,0,0,0,0,0,0,0,0,0,0,0,0,0,0,0,0,0,0,0,0,0,0,0,0,0,0,0,0,0,0,0,0,0,0,0,0,0,0,0,0,0,0,0,0,0,0,0,0,0,0,0,0,0,0,0,0,0,0,0,0,0,0,0,0,0,0,0,0,0,0,0,0,0,0,0,0,0,0,0,0,0,0,0,0,0,0,0,0,0,0,0,0,0,0,0,0,0,0,0,0,0,0,0,0,0,0,0,0],"sum_hessian":[2.838041E4,2.2808875E4,5.571534E3,1.2703686E4,1.010519E4,4.578521E3,9.9301294E2,9.706379E3,2.9973064E3,8.976421E3,