{"learner":{"attributes":{"scikit_learn":"{\"_estimator_type\": \"classifier\"}"},"feature_names":["gender","admission_type_id","discharge_disposition_id","admission_source_id","time_in_hospital","num_lab_procedures","num_procedures","num_medications","number_outpatient","number_emergency","number_inpatient","number_diagnoses","metformin","repaglinide","nateglinide","chlorpropamide","glimepiride","acetohexamide","glipizide","glyburide","tolbutamide","pioglitazone","rosiglitazone","acarbose","miglitol","troglitazone","tolazamide","insulin","glyburide-metformin","glipizide-metformin","glimepiride-pioglitazone","metformin-rosiglitazone","metformin-pioglitazone","change","diabetesMed","age_num","diag_1_group_Diabetes","diag_1_group_Digestive","diag_1_group_Injury","diag_1_group_Respiratory","diag_2_group_Diabetes","diag_2_group_Digestive","diag_2_group_Injury","diag_2_group_Respiratory","diag_3_group_Diabetes","diag_3_group_Digestive","diag_3_group_Injury","diag_3_group_Respiratory","race_Asian","race_Caucasian","race_Hispanic","race_Other","payer_code_HM","payer_code_MC","payer_code_SP","medical_specialty_Emergency/Trauma","medical_specialty_Family/GeneralPractice","medical_specialty_InternalMedicine","medical_specialty_Nephrology","medical_specialty_Orthopedics","medical_specialty_Orthopedics-Reconstructive","medical_specialty_Radiologist","medical_specialty_Surgery-General","total_visits","meds_per_day","diab_and_circ"],"feature_types":["float","int","int","int","int","int","int","int","int","int","int","int","int","int","int","int","int","int","int","int","int","int","int","int","int","int","int","int","int","int","int","int","int","int","int","float","int","int","int","int","int","int","int","int","int","int","int","int","int","int","int","int","int","int","int","int","int","int","int","int","int","int","int","int","float","int"],"gradient_booster":{"model":{"cats":{"enc":[],"feature_segments":[],"sorted_idx":[]},"gbtree_model_param":{"num_parallel_tree":"1","num_trees":"200"},"iteration_indptr":[0,1,2,3,4,5,6,7,8,9,10,11,12,13,14,15,16,17,18,19,20,21,22,23,24,25,26,27,28,29,30,31,32,33,34,35,36,37,38,39,40,41,42,43,44,45,46,47,48,49,50,51,52,53,54,55,56,57,58,59,60,61,62,63,64,65,66,67,68,69,70,71,72,73,74,75,76,77,78,79,80,81,82,83,84,85,86,87,88,89,90,91,92,93,94,95,96,97,98,99,100,101,102,103,104,105,106,107,108,109,110,111,112,113,114,115,116,117,118,119,120,121,122,123,124,125,126,127,128,129,130,131,132,133,134,135,136,137,138,139,140,141,142,143,144,145,146,147,148,149,150,151,152,153,154,155,156,157,158,159,160,161,162,163,164,165,166,167,168,169,170,171,172,173,174,175,176,177,178,179,180,181,182,183,184,185,186,187,188,189,190,191,192,193,194,195,196,197,198,199,200],"tree_info":[0,0,0,0,0,0,0,0,0,0,0,0,0,0,0,0,0,0,0,0,0,0,0,0,0,0,0,0,0,0,0,0,0,0,0,0,0,0,0,0,0,0,0,0,0,0,0,0,0,0,0,0,0,0,0,0,0,0,0,0,0,0,0,0,0,0,0,0,0,0,0,0,0,0,0,0,0,0,0,0,0,0,0,0,0,0,0,0,0,0,0,0,0,0,0,0,0,0,0,0,0,0,0,0,0,0,0,0,0,0,0,0,0,0,0,0,0,0,0,0,0,0,0,0,0,0,0,0,0,0,0,0,0,0,0,0,0,0,0,0,0,0,0,0,0,0,0,0,0,0,0,0,0,0,0,0,0,0,0,0,0,0,0,0,0,0,0,0,0,0,0,0,0,0,0,0,0,0,0,0,0,0,0,0,0,0,0,0,0,0,0,0,0,0,0,0,0,0,0,0],"trees":[{"base_weights":[2.4006325E-3,-2.9670373E-1,4.436077E-1,-4.3606728E-1,-7.128346E-2,2.5931078E-1,9.371283E-1,-6.4801246E-1,-3.2434672E-1,-4.268256E-1,-3.9294723E-2,1.6399813E-1,4.715698E-1,7.4009335E-1,1.2884241E0,-7.824212E-1,-4.4386968E-1,-3.8508856E-1,-8.683502E-2,-5.388737E-1,2.9247078E-1,-1.3731474E-1,5.130127E-2,1.961019E-1,-2.0408279E-1,9.380594E-1,4.3447083E-1,7.5424075E-1,-1.7801125E-1,8.576331E-1,1.355808E0,-7.993326E-1,2.572805E-1,-5.383259E-1,-1.5837221E-1,-6.928721E-1,-3.3365753E-1,-6.064065E-2,-9.729585E-1,-9.720426E-1,-3.92339E-1,1.0351839E0,-2.737738E-1,-4.5137396E-1,-8.288359E-2,9.278225E-2,-2.7683723E-1,2.1856818E-1,-4.2592868E-1,-9.975877E-1,-1.2670021E-1,9.727076E-1,-6.923077E-2,4.0412754E-1,8.67442E-1,8.7938154E-1,6.7104524E-1,-6.708396E-1,7.922472E-2,9.1341275E-1,-7.5E-2,1.3053422E0,1.7129643E0,-4.561167E-2,-3.3932343E-2,-8.6666666E-2,3.7606232E-2,-2.4390971E-2,-6.404048E-2,-1.503371E-2,1.1838464E-2,-3.2522544E-2,-7.625195E-2,-2.3900857E-2,-1.2957093E-2,-1.7887695E-2,4.6424652E-4,-7.343571E-2,6.2359404E-2,-5.104364E-2,5.370427E-2,-2.4268767E-2,2.0571744E-2,-2.8754637E-2,7.1308814E-2,-4.9463518E-2,1.1300601E-2,-6.7335884E-3,-3.4437437E-2,-1.9563858E-3,-2.0238515E-2,-6.724858E-3,7.387758E-3,-2.9202844E-3,-2.4771698E-2,3.971883E-3,1.3155582E-2,2.798442E-2,-2.6808545E-2,-9.569892E-2,7.455955E-3,1.2732923E-2,-1.7931491E-2,6.4768635E-2,3.529719E-2,1.4794041E-2,2.5375986E-2,4.6130456E-2,-7.5E-2,4.515161E-2,-8.341433E-3,3.4690455E-2,6.2887594E-3,1.7013358E-2,-9.166667E-2,4.8079338E-2,-7.1428575E-2,6.67021E-2,4.2390697E-2,8.7607555E-2,3.8272362E-2],"categories":[],"categories_nodes":[],"categories_segments":[],"categories_sizes":[],"default_left":[0,0,0,0,0,0,0,0,0,0,0,0,0,0,0,0,0,0,0,0,0,0,0,0,0,0,0,0,0,0,0,0,0,0,0,0,0,0,0,0,0,0,0,0,0,0,0,0,0,0,0,0,0,0,0,0,0,0,0,0,0,0,0,0,0,0,0,0,0,0,0,0,0,0,0,0,0,0,0,0,0,0,0,0,0,0,0,0,0,0,0,0,0,0,0,0,0,0,0,0,0,0,0,0,0,0,0,0,0,0,0,0,0,0,0,0,0,0,0,0,0],"id":0,"left_children":[1,3,5,7,9,11,13,15,17,19,21,23,25,27,29,31,33,35,37,39,41,43,45,47,49,51,53,55,57,59,61,63,65,67,69,71,73,75,77,79,81,83,85,87,89,91,93,95,97,99,101,103,-1,105,107,109,111,113,-1,115,-1,117,119,-1,-1,-1,-1,-1,-1,-1,-1,-1,-1,-1,-1,-1,-1,-1,-1,-1,-1,-1,-1,-1,-1,-1,-1,-1,-1,-1,-1,-1,-1,-1,-1,-1,-1,-1,-1,-1,-1,-1,-1,-1,-1,-1,-1,-1,-1,-1,-1,-1,-1,-1,-1,-1,-1,-1,-1,-1,-1],"loss_changes":[3.8105E3,5.405829E2,1.0608376E3,2.5158704E2,7.4770164E1,1.7179462E2,2.1857666E2,1.00339966E2,1.0045569E2,4.3895683E1,5.358984E1,6.933809E1,4.514447E1,2.6557129E1,3.1880737E1,3.9088135E1,3.9263947E1,8.756848E1,3.2897842E1,2.9444763E1,3.1316675E1,4.9511234E1,4.271752E1,7.547867E1,2.8791206E1,1.6882263E1,3.1706543E1,2.0269653E1,2.8580833E1,2.1976387E1,1.5475098E1,2.9033081E1,3.691339E1,4.0475403E1,2.0547884E1,2.7009369E1,5.101886E1,2.8677132E1,4.6628433E1,1.2896263E1,2.6581612E1,2.1049725E1,1.547872E1,3.2077286E1,3.4794884E1,3.4818855E1,1.6790113E1,3.2249023E1,2.0768986E1,4.4105293E1,3.814571E1,1.5508102E1,0E0,2.5391174E1,2.2141243E1,1.9868347E1,1.4903564E1,3.0549826E1,0E0,1.8713669E1,0E0,1.022937E1,3.0570068E0,0E0,0E0,0E0,0E0,0E0,0E0,0E0,0E0,0E0,0E0,0E0,0E0,0E0,0E0,0E0,0E0,0E0,0E0,0E0,0E0,0E0,0E0,0E0,0E0,0E0,0E0,0E0,0E0,0E0,0E0,0E0,0E0,0E0,0E0,0E0,0E0,0E0,0E0,0E0,0E0,0E0,0E0,0E0,0E0,0E0,0E0,0E0,0E0,0E0,0E0,0E0,0E0,0E0,0E0,0E0,0E0,0E0,0E0],"parents":[2147483647,0,0,1,1,2,2,3,3,4,4,5,5,6,6,7,7,8,8,9,9,10,10,11,11,12,12,13,13,14,14,15,15,16,16,17,17,18,18,19,19,20,20,21,21,22,22,23,23,24,24,25,25,26,26,27,27,28,28,29,29,30,30,31,31,32,32,33,33,34,34,35,35,36,36,37,37,38,38,39,39,40,40,41,41,42,42,43,43,44,44,45,45,46,46,47,47,48,48,49,49,50,50,51,51,53,53,54,54,55,55,56,56,57,57,59,59,61,61,62,62],"right_children":[2,4,6,8,10,12,14,16,18,20,22,24,26,28,30,32,34,36,38,40,42,44,46,48,50,52,54,56,58,60,62,64,66,68,70,72,74,76,78,80,82,84,86,88,90,92,94,96,98,100,102,104,-1,106,108,110,112,114,-1,116,-1,118,120,-1,-1,-1,-1,-1,-1,-1,-1,-1,-1,-1,-1,-1,-1,-1,-1,-1,-1,-1,-1,-1,-1,-1,-1,-1,-1,-1,-1,-1,-1,-1,-1,-1,-1,-1,-1,-1,-1,-1,-1,-1,-1,-1,-1,-1,-1,-1,-1,-1,-1,-1,-1,-1,-1,-1,-1,-1,-1],"split_conditions":[1E0,5E0,3E0,6.5E1,1.1818181E0,2E0,5E0,8E0,1E0,1E0,7.5E1,1E0,4.5E1,1E0,6E0,5E0,1E0,8E0,7E1,6.5E1,3.7E1,6E0,3E1,1E0,1E1,1.2E1,7.4E1,9E0,1E0,7.2E1,1.1E1,4.1E1,1E0,1E0,4E0,1E0,7.5E1,1E0,1E0,1E0,4E0,1E0,5.1E1,1E0,1E0,1E0,9E0,2.1666667E0,1.0666667E0,8E0,2.357143E0,6E0,-6.923077E-2,3.2E0,3E0,8E0,1E1,3.5E1,7.922472E-2,1E0,-7.5E-2,1E0,1E0,-4.561167E-2,-3.3932343E-2,-8.6666666E-2,3.7606232E-2,-2.4390971E-2,-6.404048E-2,-1.503371E-2,1.1838464E-2,-3.2522544E-2,-7.625195E-2,-2.3900857E-2,-1.2957093E-2,-1.7887695E-2,4.6424652E-4,-7.343571E-2,6.2359404E-2,-5.104364E-2,5.370427E-2,-2.4268767E-2,2.0571744E-2,-2.8754637E-2,7.1308814E-2,-4.9463518E-2,1.1300601E-2,-6.7335884E-3,-3.4437437E-2,-1.9563858E-3,-2.0238515E-2,-6.724858E-3,7.387758E-3,-2.9202844E-3,-2.4771698E-2,3.971883E-3,1.3155582E-2,2.798442E-2,-2.6808545E-2,-9.569892E-2,7.455955E-3,1.2732923E-2,-1.7931491E-2,6.4768635E-2,3.529719E-2,1.4794041E-2,2.5375986E-2,4.6130456E-2,-7.5E-2,4.515161E-2,-8.341433E-3,3.4690455E-2,6.2887594E-3,1.7013358E-2,-9.166667E-2,4.8079338E-2,-7.1428575E-2,6.67021E-2,4.2390697E-2,8.7607555E-2,3.8272362E-2],"split_indices":[10,4,10,35,64,10,10,11,63,19,35,44,35,40,63,63,63,7,5,35,5,11,7,40,5,4,5,11,45,5,10,5,49,44,4,38,35,34,21,60,6,0,5,49,43,34,4,64,64,11,64,11,0,64,8,64,63,5,0,16,0,47,43,0,0,0,0,0,0,0,0,0,0,0,0,0,0,0,0,0,0,0,0,0,0,0,0,0,0,0,0,0,0,0,0,0,0,0,0,0,0,0,0,0,0,0,0,0,0,0,0,0,0,0,0,0,0,0,0,0,0],"split_type":[0,0,0,0,0,0,0,0,0,0,0,0,0,0,0,0,0,0,0,0,0,0,0,0,0,0,0,0,0,0,0,0,0,0,0,0,0,0,0,0,0,0,0,0,0,0,0,0,0,0,0,0,0,0,0,0,0,0,0,0,0,0,0,0,0,0,0,0,0,0,0,0,0,0,0,0,0,0,0,0,0,0,0,0,0,0,0,0,0,0,0,0,0,0,0,0,0,0,0,0,0,0,0,0,0,0,0,0,0,0,0,0,0,0,0,0,0,0,0,0,0],"sum_hessian":[2.8872658E4,1.7207576E4,1.1665082E4,1.0632942E4,6.5746333E3,8.494485E3,3.1705964E3,3.6685447E3,6.964398E3,5.4168427E2,6.0329487E3,5.863373E3,2.6311123E3,2.0332777E3,1.1373186E3,2.2103833E3,1.4581613E3,5.5455444E3,1.4188535E3,4.688934E2,7.279083E1,2.8974968E3,3.135452E3,5.3934287E3,4.6994418E2,1.9204282E2,2.4390696E3,2.0025974E3,3.0680277E1,1.5569221E2,9.816264E2,2.175233E3,3.5150394E1,1.0949979E3,3.6316333E2,7.9220514E2,4.7533394E3,1.3791533E3,3.97002E1,1.1710059E2,3.5179282E2,3.1130474E1,4.1660355E1,4.2692328E2,2.4705735E3,2.784209E3,3.51243E2,5.2060474E3,1.8738147E2,4.07002E1,4.29244E2,1.8979282E2,2.25E0,2.2811372E3,1.5793225E2,7.958814E2,1.2067161E3,2.446016E1,6.2201185E0,1.5269221E2,3E0,8.641742E2,1.1745218E2,1.1204761E3,1.054757E3,6.5E0,2.8650396E1,1.0268077E3,6.819024E1,2.6718225E2,9.598107E1,7.554751E2,3.673008E1,1.6164222E3,3.1369172E3,2.6196213E2,1.1171912E3,3.273008E1,6.9701185E0,1.1486056E2,2.2400396E0,3.1565237E2,3.6140434E1,5.99004E0,2.5140436E1,1.673008E1,2.4930277E1,1.835717E2,2.4335158E2,2.1759111E3,2.9466232E2,5.4198505E2,2.2422239E3,1.763217E2,1.7492131E2,1.263213E3,3.9428345E3,1.8440237E1,1.6894122E2,2.225E1,1.8450197E1,1.6229182E2,2.6695218E2,8.415138E1,1.05641426E2,1.1162927E3,1.1648445E3,1.5493225E2,3E0,7.7842126E2,1.746016E1,1.1580955E3,4.8620514E1,1.3460158E1,1.1E1,1.5019221E2,2.5E0,8.1136346E2,5.2810753E1,1.119721E2,5.480079E0],"tree_param":{"num_deleted":"0","num_feature":"66","num_nodes":"121","size_leaf_vector":"1"}},{"base_weights":[5.596074E-3,-1.6679227E-1,6.983647E-1,-3.8082457E-1,1.0781984E-1,5.8433974E-1,1.1797104E0,-5.1249E-1,4.8465643E-2,4.862353E-2,5.7697535E-1,5.510972E-1,9.1847587E-1,1.220532E0,5.6181645E-1,-7.7118343E-1,-4.2126644E-1,1.02387466E-1,-4.6897802E-1,2.3473361E-1,-1.5170482E-1,9.417899E-1,-1.8285345E-1,5.8855784E-1,-1.0900422E0,1.1662191E0,7.8568447E-1,9.148704E-1,1.2713097E0,7.1910775E-1,-8.212893E-2,-8.859916E-1,-6.2065345E-1,-4.8409423E-1,-1.9982551E-1,-1.5952958E-1,1.861247E-1,-3.121625E-1,-1.515756E0,1.8372674E-1,7.459377E-1,-5.5803116E-2,-3.8797525E-1,9.7643244E-1,-8.959503E-2,-4.8246148E-1,1.248139E0,4.9940935E-1,7.060251E-1,-9.964809E-2,1.8885152E-1,1.2165532E0,-7.030476E-2,8.11196E-1,-7.225069E-2,9.5770574E-1,-6.6700704E-2,1.1509655E0,1.3711207E0,-7.9205304E-1,9.0996265E-1,-5.50707E-2,-3.991278E-2,-2.9708654E-2,-7.258042E-2,-2.719582E-2,-1.2938032E-2,-2.408172E-2,-5.6496053E-3,-3.952746E-3,-4.4712037E-2,-1.464505E-3,1.4756327E-2,-1.2048992E-2,-9.1089234E-2,1.0419406E-2,-8.49462E-2,1.609602E-2,1.8021312E-3,3.8965095E-2,-4.42391E-2,-1.5279158E-2,2.717763E-3,-9.916548E-2,-3.426027E-3,6.283379E-2,3.59462E-2,-4.0899362E-2,4.124436E-3,6.718431E-2,-4.436057E-3,2.6713623E-2,1.4073543E-2,3.646345E-2,1.8310955E-2,7.137249E-2,-3.2739088E-2,6.476026E-2,1.9858958E-2,-7.034134E-2,4.1731447E-2,5.4784205E-2,1.595508E-2,5.9607442E-2,2.1156652E-2,6.904455E-2,2.554191E-2,-8.38243E-2,4.1439436E-2,5.0009437E-2,-6.580446E-2],"categories":[],"categories_nodes":[],"categories_segments":[],"categories_sizes":[],"default_left":[0,0,0,0,0,0,0,0,0,0,0,0,0,0,0,0,0,0,0,0,0,0,0,0,0,0,0,0,0,0,0,0,0,0,0,0,0,0,0,0,0,0,0,0,0,0,0,0,0,0,0,0,0,0,0,0,0,0,0,0,0,0,0,0,0,0,0,0,0,0,0,0,0,0,0,0,0,0,0,0,0,0,0,0,0,0,0,0,0,0,0,0,0,0,0,0,0,0,0,0,0,0,0,0,0,0,0,0,0,0,0],"id":1,"left_children":[1,3,5,7,9,11,13,15,17,19,21,23,25,27,29,31,33,35,37,39,41,43,45,47,49,51,53,55,57,59,-1,61,63,65,67,69,71,73,75,77,79,81,83,85,-1,87,89,91,93,-1,95,97,-1,99,-1,101,-1,103,105,107,109,-1,-1,-1,-1,-1,-1,-1,-1,-1,-1,-1,-1,-1,-1,-1,-1,-1,-1,-1,-1,-1,-1,-1,-1,-1,-1,-1,-1,-1,-1,-1,-1,-1,-1,-1,-1,-1,-1,-1,-1,-1,-1,-1,-1,-1,-1,-1,-1,-1,-1],"loss_changes":[3.4668503E3,1.366296E3,3.1678516E2,7.3842114E2,2.8276178E2,5.1460205E1,2.7232178E1,2.3560645E2,8.562698E1,3.3717593E2,3.1638297E2,2.623938E2,1.2961365E1,1.4937866E1,2.5606554E1,4.4472656E1,1.0276465E2,6.0969223E1,4.7071568E1,1.2210477E2,9.867085E1,7.475256E1,1.5961005E2,4.3245483E1,1.10500084E2,2.0502533E1,1.697551E1,1.58574295E1,9.07666E0,1.9885258E1,0E0,2.7010132E1,2.4014221E1,7.748511E1,3.9973175E1,3.975988E1,4.9456024E1,2.6765549E1,1.2189796E1,8.701439E1,2.3812943E1,8.529395E1,6.4065247E2,5.4076965E1,0E0,5.833474E1,8.356216E0,1.7859741E1,1.3901978E1,0E0,4.3128605E1,8.694138E0,0E0,1.5477463E1,0E0,1.2788406E1,0E0,1.173645E1,3.3261719E0,1.2837296E1,1.3259262E1,0E0,0E0,0E0,0E0,0E0,0E0,0E0,0E0,0E0,0E0,0E0,0E0,0E0,0E0,0E0,0E0,0E0,0E0,0E0,0E0,0E0,0E0,0E0,0E0,0E0,0E0,0E0,0E0,0E0,0E0,0E0,0E0,0E0,0E0,0E0,0E0,0E0,0E0,0E0,0E0,0E0,0E0,0E0,0E0,0E0,0E0,0E0,0E0,0E0,0E0],"parents":[2147483647,0,0,1,1,2,2,3,3,4,4,5,5,6,6,7,7,8,8,9,9,10,10,11,11,12,12,13,13,14,14,15,15,16,16,17,17,18,18,19,19,20,20,21,21,22,22,23,23,24,24,25,25,26,26,27,27,28,28,29,29,31,31,32,32,33,33,34,34,35,35,36,36,37,37,38,38,39,39,40,40,41,41,42,42,43,43,45,45,46,46,47,47,48,48,50,50,51,51,53,53,55,55,57,57,58,58,59,59,60,60],"right_children":[2,4,6,8,10,12,14,16,18,20,22,24,26,28,30,32,34,36,38,40,42,44,46,48,50,52,54,56,58,60,-1,62,64,66,68,70,72,74,76,78,80,82,84,86,-1,88,90,92,94,-1,96,98,-1,100,-1,102,-1,104,106,108,110,-1,-1,-1,-1,-1,-1,-1,-1,-1,-1,-1,-1,-1,-1,-1,-1,-1,-1,-1,-1,-1,-1,-1,-1,-1,-1,-1,-1,-1,-1,-1,-1,-1,-1,-1,-1,-1,-1,-1,-1,-1,-1,-1,-1,-1,-1,-1,-1,-1,-1],"split_conditions":[2E0,2E0,5E0,1E0,2.2E1,1.5E1,1E1,6E0,1E0,6E0,2.3E1,1E1,3.6E1,6E0,1E0,1E0,6E0,7E0,5.5E1,5E0,1E1,1E0,2.8E1,3E0,1.2E1,1E0,7E0,7.2E1,1E0,6E0,-8.212893E-2,2E0,1E0,1E0,4.4E1,1E0,1.4E1,8E0,5E0,1E0,7.8E1,3E0,1.2E1,9E0,-8.959503E-2,1E0,1E0,1E0,1E0,-9.964809E-2,8E0,1E0,-7.030476E-2,3.7E1,-7.225069E-2,1E0,-6.6700704E-2,1E0,1E0,6.9E1,6E0,-5.50707E-2,-3.991278E-2,-2.9708654E-2,-7.258042E-2,-2.719582E-2,-1.2938032E-2,-2.408172E-2,-5.6496053E-3,-3.952746E-3,-4.4712037E-2,-1.464505E-3,1.4756327E-2,-1.2048992E-2,-9.1089234E-2,1.0419406E-2,-8.49462E-2,1.609602E-2,1.8021312E-3,3.8965095E-2,-4.42391E-2,-1.5279158E-2,2.717763E-3,-9.916548E-2,-3.426027E-3,6.283379E-2,3.59462E-2,-4.0899362E-2,4.124436E-3,6.718431E-2,-4.436057E-3,2.6713623E-2,1.4073543E-2,3.646345E-2,1.8310955E-2,7.137249E-2,-3.2739088E-2,6.476026E-2,1.9858958E-2,-7.034134E-2,4.1731447E-2,5.4784205E-2,1.595508E-2,5.9607442E-2,2.1156652E-2,6.904455E-2,2.554191E-2,-8.38243E-2,4.1439436E-2,5.0009437E-2,-6.580446E-2],"split_indices":[10,2,10,10,2,2,4,11,44,2,2,2,5,63,57,33,4,11,5,2,2,52,2,10,2,62,63,5,6,63,0,4,62,63,5,18,7,4,7,53,5,3,2,11,0,63,18,12,52,0,11,12,0,5,0,53,0,47,54,5,1,0,0,0,0,0,0,0,0,0,0,0,0,0,0,0,0,0,0,0,0,0,0,0,0,0,0,0,0,0,0,0,0,0,0,0,0,0,0,0,0,0,0,0,0,0,0,0,0,0,0],"split_type":[0,0,0,0,0,0,0,0,0,0,0,0,0,0,0,0,0,0,0,0,0,0,0,0,0,0,0,0,0,0,0,0,0,0,0,0,0,0,0,0,0,0,0,0,0,0,0,0,0,0,0,0,0,0,0,0,0,0,0,0,0,0,0,0,0,0,0,0,0,0,0,0,0,0,0,0,0,0,0,0,0,0,0,0,0,0,0,0,0,0,0,0,0,0,0,0,0,0,0,0,0,0,0,0,0,0,0,0,0,0,0],"sum_hessian":[2.9027484E4,2.324417E4,5.783314E3,1.3062719E4,1.0181451E4,4.6774883E3,1.1058257E3,9.996538E3,3.0661812E3,9.041706E3,1.1397454E3,4.2566523E3,4.2083606E2,1.0363812E3,6.944448E1,2.6041594E3,7.3923784E3,2.777541E3,2.8864014E2,4.6871E3,4.3546055E3,7.698702E2,3.6987524E2,4.1622856E3,9.436684E1,1.4413928E2,2.7669675E2,1.5035031E2,8.860309E2,6.54483E1,3.9961803E0,1.4746039E3,1.1295555E3,5.757624E3,1.6347544E3,6.7266E2,2.104881E3,2.5216246E2,3.6477695E1,4.2630967E3,4.240034E2,3.098263E3,1.2563427E3,7.608709E2,8.999267E0,3.0638916E2,6.3486088E1,2.3693699E3,1.7929156E3,5.4986874E1,3.9379963E1,1.418899E2,2.2493947E0,2.7419724E2,2.4995322E0,1.4810349E2,2.246839E0,4.0737775E2,4.7865314E2,6.9857945E0,5.846251E1,4.234163E2,1.0511876E3,1.0963333E3,3.3222267E1,4.5486284E3,1.2089958E3,3.839942E2,1.2507603E3,6.0725366E2,6.5406334E1,7.074718E2,1.3974092E3,2.4191515E2,1.0247306E1,3.4898982E0,3.2987797E1,2.2017012E3,2.0613955E3,4.1601395E2,7.9894404E0,9.4767377E2,2.1505894E3,2.0873355E2,1.0476091E3,3.624935E2,3.983774E2,1.9194467E2,1.1444447E2,5.9246555E1,4.2395296E0,2.0413661E3,3.280038E2,1.6770535E3,1.1586222E2,1.5674737E1,2.3705225E1,1.2893288E2,1.2957026E1,2.2493596E0,2.7194788E2,1.212008E2,2.6902681E1,3.8495755E2,2.2420204E1,4.7267975E2,5.9733973E0,4.4974003E0,2.4883943E0,5.671445E1,1.748055E0],"tree_param":{"num_deleted":"0","num_feature":"66","num_nodes":"111","size_leaf_vector":"1"}},{"base_weights":[8.468477E-3,-2.0356877E-1,4.6532616E-1,-4.278515E-1,8.653314E-2,3.6281747E-1,8.3767533E-1,-5.337657E-1,-1.4681841E-1,1.8016508E-2,5.822967E-1,4.6642599E-1,3.68799E-3,1.0186173E0,7.7968344E-2,-6.0110635E-1,-2.6802224E-1,-3.2240072E-1,-1.2711458E-2,2.0904136E-1,-1.8972982E-1,8.9605963E-1,-1.2480157E-1,4.4233993E-1,9.9758035E-1,-2.3825948E-1,2.3036347E-1,9.520038E-1,1.2406865E0,2.3521368E-1,-4.2669484E-1,-5.4769725E-1,-9.0981233E-1,-2.4533571E-1,-1.0556474E0,-2.771009E-1,-1.2823542E0,5.6069564E-2,-3.3327913E-1,3.389794E-1,4.0294364E-2,-2.7429253E-1,6.7705646E-2,9.632131E-1,-1.3632675E-3,-4.4728673E-1,1.299059E0,4.7364545E-1,-5.0154228E-2,1.0852479E0,1.11986525E-1,-1.9184075E-1,-1.2397451E0,3.359129E-1,-1.49398185E-2,7.981656E-1,1.08141E0,1.262601E0,-3.6159956E-1,3.0354244E-1,-9.2787415E-1,-1.4675078E0,-1.6022478E-1,-4.2411514E-2,-2.434908E-2,-4.670193E-2,2.1249766E-2,-1.4686338E-2,3.8634443E-3,-7.1075566E-2,-4.9780295E-3,-1.0699176E-2,-4.0950086E-2,-8.659983E-2,-2.027383E-2,-6.674364E-3,1.158788E-2,-7.866054E-2,-1.1306E-2,1.2225655E-2,2.7488941E-2,-1.6304264E-2,6.054138E-3,-6.4509436E-3,-7.452475E-2,7.984841E-2,1.0080332E-3,4.9221795E-2,-8.415022E-2,-8.682272E-2,1.2703133E-2,-3.560836E-2,1.5057188E-2,7.133955E-2,-1.1469374E-2,2.2121027E-2,4.0487807E-2,-9.496664E-2,2.0282742E-2,5.569318E-2,-6.788099E-2,-3.5732802E-2,5.8351036E-2,-2.1096837E-2,-1.3542646E-3,1.756984E-3,-9.490953E-2,1.4204434E-2,4.3982733E-2,5.4349806E-3,-6.1887395E-2,4.1134506E-2,-2.4824938E-2,5.922203E-2,4.257795E-2,6.517645E-2,2.7905336E-2,3.876484E-2,-7.355113E-2,5.843045E-4,2.8009264E-2,-9.0956524E-2,2.3186222E-2,-9.362624E-2,1.6755188E-2,-3.2358885E-2,2.3699809E-2],"categories":[],"categories_nodes":[],"categories_segments":[],"categories_sizes":[],"default_left":[0,0,0,0,0,0,0,0,0,0,0,0,0,0,0,0,0,0,0,0,0,0,0,0,0,0,0,0,0,0,0,0,0,0,0,0,0,0,0,0,0,0,0,0,0,0,0,0,0,0,0,0,0,0,0,0,0,0,0,0,0,0,0,0,0,0,0,0,0,0,0,0,0,0,0,0,0,0,0,0,0,0,0,0,0,0,0,0,0,0,0,0,0,0,0,0,0,0,0,0,0,0,0,0,0,0,0,0,0,0,0,0,0,0,0,0,0,0,0,0,0,0,0,0,0,0,0],"id":2,"left_children":[1,3,5,7,9,11,13,15,17,19,21,23,25,27,29,31,33,35,37,39,41,43,45,47,49,51,53,55,57,59,61,63,65,67,69,71,73,75,77,79,81,83,85,87,89,91,93,95,97,99,101,103,105,107,109,111,113,115,117,119,121,123,125,-1,-1,-1,-1,-1,-1,-1,-1,-1,-1,-1,-1,-1,-1,-1,-1,-1,-1,-1,-1,-1,-1,-1,-1,-1,-1,-1,-1,-1,-1,-1,-1,-1,-1,-1,-1,-1,-1,-1,-1,-1,-1,-1,-1,-1,-1,-1,-1,-1,-1,-1,-1,-1,-1,-1,-1,-1,-1,-1,-1,-1,-1,-1,-1],"loss_changes":[2.8098425E3,1.2890549E3,3.5065332E2,3.3249927E2,2.934386E2,2.683365E2,2.7266638E2,1.4505225E2,7.204223E1,3.012877E2,2.3283069E2,7.11626E1,8.866694E1,2.2522827E1,3.0473827E1,1.0623047E2,2.9087433E1,5.7260025E1,3.8290874E1,8.67095E1,7.9191574E1,4.3794067E1,1.4901834E2,8.260071E1,1.866655E1,3.6116756E1,2.1616703E1,2.3761353E1,1.3323975E1,2.3524683E1,2.5081728E1,1.0032886E2,3.1222229E1,2.496434E1,1.5836803E1,4.3143143E1,2.2729706E1,4.765404E1,4.040629E1,4.4360016E1,5.1002167E1,4.835327E2,6.5410126E1,3.9625427E1,2.3304752E1,5.26141E1,1.203183E1,5.249402E1,2.7134012E2,1.6896973E1,2.0817383E1,2.8366455E1,2.8992287E1,1.6196297E1,3.824362E1,1.847287E1,1.4834351E1,9.702454E0,8.35729E0,2.0740952E1,2.1276894E1,1.41224785E1,2.3098434E1,0E0,0E0,0E0,0E0,0E0,0E0,0E0,0E0,0E0,0E0,0E0,0E0,0E0,0E0,0E0,0E0,0E0,0E0,0E0,0E0,0E0,0E0,0E0,0E0,0E0,0E0,0E0,0E0,0E0,0E0,0E0,0E0,0E0,0E0,0E0,0E0,0E0,0E0,0E0,0E0,0E0,0E0,0E0,0E0,0E0,0E0,0E0,0E0,0E0,0E0,0E0,0E0,0E0,0E0,0E0,0E0,0E0,0E0,0E0,0E0,0E0,0E0,0E0,0E0],"parents":[2147483647,0,0,1,1,2,2,3,3,4,4,5,5,6,6,7,7,8,8,9,9,10,10,11,11,12,12,13,13,14,14,15,15,16,16,17,17,18,18,19,19,20,20,21,21,22,22,23,23,24,24,25,25,26,26,27,27,28,28,29,29,30,30,31,31,32,32,33,33,34,34,35,35,36,36,37,37,38,38,39,39,40,40,41,41,42,42,43,43,44,44,45,45,46,46,47,47,48,48,49,49,50,50,51,51,52,52,53,53,54,54,55,55,56,56,57,57,58,58,59,59,60,60,61,61,62,62],"right_children":[2,4,6,8,10,12,14,16,18,20,22,24,26,28,30,32,34,36,38,40,42,44,46,48,50,52,54,56,58,60,62,64,66,68,70,72,74,76,78,80,82,84,86,88,90,92,94,96,98,100,102,104,106,108,110,112,114,116,118,120,122,124,126,-1,-1,-1,-1,-1,-1,-1,-1,-1,-1,-1,-1,-1,-1,-1,-1,-1,-1,-1,-1,-1,-1,-1,-1,-1,-1,-1,-1,-1,-1,-1,-1,-1,-1,-1,-1,-1,-1,-1,-1,-1,-1,-1,-1,-1,-1,-1,-1,-1,-1,-1,-1,-1,-1,-1,-1,-1,-1,-1,-1,-1,-1,-1,-1],"split_conditions":[2E0,2E0,6E0,1E0,2.2E1,2E0,5E0,6E0,1.4E1,6E0,2.3E1,2E1,2E0,1.1E1,2E0,1E0,1E0,7E0,1E0,1E0,1.5E1,1E0,2.8E1,1E1,1E0,1E0,8.5E1,1E0,1E1,1.5E1,1.7E1,8E0,1E0,8.5E1,9E0,1E0,1E0,1E0,2.3846154E0,1E0,1E0,1E1,1.6E1,1E0,6.5E1,1E0,1E0,5E0,1.2E1,1E0,2E0,3E0,2.5333333E0,3.2E1,1E0,1E0,2E0,4E0,1.8181819E0,9E0,5E0,1.7E1,4E0,-4.2411514E-2,-2.434908E-2,-4.670193E-2,2.1249766E-2,-1.4686338E-2,3.8634443E-3,-7.1075566E-2,-4.9780295E-3,-1.0699176E-2,-4.0950086E-2,-8.659983E-2,-2.027383E-2,-6.674364E-3,1.158788E-2,-7.866054E-2,-1.1306E-2,1.2225655E-2,2.7488941E-2,-1.6304264E-2,6.054138E-3,-6.4509436E-3,-7.452475E-2,7.984841E-2,1.0080332E-3,4.9221795E-2,-8.415022E-2,-8.682272E-2,1.2703133E-2,-3.560836E-2,1.5057188E-2,7.133955E-2,-1.1469374E-2,2.2121027E-2,4.0487807E-2,-9.496664E-2,2.0282742E-2,5.569318E-2,-6.788099E-2,-3.5732802E-2,5.8351036E-2,-2.1096837E-2,-1.3542646E-3,1.756984E-3,-9.490953E-2,1.4204434E-2,4.3982733E-2,5.4349806E-3,-6.1887395E-2,4.1134506E-2,-2.4824938E-2,5.922203E-2,4.257795E-2,6.517645E-2,2.7905336E-2,3.876484E-2,-7.355113E-2,5.843045E-4,2.8009264E-2,-9.0956524E-2,2.3186222E-2,-9.362624E-2,1.6755188E-2,-3.2358885E-2,2.3699809E-2],"split_indices":[63,2,63,63,2,8,8,4,7,2,2,2,2,63,6,44,62,4,8,53,2,57,2,2,57,16,35,6,2,8,7,7,61,35,4,39,53,0,64,63,34,2,2,13,35,63,39,63,2,41,6,4,64,7,12,38,8,8,64,63,2,63,2,0,0,0,0,0,0,0,0,0,0,0,0,0,0,0,0,0,0,0,0,0,0,0,0,0,0,0,0,0,0,0,0,0,0,0,0,0,0,0,0,0,0,0,0,0,0,0,0,0,0,0,0,0,0,0,0,0,0,0,0,0,0,0,0],"split_type":[0,0,0,0,0,0,0,0,0,0,0,0,0,0,0,0,0,0,0,0,0,0,0,0,0,0,0,0,0,0,0,0,0,0,0,0,0,0,0,0,0,0,0,0,0,0,0,0,0,0,0,0,0,0,0,0,0,0,0,0,0,0,0,0,0,0,0,0,0,0,0,0,0,0,0,0,0,0,0,0,0,0,0,0,0,0,0,0,0,0,0,0,0,0,0,0,0,0,0,0,0,0,0,0,0,0,0,0,0,0,0,0,0,0,0,0,0,0,0,0,0,0,0,0,0,0,0],"sum_hessian":[2.9004092E4,1.981028E4,9.1938125E3,1.1172305E4,8.637975E3,7.2106704E3,1.983142E3,8.113598E3,3.0587065E3,7.5900356E3,1.0479387E3,5.5959463E3,1.614724E3,1.6013922E3,3.8174976E2,6.47224E3,1.641358E3,1.3239255E3,1.734781E3,3.9541492E3,3.6358865E3,7.256684E2,3.2227032E2,5.35495E3,2.4099615E2,7.810261E2,8.336979E2,1.2359382E3,3.6545398E2,2.91467E2,9.0282745E1,5.5200015E3,9.522389E2,1.5966793E3,4.4678783E1,1.265496E3,5.842961E1,1.4289999E3,3.0578122E2,2.2333914E3,1.7207579E3,2.7368252E3,8.990612E2,6.750794E2,5.0588997E1,2.6331818E2,5.895214E1,5.0349414E3,3.2000906E2,2.1908302E2,2.1913124E1,7.47568E2,3.345812E1,5.8263257E2,2.5106535E2,5.6793964E2,6.679986E2,3.6073224E2,4.7217293E0,2.7599213E2,1.5474883E1,1.7484056E1,7.279869E1,9.255754E2,4.594426E3,9.355591E2,1.6679806E1,1.3884933E3,2.0818596E2,3.196138E1,1.2717402E1,1.1347249E3,1.3077106E2,3.7979454E1,2.0450157E1,6.87485E2,7.4151483E2,2.3236147E1,2.8254507E2,1.5437466E3,6.896447E2,3.1033514E2,1.4104227E3,2.4457856E3,2.9103952E2,2.6126476E1,8.7293475E2,6.703313E2,4.7481017E0,5.7476087E0,4.484139E1,1.9452235E2,6.879583E1,5.4466866E1,4.4852757E0,4.609072E3,4.2586957E2,6.2655216E1,2.5735385E2,2.1708414E2,1.998887E0,1.2467323E1,9.445801E0,3.112784E2,4.3628958E2,1.17174225E1,2.1740696E1,5.3332367E2,4.930885E1,2.2883838E2,2.2226986E1,5.577391E2,1.02005625E1,4.5837802E2,2.0962059E2,3.4012238E2,2.0609867E1,2.480734E0,2.2409952E0,1.2962596E2,1.4636617E2,9.246007E0,6.2288756E0,1.424472E1,3.2393363E0,4.1168903E1,3.1629787E1],"tree_param":{"num_deleted":"0","num_feature":"66","num_nodes":"127","size_leaf_vector":"1"}},{"base_weights":[4.008496E-3,-1.6166061E-1,6.5968794E-1,-3.6897796E-1,1.0083731E-1,5.084231E-1,9.8189384E-1,-4.9432188E-1,3.1406067E-2,4.4756714E-2,5.3092134E-1,4.6592665E-1,9.133114E-1,9.059572E-1,1.3448228E0,-7.172031E-1,-4.1454655E-1,-3.4663907E-1,9.7349025E-2,2.116938E-1,-1.3509285E-1,8.602093E-1,-1.9044814E-1,4.999854E-1,-9.183005E-1,-7.511974E-2,9.3342793E-1,9.957936E-1,7.294024E-1,1.3803462E0,2.08499E-1,-6.5695775E-1,-1.1383344E0,-5.65656E-1,-3.3193564E-1,-2.5675422E-1,-1.3198079E0,-8.199917E-2,2.0684503E-1,3.4506282E-1,4.932543E-2,-2.038859E-1,1.0868404E-1,9.211795E-1,9.818792E-3,-4.310266E-1,1.020207E0,4.709039E-1,8.94223E-1,-9.0981595E-2,1.0541873E-1,9.511009E-1,-6.889197E-2,-7.690137E-2,1.0034878E0,5.089498E-1,9.352354E-1,1.4426408E0,9.383871E-1,-7.56439E-2,8.9837515E-1,-3.5817437E-2,-1.33492965E-2,-5.883178E-2,5.948022E-2,-3.0757058E-2,-8.294588E-3,-1.5120091E-2,-4.277613E-2,-6.123857E-3,-4.228537E-2,-8.428881E-2,3.7344918E-2,6.7654327E-3,-1.6683197E-2,8.982278E-3,4.784236E-2,1.902355E-2,-2.5966922E-2,-2.8924649E-3,1.4034718E-2,-3.5632693E-3,-6.999239E-2,7.872446E-2,2.7881316E-3,5.8628287E-2,3.5184305E-2,5.940878E-2,-1.7203694E-2,-4.075744E-2,6.427757E-3,5.6992646E-2,-1.7255425E-2,4.027154E-2,2.205869E-2,4.674817E-2,-7.9648174E-2,3.3026498E-2,-6.2137824E-2,4.806849E-2,-5.834734E-2,5.314995E-2,3.2095857E-2,8.690863E-3,3.837728E-2,4.7598533E-2,-6.208104E-2,7.332155E-2,4.4253547E-2,5.182944E-2,-2.1825267E-3,-6.0768116E-2,7.1690135E-2],"categories":[],"categories_nodes":[],"categories_segments":[],"categories_sizes":[],"default_left":[0,0,0,0,0,0,0,0,0,0,0,0,0,0,0,0,0,0,0,0,0,0,0,0,0,0,0,0,0,0,0,0,0,0,0,0,0,0,0,0,0,0,0,0,0,0,0,0,0,0,0,0,0,0,0,0,0,0,0,0,0,0,0,0,0,0,0,0,0,0,0,0,0,0,0,0,0,0,0,0,0,0,0,0,0,0,0,0,0,0,0,0,0,0,0,0,0,0,0,0,0,0,0,0,0,0,0,0,0,0,0,0,0],"id":3,"left_children":[1,3,5,7,9,11,13,15,17,19,21,23,25,27,29,31,33,35,37,39,41,43,45,47,49,-1,51,53,55,57,59,61,63,65,67,69,71,73,75,77,79,81,83,85,87,89,91,93,95,-1,97,99,-1,-1,101,103,105,107,109,-1,111,-1,-1,-1,-1,-1,-1,-1,-1,-1,-1,-1,-1,-1,-1,-1,-1,-1,-1,-1,-1,-1,-1,-1,-1,-1,-1,-1,-1,-1,-1,-1,-1,-1,-1,-1,-1,-1,-1,-1,-1,-1,-1,-1,-1,-1,-1,-1,-1,-1,-1,-1,-1],"loss_changes":[3.1447603E3,1.2577468E3,2.8410376E2,6.4806006E2,2.4597153E2,6.798511E1,5.0166626E1,1.7456055E2,7.680731E1,2.7095145E2,2.7960455E2,1.701944E2,1.970462E1,2.3778198E1,1.265155E1,6.498352E1,9.024768E1,3.9690567E1,5.1527557E1,1.0133276E2,7.287927E1,4.18786E1,1.0806427E2,3.9872253E1,8.029195E1,0E0,1.659253E1,2.1452759E1,2.3335297E1,7.1989746E0,1.4297423E1,5.235858E1,3.0188538E1,5.0525513E1,7.220758E1,3.312455E1,3.0342094E1,5.4463608E1,3.3058327E1,7.88392E1,5.2382633E1,5.373686E2,7.4134766E1,4.039032E1,2.336886E1,6.6515686E1,1.0448448E1,3.221765E1,2.5841446E1,0E0,3.1946697E1,9.210358E0,0E0,0E0,2.1237793E1,2.2015327E1,1.1024704E1,2.2891846E0,4.022213E0,0E0,1.1255356E1,0E0,0E0,0E0,0E0,0E0,0E0,0E0,0E0,0E0,0E0,0E0,0E0,0E0,0E0,0E0,0E0,0E0,0E0,0E0,0E0,0E0,0E0,0E0,0E0,0E0,0E0,0E0,0E0,0E0,0E0,0E0,0E0,0E0,0E0,0E0,0E0,0E0,0E0,0E0,0E0,0E0,0E0,0E0,0E0,0E0,0E0,0E0,0E0,0E0,0E0,0E0,0E0],"parents":[2147483647,0,0,1,1,2,2,3,3,4,4,5,5,6,6,7,7,8,8,9,9,10,10,11,11,12,12,13,13,14,14,15,15,16,16,17,17,18,18,19,19,20,20,21,21,22,22,23,23,24,24,26,26,27,27,28,28,29,29,30,30,31,31,32,32,33,33,34,34,35,35,36,36,37,37,38,38,39,39,40,40,41,41,42,42,43,43,44,44,45,45,46,46,47,47,48,48,50,50,51,51,54,54,55,55,56,56,57,57,58,58,60,60],"right_children":[2,4,6,8,10,12,14,16,18,20,22,24,26,28,30,32,34,36,38,40,42,44,46,48,50,-1,52,54,56,58,60,62,64,66,68,70,72,74,76,78,80,82,84,86,88,90,92,94,96,-1,98,100,-1,-1,102,104,106,108,110,-1,112,-1,-1,-1,-1,-1,-1,-1,-1,-1,-1,-1,-1,-1,-1,-1,-1,-1,-1,-1,-1,-1,-1,-1,-1,-1,-1,-1,-1,-1,-1,-1,-1,-1,-1,-1,-1,-1,-1,-1,-1,-1,-1,-1,-1,-1,-1,-1,-1,-1,-1,-1,-1],"split_conditions":[2E0,2E0,4E0,1E0,2.2E1,1.5E1,8E0,6E0,2.7E1,6E0,2.3E1,1E1,4E0,6E0,1E1,1E0,6.5E1,2E0,8E0,1E0,1.5E1,1E0,2.8E1,7.3E1,1.2E1,-7.511974E-2,8E0,2.5E1,5.5E1,1E0,1.5E1,1E0,1E0,8E0,8E0,1E0,7E0,4.5E1,1E0,9.5E1,1E0,1E1,1.6E1,9E0,2.5E1,1E0,1E0,4.5E1,6.3333335E0,-9.0981595E-2,1E0,4E0,-6.889197E-2,-7.690137E-2,6E0,6E0,1E0,8.5E1,1E0,-7.56439E-2,8E0,-3.5817437E-2,-1.33492965E-2,-5.883178E-2,5.948022E-2,-3.0757058E-2,-8.294588E-3,-1.5120091E-2,-4.277613E-2,-6.123857E-3,-4.228537E-2,-8.428881E-2,3.7344918E-2,6.7654327E-3,-1.6683197E-2,8.982278E-3,4.784236E-2,1.902355E-2,-2.5966922E-2,-2.8924649E-3,1.4034718E-2,-3.5632693E-3,-6.999239E-2,7.872446E-2,2.7881316E-3,5.8628287E-2,3.5184305E-2,5.940878E-2,-1.7203694E-2,-4.075744E-2,6.427757E-3,5.6992646E-2,-1.7255425E-2,4.027154E-2,2.205869E-2,4.674817E-2,-7.9648174E-2,3.3026498E-2,-6.2137824E-2,4.806849E-2,-5.834734E-2,5.314995E-2,3.2095857E-2,8.690863E-3,3.837728E-2,4.7598533E-2,-6.208104E-2,7.332155E-2,4.4253547E-2,5.182944E-2,-2.1825267E-3,-6.0768116E-2,7.1690135E-2],"split_indices":[10,2,10,10,2,2,10,11,5,2,2,2,11,4,2,39,35,8,11,53,2,57,2,5,2,0,63,35,5,57,2,63,14,4,3,12,8,5,62,35,10,2,2,11,5,63,38,35,64,0,0,9,0,0,64,63,50,35,43,0,11,0,0,0,0,0,0,0,0,0,0,0,0,0,0,0,0,0,0,0,0,0,0,0,0,0,0,0,0,0,0,0,0,0,0,0,0,0,0,0,0,0,0,0,0,0,0,0,0,0,0,0,0],"split_type":[0,0,0,0,0,0,0,0,0,0,0,0,0,0,0,0,0,0,0,0,0,0,0,0,0,0,0,0,0,0,0,0,0,0,0,0,0,0,0,0,0,0,0,0,0,0,0,0,0,0,0,0,0,0,0,0,0,0,0,0,0,0,0,0,0,0,0,0,0,0,0,0,0,0,0,0,0,0,0,0,0,0,0,0,0,0,0,0,0,0,0,0,0,0,0,0,0,0,0,0,0,0,0,0,0,0,0,0,0,0,0,0,0],"sum_hessian":[2.8948408E4,2.3110006E4,5.838402E3,1.2911931E4,1.0198076E4,3.9748992E3,1.863503E3,9.833293E3,3.078638E3,9.022673E3,1.175403E3,3.5992754E3,3.7562375E2,1.5439535E3,3.1954947E2,2.5897898E3,7.243503E3,4.566199E2,2.622018E3,4.679223E3,4.34345E3,8.0688617E2,3.6851672E2,3.5134656E3,8.580963E1,2.4935992E0,3.7313016E2,1.0202036E3,5.2374994E2,3.096544E2,9.895063E0,2.2679114E3,3.218784E2,2.558225E3,4.6852773E3,4.1916812E2,3.7451805E1,9.9405835E2,1.6279596E3,2.568411E3,2.1108123E3,3.3876345E3,9.5581573E2,7.528277E2,5.4058495E1,3.07963E2,6.0553696E1,3.2741384E3,2.3932712E2,4.5219105E1,4.059053E1,3.7088272E2,2.247437E0,2.4864657E0,1.01771716E3,2.5457063E2,2.691793E2,2.6941574E2,4.0238667E1,2.4897292E0,7.405335E0,1.9674418E3,3.0046967E2,3.1715485E2,4.7235456E0,2.2759556E3,2.8226965E2,4.436601E3,2.4867651E2,3.423278E2,7.684032E1,3.1974194E1,5.47761E0,5.3368964E2,4.6036874E2,1.5721826E3,5.577702E1,2.46788E3,1.0053103E2,1.4430927E3,6.677195E2,3.0504312E3,3.3720346E2,3.2304405E1,9.235113E2,3.471679E2,4.056598E2,1.1941021E1,4.2117474E1,1.8233995E2,1.2562307E2,5.5826614E1,4.7270823E0,2.6510077E2,3.0090378E3,2.3608412E2,3.242994E0,2.9113216E1,1.1477313E1,3.6963672E2,1.2460004E0,8.722183E2,1.4549884E2,1.1160541E2,1.4296523E2,2.6768405E2,1.4952184E0,2.5682742E2,1.2588302E1,3.6530178E1,3.7084882E0,1.2400458E0,6.165289E0],"tree_param":{"num_deleted":"0","num_feature":"66","num_nodes":"113","size_leaf_vector":"1"}},{"base_weights":[-9.331497E-5,-2.6348683E-1,3.845929E-1,-4.6508616E-1,1.2255691E-2,2.8088424E-1,9.412702E-1,-6.721955E-1,-3.908611E-1,-4.615266E-2,4.2880046E-1,1.49224E-1,4.7744888E-1,6.9076425E-1,1.0914346E0,-6.5564543E-1,-1.5152595E0,-4.485107E-1,-1.872316E-1,1.0608331E-1,-2.0891906E-1,7.8395975E-1,-3.7513128E-1,3.848117E-2,2.6788113E-1,4.511001E-1,1.0053834E0,7.440861E-1,1.2395881E-1,7.1389395E-1,1.1527027E0,-7.53342E-1,-5.2787066E-1,-1.6605631E0,3.176919E-1,-5.831336E-1,-3.7383342E-1,-3.044684E-1,-6.505846E-3,-2.070249E-1,1.8735132E-1,-1.7123662E-1,-7.362034E-1,8.159724E-1,-6.8439686E-1,-7.2057444E-1,1.1581862E0,-8.825948E-2,2.6652026E-1,8.244628E-1,2.2916892E-1,4.7722927E-1,1.06157765E-1,1.0488709E0,-7.066175E-2,5.7682747E-1,8.892897E-1,-8.279636E-2,2.6098135E-1,-3.5304478E-1,8.1362534E-1,1.1839303E0,7.425308E-1,-3.906914E-2,-1.0146151E-2,-2.1673987E-2,-4.59431E-2,-3.9054487E-2,-9.119148E-2,-5.6675952E-2,7.127448E-2,-2.6716147E-2,-5.1438123E-2,-2.0276384E-2,6.3011365E-4,-1.2288918E-2,-3.8241155E-2,-2.3184229E-2,4.3153176E-3,-2.8471753E-2,-2.6855364E-3,7.210474E-3,3.1778064E-2,-2.158529E-2,-3.8294885E-3,-7.06721E-2,-2.5325492E-2,5.247127E-2,3.0585298E-2,6.376245E-2,-8.857338E-2,-5.2494258E-2,-1.8260887E-2,6.367909E-2,-6.5906346E-2,-8.275208E-3,1.4890561E-2,1.4859415E-2,-5.1074732E-2,4.6516765E-2,-5.4094452E-2,9.307938E-3,3.4981605E-2,2.2535127E-2,3.9971072E-2,-8.743611E-2,2.5358377E-2,5.418812E-2,-7.206453E-2,3.1992063E-2,-9.354523E-2,4.537074E-2,-7.2110996E-2,1.8472662E-2,-7.590326E-2,2.3402605E-2,-8.5487776E-2,4.281595E-2,-6.8662055E-2,6.327477E-2,4.807149E-2,-2.461616E-2,4.6663646E-2],"categories":[],"categories_nodes":[],"categories_segments":[],"categories_sizes":[],"default_left":[0,0,0,0,0,0,0,0,0,0,0,0,0,0,0,0,0,0,0,0,0,0,0,0,0,0,0,0,0,0,0,0,0,0,0,0,0,0,0,0,0,0,0,0,0,0,0,0,0,0,0,0,0,0,0,0,0,0,0,0,0,0,0,0,0,0,0,0,0,0,0,0,0,0,0,0,0,0,0,0,0,0,0,0,0,0,0,0,0,0,0,0,0,0,0,0,0,0,0,0,0,0,0,0,0,0,0,0,0,0,0,0,0,0,0,0,0,0,0,0,0,0,0],"id":4,"left_children":[1,3,5,7,9,11,13,15,17,19,21,23,25,27,29,31,33,35,37,39,41,43,45,47,49,51,53,55,57,59,61,63,65,67,69,71,73,75,77,79,81,83,85,87,89,91,93,95,97,99,101,103,105,107,-1,109,111,-1,113,115,117,119,121,-1,-1,-1,-1,-1,-1,-1,-1,-1,-1,-1,-1,-1,-1,-1,-1,-1,-1,-1,-1,-1,-1,-1,-1,-1,-1,-1,-1,-1,-1,-1,-1,-1,-1,-1,-1,-1,-1,-1,-1,-1,-1,-1,-1,-1,-1,-1,-1,-1,-1,-1,-1,-1,-1,-1,-1,-1,-1,-1,-1],"loss_changes":[2.925716E3,9.527833E2,6.772456E2,1.5194067E2,1.7615791E2,2.5597919E2,6.855652E1,3.5434082E1,8.550745E1,1.5737389E2,2.5452637E2,7.786783E1,5.474646E1,2.0860596E1,2.5783813E1,3.1587646E1,1.3711754E1,5.6901123E1,3.4119823E1,8.3549484E1,6.085913E1,2.9603333E1,1.4570438E2,8.8656845E1,6.1453445E1,3.4031494E1,2.1237488E1,1.4871643E1,1.5263061E1,1.765609E1,1.1776245E1,2.221643E1,4.069937E1,5.1843567E0,8.810656E0,4.3505676E1,4.479843E1,2.6202904E1,2.6970314E1,3.7572598E1,5.03024E1,7.061861E1,3.108236E1,2.8216644E1,3.1502703E1,2.5810318E1,1.6158752E1,5.88555E1,4.358824E1,3.8478447E1,5.4022675E1,2.9680298E1,1.9990215E2,1.7642761E1,0E0,4.704059E1,1.5560089E1,0E0,1.162384E1,1.7121216E1,1.5141426E1,1.5415283E1,1.7555313E1,0E0,0E0,0E0,0E0,0E0,0E0,0E0,0E0,0E0,0E0,0E0,0E0,0E0,0E0,0E0,0E0,0E0,0E0,0E0,0E0,0E0,0E0,0E0,0E0,0E0,0E0,0E0,0E0,0E0,0E0,0E0,0E0,0E0,0E0,0E0,0E0,0E0,0E0,0E0,0E0,0E0,0E0,0E0,0E0,0E0,0E0,0E0,0E0,0E0,0E0,0E0,0E0,0E0,0E0,0E0,0E0,0E0,0E0,0E0,0E0],"parents":[2147483647,0,0,1,1,2,2,3,3,4,4,5,5,6,6,7,7,8,8,9,9,10,10,11,11,12,12,13,13,14,14,15,15,16,16,17,17,18,18,19,19,20,20,21,21,22,22,23,23,24,24,25,25,26,26,27,27,28,28,29,29,30,30,31,31,32,32,33,33,34,34,35,35,36,36,37,37,38,38,39,39,40,40,41,41,42,42,43,43,44,44,45,45,46,46,47,47,48,48,49,49,50,50,51,51,52,52,53,53,55,55,56,56,58,58,59,59,60,60,61,61,62,62],"right_children":[2,4,6,8,10,12,14,16,18,20,22,24,26,28,30,32,34,36,38,40,42,44,46,48,50,52,54,56,58,60,62,64,66,68,70,72,74,76,78,80,82,84,86,88,90,92,94,96,98,100,102,104,106,108,-1,110,112,-1,114,116,118,120,122,-1,-1,-1,-1,-1,-1,-1,-1,-1,-1,-1,-1,-1,-1,-1,-1,-1,-1,-1,-1,-1,-1,-1,-1,-1,-1,-1,-1,-1,-1,-1,-1,-1,-1,-1,-1,-1,-1,-1,-1,-1,-1,-1,-1,-1,-1,-1,-1,-1,-1,-1,-1,-1,-1,-1,-1,-1,-1,-1,-1],"split_conditions":[1E0,2E0,4E0,6E0,2.2E1,2E0,5E0,9.5E0,6E0,6E0,2.3E1,2E0,2E1,6E0,6E0,1E0,7E0,6.5E1,7.5E1,1E0,7.2E1,1E0,2.8E1,1.8E1,3E0,9E0,8E0,1E0,1.4E1,1.5833334E0,8.5E1,8E0,1E0,3E0,3.7E1,1E0,1E0,1E0,1E0,1.1E1,5E0,7E0,6E0,9E0,1E1,9E0,1E0,1E0,1.3E1,2.6E1,2E1,7.2E1,1.2E1,9.5E1,-7.066175E-2,1.1E1,1E0,-8.279636E-2,9E0,1E1,7.2E1,2.1E1,9E0,-3.906914E-2,-1.0146151E-2,-2.1673987E-2,-4.59431E-2,-3.9054487E-2,-9.119148E-2,-5.6675952E-2,7.127448E-2,-2.6716147E-2,-5.1438123E-2,-2.0276384E-2,6.3011365E-4,-1.2288918E-2,-3.8241155E-2,-2.3184229E-2,4.3153176E-3,-2.8471753E-2,-2.6855364E-3,7.210474E-3,3.1778064E-2,-2.158529E-2,-3.8294885E-3,-7.06721E-2,-2.5325492E-2,5.247127E-2,3.0585298E-2,6.376245E-2,-8.857338E-2,-5.2494258E-2,-1.8260887E-2,6.367909E-2,-6.5906346E-2,-8.275208E-3,1.4890561E-2,1.4859415E-2,-5.1074732E-2,4.6516765E-2,-5.4094452E-2,9.307938E-3,3.4981605E-2,2.2535127E-2,3.9971072E-2,-8.743611E-2,2.5358377E-2,5.418812E-2,-7.206453E-2,3.1992063E-2,-9.354523E-2,4.537074E-2,-7.2110996E-2,1.8472662E-2,-7.590326E-2,2.3402605E-2,-8.5487776E-2,4.281595E-2,-6.8662055E-2,6.327477E-2,4.807149E-2,-2.461616E-2,4.6663646E-2],"split_indices":[10,2,10,11,2,10,10,64,4,2,2,2,2,64,63,33,1,35,35,34,5,52,2,7,2,2,63,33,7,64,35,4,18,1,5,44,9,43,49,7,2,11,4,11,7,11,38,9,4,7,2,5,2,35,0,63,46,0,63,7,5,7,11,0,0,0,0,0,0,0,0,0,0,0,0,0,0,0,0,0,0,0,0,0,0,0,0,0,0,0,0,0,0,0,0,0,0,0,0,0,0,0,0,0,0,0,0,0,0,0,0,0,0,0,0,0,0,0,0,0,0,0,0],"split_type":[0,0,0,0,0,0,0,0,0,0,0,0,0,0,0,0,0,0,0,0,0,0,0,0,0,0,0,0,0,0,0,0,0,0,0,0,0,0,0,0,0,0,0,0,0,0,0,0,0,0,0,0,0,0,0,0,0,0,0,0,0,0,0,0,0,0,0,0,0,0,0,0,0,0,0,0,0,0,0,0,0,0,0,0,0,0,0,0,0,0,0,0,0,0,0,0,0,0,0,0,0,0,0,0,0,0,0,0,0,0,0,0,0,0,0,0,0,0,0,0,0,0,0],"sum_hessian":[2.8872898E4,1.713852E4,1.1734379E4,9.899885E3,7.2386357E3,9.892851E3,1.8415282E3,2.6097834E3,7.290101E3,6.349229E3,8.8940643E2,5.925604E3,3.9672466E3,6.9227216E2,1.149256E3,2.561281E3,4.8502377E1,5.680648E3,1.6094529E3,3.280921E3,3.068308E3,6.168989E2,2.7250748E2,3.0657036E3,2.8599001E3,3.7804233E3,1.8682329E2,6.3246106E2,5.981114E1,1.6222984E2,9.870262E2,1.4487057E3,1.1125754E3,4.5026997E1,3.4753792E0,2.0243983E3,3.6562498E3,9.7577985E2,6.336731E2,6.757713E2,2.6051497E3,2.864893E3,2.0341519E2,6.041713E2,1.2727646E1,2.228348E2,4.967269E1,1.9709131E3,1.0947904E3,1.846606E2,2.6752397E3,3.5138667E3,2.6655658E2,1.840798E2,2.7434776E0,2.9622034E2,3.362407E2,3.4829886E0,5.6328148E1,1.3650894E1,1.4857895E2,9.154443E2,7.158191E1,1.3780806E3,7.0625084E1,8.979146E2,2.146608E2,7.9557233E0,3.7071274E1,1.4944444E0,1.9809349E0,1.8265333E3,1.9786502E2,3.37906E3,2.7718954E2,8.668057E2,1.0897408E2,1.0625942E2,5.2741364E2,2.0008595E2,4.7568533E2,2.3776172E3,2.2753252E2,7.62613E2,2.10228E3,5.021259E1,1.532026E2,2.8001218E2,3.2415915E2,4.4794693E0,8.248177E0,1.1464151E2,1.0819329E2,4.792509E1,1.7476038E0,1.6427954E3,3.2811774E2,1.0700808E3,2.4709675E1,1.7542978E2,9.230809E0,2.452432E3,2.2280789E2,3.2487861E3,2.6508063E2,4.6786003E1,2.1977057E2,1.8209315E2,1.9866606E0,2.8950598E2,6.7143664E0,3.3425302E2,1.9876732E0,5.383788E1,2.4902687E0,8.912162E0,4.738733E0,1.463306E2,2.2483523E0,6.664477E2,2.4899657E2,9.365976E0,6.221593E1],"tree_param":{"num_deleted":"0","num_feature":"66","num_nodes":"123","size_leaf_vector":"1"}},{"base_weights":[-2.3875784E-3,-1.5030995E-1,5.843138E-1,-3.449732E-1,9.632725E-2,4.7661507E-1,1.0251068E0,-4.5776686E-1,1.6432717E-2,5.2591976E-2,4.5527294E-1,4.5388374E-1,9.5067495E-1,9.2656165E-1,1.2373317E0,-5.7719266E-1,-2.8919756E-1,7.36277E-2,-5.5448437E-1,2.1742333E-1,-1.281047E-1,7.5508106E-1,-1.7627443E-1,3.6900485E-1,5.668117E-1,1.5343275E0,8.418616E-1,9.748554E-1,5.618584E-1,1.254115E0,4.6948296E-1,-7.6792186E-1,-5.191957E-1,-3.5479304E-1,-9.1200314E-2,1.0295918E-1,-5.138651E-1,1.1948958E-1,-9.0489036E-1,3.6341077E-1,3.8518928E-2,-3.7794262E-2,-3.5063103E-1,8.1852174E-1,-1.4267771E-1,-4.1334307E-1,1.0182763E0,-5.356474E-2,4.0903255E-1,5.915631E-1,2.1200182E-1,3.5786167E-2,1.5780693E0,1.0371906E0,4.774734E-1,1.0878903E0,7.1608937E-1,6.6912216E-1,-8.709067E-2,7.031484E-1,1.2771777E0,9.969248E-1,-6.927973E-2,-2.7758E-2,-4.5739986E-2,-2.6865784E-2,1.197083E-2,-1.6915828E-2,-4.6498425E-2,-8.5737295E-2,-3.7706157E-3,3.6410813E-3,2.8460493E-2,-1.8306132E-2,-9.092812E-2,-6.1723113E-2,1.7922392E-2,-3.775988E-2,-9.414078E-2,1.974861E-2,-2.1013863E-2,-1.8603368E-2,6.051853E-3,-1.0649471E-2,3.8339742E-3,-8.837553E-2,-3.2165726E-3,4.332805E-2,-1.3765312E-2,-3.8003348E-2,4.2933766E-2,-3.0352797E-3,-3.8333815E-2,5.494196E-2,-6.276447E-2,-1.2451662E-2,3.4725513E-2,4.324947E-2,1.8726395E-2,1.19203E-2,3.0720681E-2,-5.5394586E-2,2.1132126E-2,8.1378035E-2,3.6712065E-2,5.9145927E-2,7.678237E-3,3.142162E-2,-8.603708E-2,2.2004178E-2,5.642816E-2,-5.0738703E-2,3.9054055E-2,3.6289923E-2,-7.0837006E-2,5.5850662E-2,-7.697553E-2,6.43969E-2,2.5891555E-2,5.971815E-2,2.2508806E-2],"categories":[],"categories_nodes":[],"categories_segments":[],"categories_sizes":[],"default_left":[0,0,0,0,0,0,0,0,0,0,0,0,0,0,0,0,0,0,0,0,0,0,0,0,0,0,0,0,0,0,0,0,0,0,0,0,0,0,0,0,0,0,0,0,0,0,0,0,0,0,0,0,0,0,0,0,0,0,0,0,0,0,0,0,0,0,0,0,0,0,0,0,0,0,0,0,0,0,0,0,0,0,0,0,0,0,0,0,0,0,0,0,0,0,0,0,0,0,0,0,0,0,0,0,0,0,0,0,0,0,0,0,0,0,0,0,0,0,0,0,0],"id":5,"left_children":[1,3,5,7,9,11,13,15,17,19,21,23,25,27,29,31,33,35,37,39,41,43,45,47,49,51,53,55,57,59,61,63,65,67,69,71,73,75,77,79,81,83,85,87,89,91,93,95,97,99,101,-1,103,105,107,109,111,113,-1,115,117,119,-1,-1,-1,-1,-1,-1,-1,-1,-1,-1,-1,-1,-1,-1,-1,-1,-1,-1,-1,-1,-1,-1,-1,-1,-1,-1,-1,-1,-1,-1,-1,-1,-1,-1,-1,-1,-1,-1,-1,-1,-1,-1,-1,-1,-1,-1,-1,-1,-1,-1,-1,-1,-1,-1,-1,-1,-1,-1,-1],"loss_changes":[2.50429E3,1.1064739E3,2.7534534E2,5.250532E2,1.595747E2,4.9906982E1,2.2695557E1,1.974524E2,1.00111885E2,2.6997598E2,2.0917688E2,4.253595E1,1.222493E1,1.3234375E1,4.031433E0,6.314795E1,5.2862427E1,4.806908E1,6.604E1,1.2378801E2,8.688869E1,4.276651E1,1.01296036E2,4.3133514E1,1.666333E1,2.4536133E-2,1.2430344E1,1.939264E1,2.435886E1,3.5526123E0,1.0448641E1,4.1287354E1,6.0725098E1,2.8673523E1,2.5883556E1,3.7262596E1,2.4907406E1,3.1625303E1,2.5483856E1,6.472455E1,7.224711E1,6.1726955E1,5.0622592E2,3.699826E1,3.1734589E1,3.7075645E1,1.2236465E1,3.2551163E1,3.6307495E1,1.4270081E1,3.556095E1,0E0,4.7966003E-2,1.4932426E1,2.2726627E1,1.209906E1,2.4707237E1,1.171627E1,0E0,1.6845768E1,2.0698242E0,3.0401325E-1,0E0,0E0,0E0,0E0,0E0,0E0,0E0,0E0,0E0,0E0,0E0,0E0,0E0,0E0,0E0,0E0,0E0,0E0,0E0,0E0,0E0,0E0,0E0,0E0,0E0,0E0,0E0,0E0,0E0,0E0,0E0,0E0,0E0,0E0,0E0,0E0,0E0,0E0,0E0,0E0,0E0,0E0,0E0,0E0,0E0,0E0,0E0,0E0,0E0,0E0,0E0,0E0,0E0,0E0,0E0,0E0,0E0,0E0,0E0],"parents":[2147483647,0,0,1,1,2,2,3,3,4,4,5,5,6,6,7,7,8,8,9,9,10,10,11,11,12,12,13,13,14,14,15,15,16,16,17,17,18,18,19,19,20,20,21,21,22,22,23,23,24,24,25,25,26,26,27,27,28,28,29,29,30,30,31,31,32,32,33,33,34,34,35,35,36,36,37,37,38,38,39,39,40,40,41,41,42,42,43,43,44,44,45,45,46,46,47,47,48,48,49,49,50,50,52,52,53,53,54,54,55,55,56,56,57,57,59,59,60,60,61,61],"right_children":[2,4,6,8,10,12,14,16,18,20,22,24,26,28,30,32,34,36,38,40,42,44,46,48,50,52,54,56,58,60,62,64,66,68,70,72,74,76,78,80,82,84,86,88,90,92,94,96,98,100,102,-1,104,106,108,110,112,114,-1,116,118,120,-1,-1,-1,-1,-1,-1,-1,-1,-1,-1,-1,-1,-1,-1,-1,-1,-1,-1,-1,-1,-1,-1,-1,-1,-1,-1,-1,-1,-1,-1,-1,-1,-1,-1,-1,-1,-1,-1,-1,-1,-1,-1,-1,-1,-1,-1,-1,-1,-1,-1,-1,-1,-1,-1,-1,-1,-1,-1,-1],"split_conditions":[2E0,2E0,5E0,1E0,2.2E1,2E1,1.1E1,9E0,1E0,6E0,2.3E1,3E0,1.7E1,8.5E1,5E0,1E0,6.1E1,1E0,2.2666667E0,1E0,1E1,1E0,2.8E1,2E0,6.4E0,1.6923077E0,2.3E1,2E1,7E0,4E0,2.2E1,2.2666667E0,4E0,8.571428E0,1.1111112E0,2E0,1E0,2.8E1,6.076923E0,9.5E1,1E0,9E0,1.2E1,1E0,5.3E1,4E1,1E0,1E0,4.5E1,1.3333334E0,1.6E1,3.5786167E-2,5.5454545E0,1E0,1E0,5E0,2.7E1,2.7E1,-8.709067E-2,1E0,1E0,6E0,-6.927973E-2,-2.7758E-2,-4.5739986E-2,-2.6865784E-2,1.197083E-2,-1.6915828E-2,-4.6498425E-2,-8.5737295E-2,-3.7706157E-3,3.6410813E-3,2.8460493E-2,-1.8306132E-2,-9.092812E-2,-6.1723113E-2,1.7922392E-2,-3.775988E-2,-9.414078E-2,1.974861E-2,-2.1013863E-2,-1.8603368E-2,6.051853E-3,-1.0649471E-2,3.8339742E-3,-8.837553E-2,-3.2165726E-3,4.332805E-2,-1.3765312E-2,-3.8003348E-2,4.2933766E-2,-3.0352797E-3,-3.8333815E-2,5.494196E-2,-6.276447E-2,-1.2451662E-2,3.4725513E-2,4.324947E-2,1.8726395E-2,1.19203E-2,3.0720681E-2,-5.5394586E-2,2.1132126E-2,8.1378035E-2,3.6712065E-2,5.9145927E-2,7.678237E-3,3.142162E-2,-8.603708E-2,2.2004178E-2,5.642816E-2,-5.0738703E-2,3.9054055E-2,3.6289923E-2,-7.0837006E-2,5.5850662E-2,-7.697553E-2,6.43969E-2,2.5891555E-2,5.971815E-2,2.2508806E-2],"split_indices":[10,2,10,10,2,2,63,11,44,2,2,10,5,35,6,34,5,40,64,53,2,57,2,4,64,64,2,7,2,5,7,64,63,64,64,9,37,5,64,35,34,11,2,60,5,5,18,57,35,64,7,0,64,9,12,11,5,7,0,8,22,4,0,0,0,0,0,0,0,0,0,0,0,0,0,0,0,0,0,0,0,0,0,0,0,0,0,0,0,0,0,0,0,0,0,0,0,0,0,0,0,0,0,0,0,0,0,0,0,0,0,0,0,0,0,0,0,0,0,0,0],"split_type":[0,0,0,0,0,0,0,0,0,0,0,0,0,0,0,0,0,0,0,0,0,0,0,0,0,0,0,0,0,0,0,0,0,0,0,0,0,0,0,0,0,0,0,0,0,0,0,0,0,0,0,0,0,0,0,0,0,0,0,0,0,0,0,0,0,0,0,0,0,0,0,0,0,0,0,0,0,0,0,0,0,0,0,0,0,0,0,0,0,0,0,0,0,0,0,0,0,0,0,0,0,0,0,0,0,0,0,0,0,0,0,0,0,0,0,0,0,0,0,0,0],"sum_hessian":[2.8853824E4,2.304447E4,5.8093545E3,1.2879038E4,1.0165433E4,4.670335E3,1.1390195E3,9.815412E3,3.0636265E3,9.062384E3,1.103048E3,4.4585054E3,2.1182947E2,7.815012E2,3.575183E2,5.743739E3,4.0716729E3,2.7854487E3,2.7817773E2,4.7391406E3,4.3232437E3,7.4783856E2,3.552094E2,2.5477976E3,1.9107079E3,3.1228043E1,1.8060143E2,6.886391E2,9.28621E1,3.4925125E2,8.267054E0,1.3364475E3,4.4072915E3,3.0578354E3,1.0138374E3,2.6537795E3,1.3166924E2,9.538069E1,1.8279703E2,2.6090796E3,2.1300613E3,3.0760317E3,1.2472118E3,6.9856244E2,4.9276127E1,2.969343E2,5.827513E1,2.2042717E2,2.3273706E3,1.7854857E3,1.2522219E2,2.4647124E0,2.876333E1,1.1637349E2,6.4227936E1,4.7704907E2,2.1159004E2,8.9408585E1,3.4535089E0,1.5296924E1,3.339543E2,6.7970815E0,1.4699724E0,5.477608E2,7.886867E2,4.304761E3,1.0253032E2,2.974224E3,8.3611435E1,8.72764E0,1.00510974E3,2.4937449E3,1.6003468E2,1.1942617E2,1.2243072E1,1.3683446E1,8.169724E1,1.6006746E2,2.2729572E1,2.5085488E3,1.0053062E2,3.5586606E2,1.7741952E3,1.2152715E3,1.8607601E3,2.0878308E2,1.0384287E3,6.693724E2,2.9190035E1,3.063124E1,1.8644884E1,1.4919994E2,1.4773434E2,5.6779854E1,1.4952788E0,1.7529143E2,4.513573E1,1.620405E2,2.16533E3,1.0920128E2,1.6762844E3,1.6647547E1,1.0857464E2,2.6292467E1,2.4708622E0,9.960747E1,1.6766022E1,6.076885E1,3.4590893E0,2.8880636E1,4.4816843E2,7.128534E0,2.0446152E2,8.767826E1,1.7303226E0,1.3337517E1,1.9594073E0,3.286018E2,5.3525257E0,4.1235356E0,2.6735458E0],"tree_param":{"num_deleted":"0","num_feature":"66","num_nodes":"121","size_leaf_vector":"1"}},{"base_weights":[3.1834624E-3,-2.2669461E-1,3.4255266E-1,-4.1224074E-1,2.2070333E-2,2.4337669E-1,8.7266594E-1,-5.820327E-1,-3.1057096E-1,-3.5897437E-2,4.1708902E-1,1.3489208E-1,4.0584645E-1,8.0262285E-1,1.2051115E0,-6.8893474E-1,-4.4637612E-1,-3.657734E-1,-4.526422E-2,1.3237254E-1,-2.1954674E-1,7.4906725E-1,-3.9452118E-1,2.1301266E-2,2.5859493E-1,4.4941926E-1,9.478778E-2,8.774339E-1,6.514452E-1,1.2667745E0,8.2894975E-1,-7.4417657E-1,-4.868333E-1,-7.852313E-1,-3.6309016E-1,-1.1197032E0,-3.4879443E-1,-3.011356E-2,-8.585319E-2,2.7842262E-1,-5.8113802E-2,-1.8653353E-1,-7.32106E-1,6.7268556E-1,1.3077241E0,-6.3432235E-1,8.977521E-1,-1.7050748E-1,1.3844764E-1,8.232414E-1,2.1681367E-1,4.134858E-1,7.958343E-1,1.13515146E-1,-8.611682E-2,7.8242344E-1,1.0149447E0,6.6944593E-1,-8.195164E-2,1.2932817E0,6.859245E-1,9.623509E-1,-7.44008E-2,-4.3178868E-2,-3.2233622E-2,7.6101953E-3,-2.8931767E-2,-4.610464E-2,1.367092E-2,-2.0586377E-2,4.750156E-3,-6.1598927E-2,4.4948608E-2,-2.3418622E-2,-1.43096E-2,1.0372027E-3,-2.0869045E-2,4.2797416E-3,2.0737648E-2,-4.4473466E-2,-9.045107E-4,-1.9002516E-2,-5.752729E-3,-3.1168712E-2,-8.872882E-2,4.330358E-2,2.5570406E-2,-7.0275344E-2,6.934282E-2,-2.4983203E-2,-8.900398E-2,-7.217204E-2,5.2297413E-2,-6.411905E-3,-4.6224043E-2,1.1291129E-3,1.4583913E-2,4.6683412E-2,-8.811239E-2,1.0352186E-2,6.955727E-2,2.266329E-2,-5.7474434E-2,2.8778732E-2,5.360934E-2,3.4948685E-3,4.349124E-2,4.7511272E-2,3.0546341E-2,5.287927E-2,1.2251936E-2,3.5625044E-2,-1.0174842E-2,6.522942E-2,1.1059932E-2,-7.620811E-2,6.1939407E-2,5.392877E-2,8.684983E-3],"categories":[],"categories_nodes":[],"categories_segments":[],"categories_sizes":[],"default_left":[0,0,0,0,0,0,0,0,0,0,0,0,0,0,0,0,0,0,0,0,0,0,0,0,0,0,0,0,0,0,0,0,0,0,0,0,0,0,0,0,0,0,0,0,0,0,0,0,0,0,0,0,0,0,0,0,0,0,0,0,0,0,0,0,0,0,0,0,0,0,0,0,0,0,0,0,0,0,0,0,0,0,0,0,0,0,0,0,0,0,0,0,0,0,0,0,0,0,0,0,0,0,0,0,0,0,0,0,0,0,0,0,0,0,0,0,0,0,0],"id":6,"left_children":[1,3,5,7,9,11,13,15,17,19,21,23,25,27,29,31,33,35,37,39,41,43,45,47,49,51,53,55,57,59,61,63,65,67,69,71,73,75,-1,77,79,81,83,85,87,89,91,93,95,97,99,101,103,105,-1,107,109,111,-1,113,115,117,-1,-1,-1,-1,-1,-1,-1,-1,-1,-1,-1,-1,-1,-1,-1,-1,-1,-1,-1,-1,-1,-1,-1,-1,-1,-1,-1,-1,-1,-1,-1,-1,-1,-1,-1,-1,-1,-1,-1,-1,-1,-1,-1,-1,-1,-1,-1,-1,-1,-1,-1,-1,-1,-1,-1,-1,-1],"loss_changes":[2.2400752E3,7.901514E2,6.094147E2,1.6908276E2,1.6749994E2,1.7213599E2,4.1576904E1,5.293152E1,8.983411E1,1.9716356E2,2.5250815E2,8.2328514E1,5.29657E1,1.6529907E1,6.278656E0,2.2539856E1,4.5457367E1,6.461542E1,2.674106E1,9.2647964E1,5.1483154E1,2.7483002E1,8.498081E1,6.868335E1,6.599101E1,4.2369446E1,1.6591177E1,1.2383911E1,2.189569E1,3.2633972E0,1.6080528E1,1.8560852E1,2.609047E1,4.6459564E1,2.9068298E1,2.6354538E1,3.7054504E1,2.0675402E1,0E0,4.9512695E1,4.8091705E1,3.9618378E1,1.9778748E1,1.785846E1,1.8886765E1,3.4649277E1,1.6445889E1,3.68207E1,3.3683598E1,5.6715332E1,2.9690262E1,1.9387885E2,1.8939575E1,1.5701933E1,0E0,1.671109E1,1.3160828E1,1.8983261E1,0E0,2.8226929E0,1.8865162E1,3.975891E0,0E0,0E0,0E0,0E0,0E0,0E0,0E0,0E0,0E0,0E0,0E0,0E0,0E0,0E0,0E0,0E0,0E0,0E0,0E0,0E0,0E0,0E0,0E0,0E0,0E0,0E0,0E0,0E0,0E0,0E0,0E0,0E0,0E0,0E0,0E0,0E0,0E0,0E0,0E0,0E0,0E0,0E0,0E0,0E0,0E0,0E0,0E0,0E0,0E0,0E0,0E0,0E0,0E0,0E0,0E0,0E0,0E0],"parents":[2147483647,0,0,1,1,2,2,3,3,4,4,5,5,6,6,7,7,8,8,9,9,10,10,11,11,12,12,13,13,14,14,15,15,16,16,17,17,18,18,19,19,20,20,21,21,22,22,23,23,24,24,25,25,26,26,27,27,28,28,29,29,30,30,31,31,32,32,33,33,34,34,35,35,36,36,37,37,39,39,40,40,41,41,42,42,43,43,44,44,45,45,46,46,47,47,48,48,49,49,50,50,51,51,52,52,53,53,55,55,56,56,57,57,59,59,60,60,61,61],"right_children":[2,4,6,8,10,12,14,16,18,20,22,24,26,28,30,32,34,36,38,40,42,44,46,48,50,52,54,56,58,60,62,64,66,68,70,72,74,76,-1,78,80,82,84,86,88,90,92,94,96,98,100,102,104,106,-1,108,110,112,-1,114,116,118,-1,-1,-1,-1,-1,-1,-1,-1,-1,-1,-1,-1,-1,-1,-1,-1,-1,-1,-1,-1,-1,-1,-1,-1,-1,-1,-1,-1,-1,-1,-1,-1,-1,-1,-1,-1,-1,-1,-1,-1,-1,-1,-1,-1,-1,-1,-1,-1,-1,-1,-1,-1,-1,-1,-1,-1,-1],"split_conditions":[1E0,2E0,4E0,7E0,2.2E1,2E0,8E0,1E0,7E0,6E0,2.3E1,2E0,1E0,6E0,1E0,1E0,9E0,5E0,1E0,1E0,7.3E1,1E0,2.8E1,8E0,3E0,1.5E1,1E0,4E0,1E0,1E1,2.4E1,3.9E1,1E1,1E0,8.5E1,9.5E1,6.5E1,1.2E1,-8.585319E-2,5E0,9E0,7E0,4E0,9E0,1E0,1E0,8E0,1E0,1.8E1,2.6E1,1E0,1E1,2E1,1.9E1,-8.611682E-2,6.5E1,8E0,5E0,-8.195164E-2,2E1,1.7E1,5.7E1,-7.44008E-2,-4.3178868E-2,-3.2233622E-2,7.6101953E-3,-2.8931767E-2,-4.610464E-2,1.367092E-2,-2.0586377E-2,4.750156E-3,-6.1598927E-2,4.4948608E-2,-2.3418622E-2,-1.43096E-2,1.0372027E-3,-2.0869045E-2,4.2797416E-3,2.0737648E-2,-4.4473466E-2,-9.045107E-4,-1.9002516E-2,-5.752729E-3,-3.1168712E-2,-8.872882E-2,4.330358E-2,2.5570406E-2,-7.0275344E-2,6.934282E-2,-2.4983203E-2,-8.900398E-2,-7.217204E-2,5.2297413E-2,-6.411905E-3,-4.6224043E-2,1.1291129E-3,1.4583913E-2,4.6683412E-2,-8.811239E-2,1.0352186E-2,6.955727E-2,2.266329E-2,-5.7474434E-2,2.8778732E-2,5.360934E-2,3.4948685E-3,4.349124E-2,4.7511272E-2,3.0546341E-2,5.287927E-2,1.2251936E-2,3.5625044E-2,-1.0174842E-2,6.522942E-2,1.1059932E-2,-7.620811E-2,6.1939407E-2,5.392877E-2,8.684983E-3],"split_indices":[10,2,10,11,2,10,10,33,4,2,2,2,12,4,57,53,7,7,40,53,5,54,2,11,2,2,50,4,50,2,7,5,5,9,35,35,35,4,0,4,5,11,1,11,49,53,7,21,7,7,48,2,7,2,0,35,2,6,0,9,7,5,0,0,0,0,0,0,0,0,0,0,0,0,0,0,0,0,0,0,0,0,0,0,0,0,0,0,0,0,0,0,0,0,0,0,0,0,0,0,0,0,0,0,0,0,0,0,0,0,0,0,0,0,0,0,0,0,0],"split_type":[0,0,0,0,0,0,0,0,0,0,0,0,0,0,0,0,0,0,0,0,0,0,0,0,0,0,0,0,0,0,0,0,0,0,0,0,0,0,0,0,0,0,0,0,0,0,0,0,0,0,0,0,0,0,0,0,0,0,0,0,0,0,0,0,0,0,0,0,0,0,0,0,0,0,0,0,0,0,0,0,0,0,0,0,0,0,0,0,0,0,0,0,0,0,0,0,0,0,0,0,0,0,0,0,0,0,0,0,0,0,0,0,0,0,0,0,0,0,0],"sum_hessian":[2.8711934E4,1.7117443E4,1.1594488E4,9.804163E3,7.313281E3,9.768427E3,1.8260623E3,3.6701558E3,6.1340073E3,6.378208E3,9.350731E2,5.858445E3,3.9099814E3,1.5111017E3,3.149605E2,2.0503389E3,1.619817E3,5.077212E3,1.0567958E3,3.3286177E3,3.0495903E3,6.636806E2,2.7139255E2,3.0546594E3,2.8037856E3,3.4291804E3,4.808011E2,1.0076544E3,5.0344724E2,2.6856744E2,4.6393074E1,1.6081027E3,4.4223605E2,3.179175E2,1.3018995E3,1.1039327E2,4.9668184E3,1.0483135E3,8.482313E0,1.8838027E3,1.4448148E3,2.8663376E3,1.8325275E2,5.857929E2,7.78877E1,2.2934348E2,4.204906E1,1.1580612E3,1.8965981E3,1.918847E2,2.611901E3,3.1088904E3,3.202901E2,4.7682446E2,3.976644E0,5.998735E2,4.0778098E2,5.0022375E2,3.223492E0,2.556732E2,1.2894242E1,4.4420197E1,1.9728786E0,7.274797E2,8.8062305E2,5.5467407E1,3.8676865E2,2.816367E2,3.628082E1,1.1770312E3,1.24868286E2,1.0494605E2,5.4472175E0,1.7045143E3,3.2623042E3,9.274616E2,1.2085182E2,7.809054E2,1.1028973E3,6.538741E1,1.3794275E3,7.7199066E2,2.094347E3,1.6739146E2,1.5861282E1,2.6439255E2,3.2140033E2,1.7322446E0,7.615546E1,2.0650903E2,2.283445E1,1.9829226E0,4.006614E1,1.0976923E3,6.0368904E1,1.080628E3,8.1597003E2,1.8463768E2,7.247031E0,2.5915168E3,2.0384068E1,3.0324207E3,7.6469574E1,1.7994908E2,1.4034102E2,4.5185742E2,2.4967037E1,3.0090768E2,2.9896576E2,3.860275E2,2.1753473E1,4.768867E2,2.3337051E1,2.527903E2,2.882908E0,2.2285812E0,1.0665661E1,3.839436E1,6.0258384E0],"tree_param":{"num_deleted":"0","num_feature":"66","num_nodes":"119","size_leaf_vector":"1"}},{"base_weights":[8.2437217E-4,-1.3688786E-1,5.45763E-1,-3.0571565E-1,7.6821335E-2,4.176887E-1,8.298883E-1,-3.9731053E-1,-5.0196345E-3,2.7046302E-2,4.6492127E-1,3.9274046E-1,9.217174E-1,7.6937765E-1,1.1266776E0,-6.0069567E-1,-3.252867E-1,-2.9457768E-2,7.235931E-1,1.8072803E-1,-1.4275894E-1,7.217982E-1,-9.1805324E-2,4.248401E-1,1.6533715E-1,9.734226E-1,-6.252796E-1,3.345222E-1,7.970471E-1,1.1804354E0,7.901323E-1,-1.1058894E0,-5.655176E-1,-5.0202227E-1,-2.754058E-1,-1.2255616E-1,1.4330563E-1,8.768489E-1,-8.762086E-2,1.3700667E-1,6.228076E-1,-2.1177426E-1,1.0456243E-1,7.546866E-1,-9.125795E-1,-3.145911E-1,9.751207E-1,4.4852224E-1,1.16162546E-1,2.1914205E-1,-6.777178E-1,1.030301E0,1.8173428E-1,-7.9306744E-2,5.6738406E-2,9.1377795E-1,7.831056E-2,8.681716E-1,6.5989465E-1,1.13816E0,7.5588346E-2,9.0995187E-1,-6.881888E-2,-8.610402E-2,-4.6487793E-2,-2.936155E-2,6.989864E-3,-2.6564864E-2,2.7743567E-2,-1.0113374E-2,-2.4290029E-2,-3.5063743E-3,-2.731509E-2,-7.903389E-3,1.3252887E-2,-2.5430163E-2,4.8528284E-2,2.351689E-3,1.7492397E-2,4.95684E-3,3.762993E-2,-4.20333E-3,-6.772805E-2,6.737032E-2,2.9751984E-3,4.073222E-2,-9.584446E-3,4.407998E-2,-9.005554E-2,-1.0014075E-2,-5.8066268E-2,-1.2806425E-3,5.8800247E-2,1.9024385E-2,2.6475817E-2,-8.267612E-2,2.5145663E-2,1.2094039E-2,-8.682545E-2,7.323667E-2,-5.4051097E-2,5.671066E-2,1.8359052E-2,4.9025856E-2,-3.925604E-2,5.4250926E-2,-6.3176386E-2,-1.706219E-2,5.5162814E-2,4.3701317E-2,-7.159988E-2,3.373118E-2,-7.858797E-2,6.560756E-2,5.0282836E-2,-4.8267306E-3,4.9884316E-2],"categories":[],"categories_nodes":[],"categories_segments":[],"categories_sizes":[],"default_left":[0,0,0,0,0,0,0,0,0,0,0,0,0,0,0,0,0,0,0,0,0,0,0,0,0,0,0,0,0,0,0,0,0,0,0,0,0,0,0,0,0,0,0,0,0,0,0,0,0,0,0,0,0,0,0,0,0,0,0,0,0,0,0,0,0,0,0,0,0,0,0,0,0,0,0,0,0,0,0,0,0,0,0,0,0,0,0,0,0,0,0,0,0,0,0,0,0,0,0,0,0,0,0,0,0,0,0,0,0,0,0,0,0,0,0,0,0],"id":7,"left_children":[1,3,5,7,9,11,13,15,17,19,21,23,25,27,29,31,33,35,37,39,41,43,45,47,49,51,53,55,57,59,61,63,65,67,69,71,73,75,-1,77,79,81,83,85,87,89,91,93,95,97,99,101,103,-1,-1,105,107,109,111,113,-1,115,-1,-1,-1,-1,-1,-1,-1,-1,-1,-1,-1,-1,-1,-1,-1,-1,-1,-1,-1,-1,-1,-1,-1,-1,-1,-1,-1,-1,-1,-1,-1,-1,-1,-1,-1,-1,-1,-1,-1,-1,-1,-1,-1,-1,-1,-1,-1,-1,-1,-1,-1,-1,-1,-1,-1],"loss_changes":[2.1510366E3,8.2557434E2,2.100669E2,3.5207068E2,1.9507819E2,4.978192E1,3.1380127E1,1.433363E2,5.3184196E1,2.3364038E2,1.6423355E2,2.7678162E1,1.5592804E1,1.7717468E1,4.5300293E0,4.4892273E1,6.3670837E1,4.649632E1,3.8318314E1,9.075021E1,7.262541E1,4.2917297E1,8.6667336E1,2.4294495E1,2.1552067E1,7.9930267E0,1.3075678E1,1.3454391E1,1.3128113E1,1.8978271E0,1.2833263E1,1.63815E1,3.6784607E1,4.955133E1,8.6799194E1,4.1692337E1,3.7189087E1,1.2432121E1,0E0,8.190573E1,2.8653687E1,4.8527124E2,5.1925552E1,4.3885895E1,2.7014624E1,2.8932026E1,1.2696064E1,1.684137E1,1.6417981E2,2.0177721E1,2.6254108E1,1.1247437E1,1.1111645E1,0E0,0E0,1.1756624E1,2.8019234E1,1.3664551E1,1.696283E1,4.0554504E0,0E0,3.8824043E0,0E0,0E0,0E0,0E0,0E0,0E0,0E0,0E0,0E0,0E0,0E0,0E0,0E0,0E0,0E0,0E0,0E0,0E0,0E0,0E0,0E0,0E0,0E0,0E0,0E0,0E0,0E0,0E0,0E0,0E0,0E0,0E0,0E0,0E0,0E0,0E0,0E0,0E0,0E0,0E0,0E0,0E0,0E0,0E0,0E0,0E0,0E0,0E0,0E0,0E0,0E0,0E0,0E0,0E0,0E0],"parents":[2147483647,0,0,1,1,2,2,3,3,4,4,5,5,6,6,7,7,8,8,9,9,10,10,11,11,12,12,13,13,14,14,15,15,16,16,17,17,18,18,19,19,20,20,21,21,22,22,23,23,24,24,25,25,26,26,27,27,28,28,29,29,30,30,31,31,32,32,33,33,34,34,35,35,36,36,37,37,39,39,40,40,41,41,42,42,43,43,44,44,45,45,46,46,47,47,48,48,49,49,50,50,51,51,52,52,55,55,56,56,57,57,58,58,59,59,61,61],"right_children":[2,4,6,8,10,12,14,16,18,20,22,24,26,28,30,32,34,36,38,40,42,44,46,48,50,52,54,56,58,60,62,64,66,68,70,72,74,76,-1,78,80,82,84,86,88,90,92,94,96,98,100,102,104,-1,-1,106,108,110,112,114,-1,116,-1,-1,-1,-1,-1,-1,-1,-1,-1,-1,-1,-1,-1,-1,-1,-1,-1,-1,-1,-1,-1,-1,-1,-1,-1,-1,-1,-1,-1,-1,-1,-1,-1,-1,-1,-1,-1,-1,-1,-1,-1,-1,-1,-1,-1,-1,-1,-1,-1,-1,-1,-1,-1,-1,-1],"split_conditions":[2E0,2E0,4E0,1E0,2.2E1,2E1,8E0,6E0,3E0,6E0,2.3E1,1E0,7E0,1.4166666E0,1E0,3E0,1E0,1.8E1,2.4E1,5E0,1.5E1,1E0,2.8E1,1E1,1E0,5.6666665E0,7.111111E0,6E0,2E1,6.4E0,2.4E1,5E0,3E0,1E0,1E0,1E0,2E0,8E0,-8.762086E-2,1E0,1E0,1E1,1.6E1,1E0,1E1,1E0,1.1E1,2E0,1.2E1,1E0,1E0,1E0,2.3E1,-7.9306744E-2,5.6738406E-2,1.3E1,2E0,9.5E0,1E0,2.5714285E0,7.5588346E-2,1.5333333E0,-6.881888E-2,-8.610402E-2,-4.6487793E-2,-2.936155E-2,6.989864E-3,-2.6564864E-2,2.7743567E-2,-1.0113374E-2,-2.4290029E-2,-3.5063743E-3,-2.731509E-2,-7.903389E-3,1.3252887E-2,-2.5430163E-2,4.8528284E-2,2.351689E-3,1.7492397E-2,4.95684E-3,3.762993E-2,-4.20333E-3,-6.772805E-2,6.737032E-2,2.9751984E-3,4.073222E-2,-9.584446E-3,4.407998E-2,-9.005554E-2,-1.0014075E-2,-5.8066268E-2,-1.2806425E-3,5.8800247E-2,1.9024385E-2,2.6475817E-2,-8.267612E-2,2.5145663E-2,1.2094039E-2,-8.682545E-2,7.323667E-2,-5.4051097E-2,5.671066E-2,1.8359052E-2,4.9025856E-2,-3.925604E-2,5.4250926E-2,-6.3176386E-2,-1.706219E-2,5.5162814E-2,4.3701317E-2,-7.159988E-2,3.373118E-2,-7.858797E-2,6.560756E-2,5.0282836E-2,-4.8267306E-3,4.9884316E-2],"split_indices":[10,2,10,10,2,2,10,11,9,2,2,12,63,64,57,11,34,7,7,2,2,52,2,2,55,64,64,11,7,64,7,7,63,58,12,39,3,7,0,10,34,2,2,57,7,53,7,2,2,59,64,9,2,0,0,7,9,64,46,64,0,64,0,0,0,0,0,0,0,0,0,0,0,0,0,0,0,0,0,0,0,0,0,0,0,0,0,0,0,0,0,0,0,0,0,0,0,0,0,0,0,0,0,0,0,0,0,0,0,0,0,0,0,0,0,0,0],"split_type":[0,0,0,0,0,0,0,0,0,0,0,0,0,0,0,0,0,0,0,0,0,0,0,0,0,0,0,0,0,0,0,0,0,0,0,0,0,0,0,0,0,0,0,0,0,0,0,0,0,0,0,0,0,0,0,0,0,0,0,0,0,0,0,0,0,0,0,0,0,0,0,0,0,0,0,0,0,0,0,0,0,0,0,0,0,0,0,0,0,0,0,0,0,0,0,0,0,0,0,0,0,0,0,0,0,0,0,0,0,0,0,0,0,0,0,0,0],"sum_hessian":[2.8661406E4,2.2880092E4,5.781313E3,1.2782018E4,1.0098075E4,3.986707E3,1.7946057E3,9.797334E3,2.984683E3,8.951134E3,1.1469413E3,3.8003767E3,1.863304E2,1.4936637E3,3.0094205E2,2.5602393E3,7.2370947E3,2.888752E3,9.593101E1,4.6986084E3,4.252526E3,7.846176E2,3.6232367E2,3.3295222E3,4.7085452E2,1.8066287E2,5.6675186E0,9.013779E1,1.4035259E3,2.573301E2,4.361193E1,1.6468959E2,2.3955496E3,1.5909727E3,5.646122E3,1.8773696E3,1.0113825E3,9.094756E1,4.983451E0,4.2769326E3,4.2167575E2,3.3248628E3,9.2766315E2,7.696679E2,1.4949703E1,3.0031894E2,6.2004726E1,3.091858E3,2.3766425E2,4.4330243E2,2.7552094E1,1.6827206E2,1.2390812E1,3.730018E0,1.937501E0,2.6855366E1,6.328242E1,9.2072595E2,4.827999E2,2.321453E2,2.5184826E1,4.1875957E1,1.7359726E0,3.4659298E1,1.3003029E2,2.3241667E3,7.138288E1,1.5485758E3,4.2396824E1,4.1911416E3,1.4549808E3,1.6717009E3,2.0566862E2,2.9093408E2,7.204484E2,5.4817457E0,8.546581E1,3.007018E3,1.2699146E3,8.410375E1,3.37572E2,2.9916196E3,3.3324323E2,3.1443941E1,8.9621924E2,7.2394165E2,4.572627E1,4.954024E0,9.99568E0,2.656875E2,3.463144E1,1.0511696E1,5.149303E1,1.6834604E3,1.4083975E3,4.203698E1,1.9562727E2,4.3907355E2,4.2288747E0,3.9479222E0,2.3604172E1,1.4486156E2,2.3410511E1,6.7774134E0,5.613399E0,2.536234E1,1.4930257E0,4.5375385E1,1.7907036E1,9.190068E2,1.7192098E0,4.8032742E2,2.472472E0,9.651195E1,1.3563335E2,3.349562E0,3.8526398E1],"tree_param":{"num_deleted":"0","num_feature":"66","num_nodes":"117","size_leaf_vector":"1"}},{"base_weights":[1.5086831E-3,-2.0428264E-1,3.059883E-1,-3.6447766E-1,1.4172256E-2,2.1679448E-1,7.8457636E-1,-5.332338E-1,-2.6584402E-1,-4.072615E-2,3.99746E-1,6.8215474E-2,3.209121E-1,5.931973E-1,9.040134E-1,-5.423227E-1,1.4221107E0,-2.386153E-1,-5.84213E-1,1.0735597E-2,-3.4493268E-1,6.8318003E-1,-2.3320524E-1,-5.961493E-2,2.0681287E-1,2.9832345E-1,5.980858E-1,-7.347025E-2,6.011352E-1,9.490013E-1,4.4087216E-1,-4.904757E-1,-8.925617E-1,-6.281965E-2,9.285913E-2,-3.1767514E-1,-1.2287721E-1,-7.901976E-1,-2.286984E-1,-4.1222268E-1,3.2721013E-2,-1.5407214E0,-4.0134598E-2,8.5940236E-1,4.2286578E-1,-4.5610827E-1,9.1089547E-1,-2.2959787E-1,3.3515077E-2,2.2953133E-1,-8.4507686E-1,3.2677263E-1,-1.0691518E0,-9.073299E-2,6.274326E-1,6.137022E-1,-7.460528E-1,9.825784E-1,5.063488E-1,5.2142715E-1,-8.287644E-2,-3.0253991E-2,-1.902992E-2,-5.084743E-2,-1.2605785E-2,-1.734375E-2,3.0369905E-3,-1.212603E-2,3.3937977E-3,-6.6757366E-2,-2.932617E-2,-2.2212787E-2,2.846939E-2,-2.7203927E-2,1.627057E-2,-3.2564662E-2,2.1615818E-3,-7.902654E-2,2.9187841E-2,1.481738E-3,-4.5195263E-2,-8.720731E-2,4.4244003E-2,2.9998556E-2,-1.1335675E-2,-1.7559214E-2,-6.776268E-2,5.2675527E-2,-7.5891495E-2,-9.3861325E-3,-7.659714E-2,3.0181756E-2,7.6453965E-5,1.2706225E-2,-4.320897E-2,-7.963892E-2,3.7510346E-3,1.7632818E-2,5.7763583E-3,-8.142107E-2,-1.6602969E-2,3.253678E-2,-8.646142E-2,3.2899193E-2,1.0705257E-2,-8.477178E-2,4.4563856E-2,5.0329078E-2,2.6234612E-2,3.2154813E-2,-4.338048E-2,1.3057686E-2,4.8143484E-2],"categories":[],"categories_nodes":[],"categories_segments":[],"categories_sizes":[],"default_left":[0,0,0,0,0,0,0,0,0,0,0,0,0,0,0,0,0,0,0,0,0,0,0,0,0,0,0,0,0,0,0,0,0,0,0,0,0,0,0,0,0,0,0,0,0,0,0,0,0,0,0,0,0,0,0,0,0,0,0,0,0,0,0,0,0,0,0,0,0,0,0,0,0,0,0,0,0,0,0,0,0,0,0,0,0,0,0,0,0,0,0,0,0,0,0,0,0,0,0,0,0,0,0,0,0,0,0,0,0,0,0,0,0],"id":8,"left_children":[1,3,5,7,9,11,13,15,17,19,21,23,25,27,29,31,33,35,37,39,41,43,45,47,49,51,53,-1,55,57,59,61,63,-1,-1,65,67,69,71,73,75,77,79,81,83,85,87,89,91,93,95,97,99,-1,101,103,105,107,109,111,-1,-1,-1,-1,-1,-1,-1,-1,-1,-1,-1,-1,-1,-1,-1,-1,-1,-1,-1,-1,-1,-1,-1,-1,-1,-1,-1,-1,-1,-1,-1,-1,-1,-1,-1,-1,-1,-1,-1,-1,-1,-1,-1,-1,-1,-1,-1,-1,-1,-1,-1,-1,-1],"loss_changes":[1.7995565E3,5.9972516E2,4.942578E2,1.6442725E2,1.5350403E2,1.5103131E2,4.104541E1,6.5568726E1,5.3970245E1,9.938636E1,1.623084E2,7.131392E1,3.5765747E1,1.237619E1,2.2880127E1,6.547742E1,2.2313576E1,5.259134E1,3.5782227E1,5.0513412E1,3.3473236E2,2.8286285E1,7.1898506E1,3.3162117E1,4.6343132E1,2.0694128E2,3.1699799E1,0E0,1.2308426E1,1.4637878E1,1.791482E1,3.9612976E1,3.6933563E1,0E0,0E0,3.77753E1,5.3330276E1,3.368318E1,3.1487888E1,2.6283478E1,3.7149406E1,1.6700165E1,4.4201786E1,2.6182892E1,2.9367004E1,2.1718987E1,1.7545788E1,4.0146866E1,2.4688782E1,5.108615E1,2.8353453E1,2.8407715E1,4.4170166E1,0E0,2.4584488E1,1.2140228E1,1.22687025E1,9.86322E0,1.4435486E1,1.0996893E1,0E0,0E0,0E0,0E0,0E0,0E0,0E0,0E0,0E0,0E0,0E0,0E0,0E0,0E0,0E0,0E0,0E0,0E0,0E0,0E0,0E0,0E0,0E0,0E0,0E0,0E0,0E0,0E0,0E0,0E0,0E0,0E0,0E0,0E0,0E0,0E0,0E0,0E0,0E0,0E0,0E0,0E0,0E0,0E0,0E0,0E0,0E0,0E0,0E0,0E0,0E0,0E0,0E0],"parents":[2147483647,0,0,1,1,2,2,3,3,4,4,5,5,6,6,7,7,8,8,9,9,10,10,11,11,12,12,13,13,14,14,15,15,16,16,17,17,18,18,19,19,20,20,21,21,22,22,23,23,24,24,25,25,26,26,28,28,29,29,30,30,31,31,32,32,35,35,36,36,37,37,38,38,39,39,40,40,41,41,42,42,43,43,44,44,45,45,46,46,47,47,48,48,49,49,50,50,51,51,52,52,54,54,55,55,56,56,57,57,58,58,59,59],"right_children":[2,4,6,8,10,12,14,16,18,20,22,24,26,28,30,32,34,36,38,40,42,44,46,48,50,52,54,-1,56,58,60,62,64,-1,-1,66,68,70,72,74,76,78,80,82,84,86,88,90,92,94,96,98,100,-1,102,104,106,108,110,112,-1,-1,-1,-1,-1,-1,-1,-1,-1,-1,-1,-1,-1,-1,-1,-1,-1,-1,-1,-1,-1,-1,-1,-1,-1,-1,-1,-1,-1,-1,-1,-1,-1,-1,-1,-1,-1,-1,-1,-1,-1,-1,-1,-1,-1,-1,-1,-1,-1,-1,-1,-1,-1],"split_conditions":[1E0,2E0,4E0,7E0,2.2E1,2E0,5E0,4E0,1E0,1E1,2.3E1,2E0,1.5E1,2.5E1,8.5E1,1E0,1E0,5E1,5E0,9E0,1.4E1,2E0,2.8E1,7E0,1E0,1E1,4.5E1,-7.347025E-2,7E0,1E1,1.4E1,6.5E1,1.8E1,-6.281965E-2,9.285913E-2,1E0,6E0,1E1,8.5E1,8E0,4E0,1E0,1E0,2E0,2E0,1E0,1E0,1.2E1,6E0,1E0,5E0,3E0,1.2E1,-9.073299E-2,1E0,7E0,1E0,1E0,7.2E1,2E1,-8.287644E-2,-3.0253991E-2,-1.902992E-2,-5.084743E-2,-1.2605785E-2,-1.734375E-2,3.0369905E-3,-1.212603E-2,3.3937977E-3,-6.6757366E-2,-2.932617E-2,-2.2212787E-2,2.846939E-2,-2.7203927E-2,1.627057E-2,-3.2564662E-2,2.1615818E-3,-7.902654E-2,2.9187841E-2,1.481738E-3,-4.5195263E-2,-8.720731E-2,4.4244003E-2,2.9998556E-2,-1.1335675E-2,-1.7559214E-2,-6.776268E-2,5.2675527E-2,-7.5891495E-2,-9.3861325E-3,-7.659714E-2,3.0181756E-2,7.6453965E-5,1.2706225E-2,-4.320897E-2,-7.963892E-2,3.7510346E-3,1.7632818E-2,5.7763583E-3,-8.142107E-2,-1.6602969E-2,3.253678E-2,-8.646142E-2,3.2899193E-2,1.0705257E-2,-8.477178E-2,4.4563856E-2,5.0329078E-2,2.6234612E-2,3.2154813E-2,-4.338048E-2,1.3057686E-2,4.8143484E-2],"split_indices":[10,2,10,11,2,63,10,9,55,2,2,2,2,35,35,39,49,5,4,5,2,1,2,3,40,2,35,0,8,4,2,35,7,0,0,22,4,7,35,4,11,40,43,3,3,53,39,4,5,52,4,8,2,0,50,2,21,47,5,7,0,0,0,0,0,0,0,0,0,0,0,0,0,0,0,0,0,0,0,0,0,0,0,0,0,0,0,0,0,0,0,0,0,0,0,0,0,0,0,0,0,0,0,0,0,0,0,0,0,0,0,0,0],"split_type":[0,0,0,0,0,0,0,0,0,0,0,0,0,0,0,0,0,0,0,0,0,0,0,0,0,0,0,0,0,0,0,0,0,0,0,0,0,0,0,0,0,0,0,0,0,0,0,0,0,0,0,0,0,0,0,0,0,0,0,0,0,0,0,0,0,0,0,0,0,0,0,0,0,0,0,0,0,0,0,0,0,0,0,0,0,0,0,0,0,0,0,0,0,0,0,0,0,0,0,0,0,0,0,0,0,0,0,0,0,0,0,0,0],"sum_hessian":[2.8717723E4,1.7136115E4,1.1581607E4,9.885972E3,7.2501436E3,9.763458E3,1.8181499E3,3.6450706E3,6.240901E3,6.347302E3,9.028413E2,4.023482E3,5.7399756E3,7.009516E2,1.1171982E3,3.628925E3,1.6145386E1,5.7508086E3,4.900923E2,5.429734E3,9.175679E2,6.2354156E2,2.7929977E2,2.0933367E3,1.9301451E3,5.3093584E3,4.3061737E2,1.9814309E0,6.989702E2,1.0173294E3,9.986886E1,3.1630842E3,4.658408E2,1.9922693E0,1.4153117E1,3.4157737E3,2.335035E3,3.0952896E2,1.8056331E2,2.6741522E2,5.162319E3,1.8555208E2,7.320158E2,3.7045618E2,2.5308539E2,2.3426056E2,4.503922E1,7.404273E2,1.3529094E3,1.890105E3,4.004022E1,5.201898E3,1.0746017E2,4.4436965E0,4.2617368E2,6.930497E2,5.920504E0,9.444677E2,7.28617E1,9.690048E1,2.9683776E0,1.5460348E3,1.6170496E3,3.8958755E2,7.625324E1,3.171159E3,2.4461458E2,1.4348212E3,9.0021387E2,8.2700554E1,2.2682841E2,1.4251453E2,3.804879E1,2.2708502E2,4.0330193E1,7.720156E1,5.085117E3,1.823904E2,3.161678E0,6.782012E2,5.3814663E1,2.9363315E0,3.6751984E2,1.9892549E2,5.415991E1,2.1102588E2,2.3234676E1,4.3076015E1,1.9632003E0,7.1847E2,2.1957323E1,7.0921906E1,1.2819875E3,1.8492896E3,4.0815426E1,2.16862E1,1.8354017E1,4.6334917E3,5.6840643E2,6.0412712E1,4.704745E1,4.2271768E2,3.4560204E0,6.2332837E2,6.972128E1,3.7250803E0,2.195424E0,8.962848E2,4.8182903E1,6.675013E1,6.1115746E0,6.196038E1,3.4940105E1],"tree_param":{"num_deleted":"0","num_feature":"66","num_nodes":"113","size_leaf_vector":"1"}},{"base_weights":[-4.5762155E-3,-1.4457951E-1,1.6410847E-1,-2.074716E-1,2.6294297E-1,1.2830086E-1,4.6496737E-1,-4.0493938E-1,-1.4456744E-1,1.5415776E-1,6.280927E-1,1.8057376E-1,-1.9947962E-1,6.9081384E-1,-4.0660556E-3,-5.0883025E-1,-2.0900834E-1,-2.5950438E-1,-5.2383196E-2,1.7658472E-1,-1.1057258E0,6.687197E-1,-8.811894E-1,1.3250507E-1,4.4543177E-1,-8.154306E-2,7.3538296E-2,7.1658164E-1,-1.2221953E0,-1.7164983E-1,8.617294E-1,-6.3055855E-1,-3.6325797E-1,-1.12899326E-1,-6.881599E-1,-3.0254897E-1,4.136497E-3,-4.3227142E-1,-2.1272385E-2,2.0422098E-1,-4.097125E-1,6.4362235E-2,-1.3361104E0,8.3493036E-1,4.699727E-1,-9.614359E-2,3.3708903E-1,1.4328168E-1,-5.6463134E-1,5.1754445E-1,2.630541E-1,-4.8254856E-1,1.5843037E-1,9.30207E-1,5.415379E-1,-8.868614E-2,3.7781406E-2,1.0698748E-1,-5.469843E-1,1.029941E0,1.9312726E-1,-3.4081105E-2,-6.279535E-3,-1.9994495E-2,2.3830136E-2,-2.6663972E-2,-2.4143544E-3,-1.9381374E-2,-7.457632E-2,-2.2635587E-2,-1.1692747E-2,-1.5161333E-2,8.269577E-3,2.5170704E-2,-2.5126478E-2,-7.9264457E-4,-8.89039E-2,3.609557E-2,8.855098E-3,-3.6976267E-2,3.1787537E-2,-7.93258E-2,3.822892E-2,4.317919E-2,-2.1948209E-2,-2.814047E-2,2.8238192E-2,-5.911109E-2,4.423108E-2,1.0515363E-2,2.2640384E-3,-7.476622E-2,-1.958971E-4,2.5001068E-2,7.0849344E-2,1.6960778E-3,2.929695E-2,-5.255828E-3,-4.5315307E-2,5.716312E-2,6.032188E-3,5.269186E-2,2.8958058E-2,1.2244094E-2,3.4964643E-2,-6.3299656E-2,1.1222575E-2,-3.3270486E-2,3.6243778E-2,6.234745E-2,2.2514617E-2,-9.046635E-2,4.1674912E-2],"categories":[],"categories_nodes":[],"categories_segments":[],"categories_sizes":[],"default_left":[0,0,0,0,0,0,0,0,0,0,0,0,0,0,0,0,0,0,0,0,0,0,0,0,0,0,0,0,0,0,0,0,0,0,0,0,0,0,0,0,0,0,0,0,0,0,0,0,0,0,0,0,0,0,0,0,0,0,0,0,0,0,0,0,0,0,0,0,0,0,0,0,0,0,0,0,0,0,0,0,0,0,0,0,0,0,0,0,0,0,0,0,0,0,0,0,0,0,0,0,0,0,0,0,0,0,0,0,0,0,0,0,0],"id":9,"left_children":[1,3,5,7,9,11,13,15,17,19,21,23,25,27,29,31,33,35,37,39,41,43,45,47,49,-1,51,53,55,57,59,61,63,65,67,69,71,73,75,77,79,-1,81,83,85,-1,87,89,91,93,95,97,99,101,103,-1,-1,105,107,109,111,-1,-1,-1,-1,-1,-1,-1,-1,-1,-1,-1,-1,-1,-1,-1,-1,-1,-1,-1,-1,-1,-1,-1,-1,-1,-1,-1,-1,-1,-1,-1,-1,-1,-1,-1,-1,-1,-1,-1,-1,-1,-1,-1,-1,-1,-1,-1,-1,-1,-1,-1,-1],"loss_changes":[6.7301685E2,3.9918503E2,1.39182E2,1.675252E2,8.262413E1,1.9796324E2,1.4558319E2,6.622943E1,1.08414185E2,4.5567066E1,2.9878983E1,1.267887E2,6.2120953E2,4.6603363E1,6.510135E1,3.749652E1,5.200227E1,5.1686157E1,6.712169E1,2.566111E1,1.7278759E1,1.4992142E1,1.7085594E1,6.344615E1,1.9986694E1,0E0,6.3130463E1,3.374704E1,1.5192381E1,3.937121E1,7.98468E0,2.9775757E1,3.0091125E1,2.5592537E1,4.499267E1,4.0280487E1,3.1781794E1,2.8514809E1,4.996834E1,2.1045654E1,2.5086435E1,0E0,1.5012821E1,9.589569E0,2.1306133E1,0E0,6.720022E0,5.455385E1,6.710379E1,1.655716E1,3.2206673E1,2.8237492E1,4.301239E1,1.7232178E1,2.3501022E1,0E0,0E0,3.5212994E1,2.4630424E1,6.7225304E0,2.1842371E1,0E0,0E0,0E0,0E0,0E0,0E0,0E0,0E0,0E0,0E0,0E0,0E0,0E0,0E0,0E0,0E0,0E0,0E0,0E0,0E0,0E0,0E0,0E0,0E0,0E0,0E0,0E0,0E0,0E0,0E0,0E0,0E0,0E0,0E0,0E0,0E0,0E0,0E0,0E0,0E0,0E0,0E0,0E0,0E0,0E0,0E0,0E0,0E0,0E0,0E0,0E0,0E0],"parents":[2147483647,0,0,1,1,2,2,3,3,4,4,5,5,6,6,7,7,8,8,9,9,10,10,11,11,12,12,13,13,14,14,15,15,16,16,17,17,18,18,19,19,20,20,21,21,22,22,23,23,24,24,26,26,27,27,28,28,29,29,30,30,31,31,32,32,33,33,34,34,35,35,36,36,37,37,38,38,39,39,40,40,42,42,43,43,44,44,46,46,47,47,48,48,49,49,50,50,51,51,52,52,53,53,54,54,57,57,58,58,59,59,60,60],"right_children":[2,4,6,8,10,12,14,16,18,20,22,24,26,28,30,32,34,36,38,40,42,44,46,48,50,-1,52,54,56,58,60,62,64,66,68,70,72,74,76,78,80,-1,82,84,86,-1,88,90,92,94,96,98,100,102,104,-1,-1,106,108,110,112,-1,-1,-1,-1,-1,-1,-1,-1,-1,-1,-1,-1,-1,-1,-1,-1,-1,-1,-1,-1,-1,-1,-1,-1,-1,-1,-1,-1,-1,-1,-1,-1,-1,-1,-1,-1,-1,-1,-1,-1,-1,-1,-1,-1,-1,-1,-1,-1,-1,-1,-1,-1],"split_conditions":[2E0,1E0,2.2E1,6E0,3E0,1E1,2.3E1,4E0,1E0,1E0,7.5E1,1E0,1.2E1,1E0,2.8E1,4.1E1,3E0,7E0,9E0,1E0,5E-1,1.5E1,6.5E1,1E0,5.6E1,-8.154306E-2,1.5E1,9E0,1E0,4.2E1,4E0,8.5E1,7.5555553E0,4E0,5.6E1,6.5E1,4.8E1,3.5E1,1E0,4E0,2E0,6.4362235E-2,1E0,1E0,2.9E1,-9.614359E-2,3E0,6E0,3E1,1E0,2E0,1E0,1.6E1,2E0,1E0,-8.868614E-2,3.7781406E-2,8E0,1E0,1E0,3.6153846E0,-3.4081105E-2,-6.279535E-3,-1.9994495E-2,2.3830136E-2,-2.6663972E-2,-2.4143544E-3,-1.9381374E-2,-7.457632E-2,-2.2635587E-2,-1.1692747E-2,-1.5161333E-2,8.269577E-3,2.5170704E-2,-2.5126478E-2,-7.9264457E-4,-8.89039E-2,3.609557E-2,8.855098E-3,-3.6976267E-2,3.1787537E-2,-7.93258E-2,3.822892E-2,4.317919E-2,-2.1948209E-2,-2.814047E-2,2.8238192E-2,-5.911109E-2,4.423108E-2,1.0515363E-2,2.2640384E-3,-7.476622E-2,-1.958971E-4,2.5001068E-2,7.0849344E-2,1.6960778E-3,2.929695E-2,-5.255828E-3,-4.5315307E-2,5.716312E-2,6.032188E-3,5.269186E-2,2.8958058E-2,1.2244094E-2,3.4964643E-2,-6.3299656E-2,1.1222575E-2,-3.3270486E-2,3.6243778E-2,6.234745E-2,2.2514617E-2,-9.046635E-2,4.1674912E-2],"split_indices":[2,9,2,11,9,2,2,4,27,50,5,9,2,52,2,5,6,4,7,16,64,7,35,60,5,0,2,11,59,5,1,35,64,11,5,35,5,35,59,11,9,0,42,22,5,0,6,2,5,14,1,53,2,6,33,0,0,7,9,53,64,0,0,0,0,0,0,0,0,0,0,0,0,0,0,0,0,0,0,0,0,0,0,0,0,0,0,0,0,0,0,0,0,0,0,0,0,0,0,0,0,0,0,0,0,0,0,0,0,0,0,0,0],"split_type":[0,0,0,0,0,0,0,0,0,0,0,0,0,0,0,0,0,0,0,0,0,0,0,0,0,0,0,0,0,0,0,0,0,0,0,0,0,0,0,0,0,0,0,0,0,0,0,0,0,0,0,0,0,0,0,0,0,0,0,0,0,0,0,0,0,0,0,0,0,0,0,0,0,0,0,0,0,0,0,0,0,0,0,0,0,0,0,0,0,0,0,0,0,0,0,0,0,0,0,0,0,0,0,0,0,0,0,0,0,0,0,0,0],"sum_hessian":[2.849584E4,1.5571827E4,1.2924014E4,1.3490377E4,2.08145E3,1.1550699E4,1.3733137E3,3.2578728E3,1.0232504E4,1.6047776E3,4.766723E2,9.962394E3,1.5883065E3,9.266469E2,4.4666684E2,2.1279482E3,1.1299247E3,4.553413E3,5.679091E3,1.5775557E3,2.7221945E1,4.6471985E2,1.1952443E1,8.433339E3,1.5290538E3,2.53625E2,1.3346815E3,9.149482E2,1.1698754E1,3.749023E2,7.176453E1,1.1570691E3,9.7087915E2,9.421769E2,1.8774779E2,3.9141958E3,6.392174E2,4.28906E2,5.2501846E3,1.5071642E3,7.039143E1,1.9877814E0,2.5234163E1,2.513319E2,2.1338795E2,6.1314387E0,5.821005E0,8.30574E3,1.27599E2,1.0944624E3,4.345915E2,1.7614655E2,1.158535E3,4.1011957E2,5.0482858E2,9.228522E0,2.4702318E0,2.1557828E2,1.5932402E2,5.6907013E1,1.485751E1,1.0504911E3,1.0657795E2,9.3080444E2,4.0074715E1,1.2455349E2,8.176234E2,1.3771304E2,5.0034744E1,1.22682E3,2.6873757E3,2.1965656E2,4.1956085E2,2.9525497E1,3.993805E2,5.2350444E3,1.5140346E1,7.374695E1,1.4334172E3,5.3732918E1,1.665852E1,2.2765268E1,2.4688947E0,2.461181E2,5.21379E0,1.7523714E1,1.9586424E2,1.2349751E0,4.5860295E0,4.93168E3,3.37406E3,4.734582E1,8.025318E1,1.0750735E3,1.9388891E1,2.5484673E2,1.7974477E2,9.3825874E1,8.232068E1,4.172781E1,1.1168071E3,3.018227E2,1.0829688E2,1.761442E2,3.286844E2,1.6219429E1,1.9935886E2,1.461889E2,1.3135115E1,4.0568012E1,1.6339E1,3.1577425E0,1.1699767E1],"tree_param":{"num_deleted":"0","num_feature":"66","num_nodes":"113","size_leaf_vector":"1"}},{"base_weights":[-1.102251E-3,-2.001091E-1,2.9250136E-1,-3.5564712E-1,8.097077E-3,1.8220727E-1,6.006772E-1,-5.240856E-1,-2.9621902E-1,-4.378249E-2,3.794612E-1,1.6409987E-1,6.0592437E-1,4.6689752E-1,8.4699166E-1,-6.275375E-1,-3.9329425E-1,-4.7278333E-1,-2.459957E-1,8.175185E-2,-1.7667899E-1,6.2893707E-1,-1.94956E-1,1.0726618E-1,2.9292637E-1,6.5877455E-1,-8.3625597E-1,4.770239E-1,-3.454581E-1,4.925642E-1,9.062399E-1,-9.378857E-1,-5.735E-1,-5.386262E-1,-2.4930106E-1,-3.7630197E-1,-6.867859E-1,-1.8305895E-1,-4.2272204E-1,-1.9762366E-1,1.553568E-1,-4.2871338E-1,-1.301383E-1,8.5737E-1,4.1976503E-1,-3.989056E-1,9.3545485E-1,1.2391084E-1,-3.6649284E-1,6.7004097E-1,2.6324606E-1,7.234953E-1,9.40888E-2,4.13556E-1,-9.308223E-2,4.8747897E-1,-2.288451E-1,4.0339103E-1,-1.00511745E-1,7.112599E-1,5.4180045E-2,9.116262E-1,-7.4025825E-2,-3.369209E-2,-7.280546E-2,-2.5742546E-2,-4.7424998E-2,-2.1369196E-2,-4.845726E-2,-1.0490132E-2,-5.3845346E-2,-1.614499E-2,-5.5621237E-2,-4.7111038E-2,-2.5668604E-2,-1.4191403E-2,-2.131082E-3,-1.7320385E-2,-4.0910352E-2,-1.4709452E-3,-2.3689758E-2,6.300162E-3,4.0057894E-2,-3.0743528E-2,1.1088834E-2,-2.5384228E-3,-1.7284725E-2,4.604916E-2,1.5820385E-3,2.2087634E-2,-8.011371E-2,-2.9121717E-2,1.1109147E-2,5.5630196E-2,-7.60381E-2,7.1084164E-3,-1.0401963E-2,-2.19874E-3,-3.298261E-2,3.531989E-2,-7.791077E-2,1.4459315E-2,-5.1770704E-3,3.7707478E-2,-1.5808804E-2,-8.540696E-2,1.869028E-2,5.50506E-2,-5.396658E-3,2.5768867E-2,1.2559253E-2,-4.847763E-2,2.4121879E-2,-4.4710014E-2,5.480519E-2,3.77288E-2,-6.813937E-2,1.0074677E-2,-8.461179E-2,4.6998836E-2,2.7449533E-2],"categories":[],"categories_nodes":[],"categories_segments":[],"categories_sizes":[],"default_left":[0,0,0,0,0,0,0,0,0,0,0,0,0,0,0,0,0,0,0,0,0,0,0,0,0,0,0,0,0,0,0,0,0,0,0,0,0,0,0,0,0,0,0,0,0,0,0,0,0,0,0,0,0,0,0,0,0,0,0,0,0,0,0,0,0,0,0,0,0,0,0,0,0,0,0,0,0,0,0,0,0,0,0,0,0,0,0,0,0,0,0,0,0,0,0,0,0,0,0,0,0,0,0,0,0,0,0,0,0,0,0,0,0,0,0,0,0,0,0,0,0],"id":10,"left_children":[1,3,5,7,9,11,13,15,17,19,21,23,25,27,29,31,33,35,37,39,41,43,45,47,49,51,53,55,57,59,61,63,65,67,69,71,73,75,77,79,81,83,85,87,89,91,93,95,97,99,101,103,105,107,-1,109,111,113,-1,115,117,119,-1,-1,-1,-1,-1,-1,-1,-1,-1,-1,-1,-1,-1,-1,-1,-1,-1,-1,-1,-1,-1,-1,-1,-1,-1,-1,-1,-1,-1,-1,-1,-1,-1,-1,-1,-1,-1,-1,-1,-1,-1,-1,-1,-1,-1,-1,-1,-1,-1,-1,-1,-1,-1,-1,-1,-1,-1,-1,-1],"loss_changes":[1.6664143E3,5.504827E2,3.9151422E2,9.724121E1,1.4007414E2,6.5012054E1,9.9656006E1,3.40708E1,6.3683228E1,1.0644266E2,1.2783188E2,5.95672E1,2.7031906E1,1.6369232E1,2.1969055E1,2.318341E1,2.3362625E1,3.2616272E1,6.2247284E1,6.750458E1,3.629686E1,2.9339722E1,6.2762463E1,4.4597206E1,2.7707535E1,1.2201004E1,1.7074343E1,1.4473053E1,3.176912E1,1.48288E1,1.3091553E1,2.7506134E1,2.6063965E1,2.6306946E1,1.8271729E1,4.2868576E1,2.1378922E1,5.848709E1,4.4104828E1,3.1790892E1,4.914054E1,5.858184E1,4.4764477E1,1.5526535E1,1.5220486E1,2.6341263E1,1.9819336E1,3.3112976E1,1.812546E1,1.5773354E1,2.2019043E1,9.832626E0,1.8620098E1,2.4677415E0,0E0,1.2514008E1,1.5790522E1,1.7124582E1,0E0,1.0315773E1,1.3897992E1,8.859436E0,0E0,0E0,0E0,0E0,0E0,0E0,0E0,0E0,0E0,0E0,0E0,0E0,0E0,0E0,0E0,0E0,0E0,0E0,0E0,0E0,0E0,0E0,0E0,0E0,0E0,0E0,0E0,0E0,0E0,0E0,0E0,0E0,0E0,0E0,0E0,0E0,0E0,0E0,0E0,0E0,0E0,0E0,0E0,0E0,0E0,0E0,0E0,0E0,0E0,0E0,0E0,0E0,0E0,0E0,0E0,0E0,0E0,0E0,0E0],"parents":[2147483647,0,0,1,1,2,2,3,3,4,4,5,5,6,6,7,7,8,8,9,9,10,10,11,11,12,12,13,13,14,14,15,15,16,16,17,17,18,18,19,19,20,20,21,21,22,22,23,23,24,24,25,25,26,26,27,27,28,28,29,29,30,30,31,31,32,32,33,33,34,34,35,35,36,36,37,37,38,38,39,39,40,40,41,41,42,42,43,43,44,44,45,45,46,46,47,47,48,48,49,49,50,50,51,51,52,52,53,53,55,55,56,56,57,57,59,59,60,60,61,61],"right_children":[2,4,6,8,10,12,14,16,18,20,22,24,26,28,30,32,34,36,38,40,42,44,46,48,50,52,54,56,58,60,62,64,66,68,70,72,74,76,78,80,82,84,86,88,90,92,94,96,98,100,102,104,106,108,-1,110,112,114,-1,116,118,120,-1,-1,-1,-1,-1,-1,-1,-1,-1,-1,-1,-1,-1,-1,-1,-1,-1,-1,-1,-1,-1,-1,-1,-1,-1,-1,-1,-1,-1,-1,-1,-1,-1,-1,-1,-1,-1,-1,-1,-1,-1,-1,-1,-1,-1,-1,-1,-1,-1,-1,-1,-1,-1,-1,-1,-1,-1,-1,-1],"split_conditions":[1E0,2E0,3E0,6E0,2.2E1,1.9E1,5E0,1E0,1E0,6E0,2.3E1,2E0,5E0,6E0,6E0,4.5E1,1.3E1,1.5E1,1E0,1E0,6E0,9E0,2.8E1,1E0,4.5E1,1E0,6.5E1,1E0,9E0,7.5E1,1E0,1E0,1E0,1E0,8E0,1E0,2E0,7.5E1,1E0,1E0,6E0,1E0,1E1,1E0,1E0,1E0,1E0,3E0,7E0,1E0,1E1,1E0,1.3E1,1.3E1,-9.308223E-2,1E0,1E0,1E0,-1.00511745E-1,5E0,2.5E1,8.5E1,-7.4025825E-2,-3.369209E-2,-7.280546E-2,-2.5742546E-2,-4.7424998E-2,-2.1369196E-2,-4.845726E-2,-1.0490132E-2,-5.3845346E-2,-1.614499E-2,-5.5621237E-2,-4.7111038E-2,-2.5668604E-2,-1.4191403E-2,-2.131082E-3,-1.7320385E-2,-4.0910352E-2,-1.4709452E-3,-2.3689758E-2,6.300162E-3,4.0057894E-2,-3.0743528E-2,1.1088834E-2,-2.5384228E-3,-1.7284725E-2,4.604916E-2,1.5820385E-3,2.2087634E-2,-8.011371E-2,-2.9121717E-2,1.1109147E-2,5.5630196E-2,-7.60381E-2,7.1084164E-3,-1.0401963E-2,-2.19874E-3,-3.298261E-2,3.531989E-2,-7.791077E-2,1.4459315E-2,-5.1770704E-3,3.7707478E-2,-1.5808804E-2,-8.540696E-2,1.869028E-2,5.50506E-2,-5.396658E-3,2.5768867E-2,1.2559253E-2,-4.847763E-2,2.4121879E-2,-4.4710014E-2,5.480519E-2,3.77288E-2,-6.813937E-2,1.0074677E-2,-8.461179E-2,4.6998836E-2,2.7449533E-2],"split_indices":[10,2,10,11,2,2,10,33,34,2,2,10,63,9,63,35,7,7,12,34,11,11,2,40,35,57,35,40,11,35,23,6,39,57,3,55,6,35,39,53,1,19,2,57,13,63,39,8,3,19,2,37,7,7,0,12,6,0,0,6,7,35,0,0,0,0,0,0,0,0,0,0,0,0,0,0,0,0,0,0,0,0,0,0,0,0,0,0,0,0,0,0,0,0,0,0,0,0,0,0,0,0,0,0,0,0,0,0,0,0,0,0,0,0,0,0,0,0,0,0,0],"split_type":[0,0,0,0,0,0,0,0,0,0,0,0,0,0,0,0,0,0,0,0,0,0,0,0,0,0,0,0,0,0,0,0,0,0,0,0,0,0,0,0,0,0,0,0,0,0,0,0,0,0,0,0,0,0,0,0,0,0,0,0,0,0,0,0,0,0,0,0,0,0,0,0,0,0,0,0,0,0,0,0,0,0,0,0,0,0,0,0,0,0,0,0,0,0,0,0,0,0,0,0,0,0,0,0,0,0,0,0,0,0,0,0,0,0,0,0,0,0,0,0,0],"sum_hessian":[2.8518266E4,1.6997525E4,1.1520739E4,9.728932E3,7.2685947E3,8.485445E3,3.0352935E3,2.5352878E3,7.1936436E3,6.3784126E3,8.901821E2,8.139015E3,3.4643045E2,1.968854E3,1.0664395E3,1.4134749E3,1.121813E3,1.5912072E3,5.6024365E3,3.2802578E3,3.0981545E3,6.205677E2,2.6961444E2,5.648798E3,2.490217E3,3.3470792E2,1.1722515E1,1.9450212E3,2.383279E1,1.5407361E2,9.1236584E2,2.0718932E2,1.2062856E3,5.56947E2,5.648659E2,1.0986486E3,4.9255856E2,4.132709E3,1.4697274E3,6.8366156E2,2.5965964E3,4.8164807E2,2.6165063E3,2.951456E2,3.254221E2,2.2895358E2,4.0660866E1,5.457787E3,1.9101088E2,1.8011565E2,2.3101013E3,3.000382E2,3.4669712E1,5.552023E0,6.1704926E0,1.9169376E3,2.8083614E1,1.6961063E1,6.8717275E0,1.0237804E2,5.1695564E1,9.109282E2,1.4376622E0,1.387792E2,6.841011E1,1.045193E3,1.6109262E2,4.4417014E2,1.127769E2,5.403315E2,2.453443E1,1.0256791E3,7.296942E1,1.9738347E2,2.951751E2,2.4055874E3,1.7271217E3,1.2335691E3,2.3615839E2,4.2557053E2,2.5809106E2,2.484848E3,1.11748535E2,3.7452216E2,1.0712594E2,1.9132611E3,7.032453E2,2.7392728E2,2.1218342E1,3.2269464E2,2.7274475E0,1.7677858E2,5.2175003E1,3.8435795E1,2.2250688E0,5.1737964E3,2.8399078E2,9.149882E1,9.951206E1,1.7789603E2,2.2196226E0,2.1577134E3,1.5238803E2,2.9171185E2,8.326372E0,3.9719014E0,3.0697813E1,1.9155519E0,3.6364713E0,1.713455E3,2.0348268E2,1.3579373E1,1.450424E1,5.801956E0,1.1159106E1,1.009068E2,1.4712387E0,4.8489967E1,3.2055964E0,8.433999E2,6.752831E1],"tree_param":{"num_deleted":"0","num_feature":"66","num_nodes":"121","size_leaf_vector":"1"}},{"base_weights":[3.059823E-3,-1.9096912E-1,2.8874248E-1,-3.3889607E-1,5.9290123E-3,1.8008588E-1,5.9300226E-1,-4.7380644E-1,-2.598639E-1,-4.762844E-2,3.814626E-1,1.1901577E-1,3.167385E-1,4.712015E-1,8.201674E-1,-4.3056613E-1,-7.619026E-1,-2.254906E-1,-4.619558E-1,7.357332E-2,-1.8009111E-1,6.311145E-1,-2.0117109E-1,3.033877E-2,2.1543159E-1,2.9257908E-1,7.719795E-1,5.921295E-1,3.827782E-1,7.36889E-1,1.0256753E0,-6.2400806E-1,-3.5685366E-1,-9.3533736E-1,5.263675E-2,-3.1250337E-1,-9.787926E-2,-7.814571E-1,-3.1808797E-1,2.9507106E-2,4.8617855E-1,-3.17919E-1,-6.251139E-2,6.5988E-1,-1.0840981E0,-4.0831128E-1,8.1598693E-1,6.981803E-2,-3.3243802E-1,3.4104118E-1,9.622849E-2,6.344434E-1,2.646018E-1,-6.6757816E-1,8.347907E-1,6.0334414E-1,-8.551029E-1,-3.4978005E-1,4.0737084E-1,7.7673525E-1,2.1074408E-1,1.0400205E0,-7.249857E-2,-3.252273E-2,3.728095E-2,-1.647893E-2,-4.4236373E-2,-5.8161136E-2,-3.318156E-2,1.8841906E-2,-8.3475225E-2,-1.4679789E-2,-4.308058E-2,-1.1875472E-2,1.7176828E-3,-5.4018836E-2,-1.5006201E-2,-3.1945642E-4,-2.4986872E-2,8.870189E-5,2.974549E-2,2.6632488E-2,-8.847993E-2,-3.6232326E-2,-8.756624E-3,2.0244413E-3,-2.1270705E-2,3.3953354E-2,-5.029558E-2,2.4667153E-2,-8.30932E-2,-8.590964E-2,-1.4830957E-2,4.896404E-2,-7.461823E-2,5.5516283E-3,-1.0651141E-2,-9.5448755E-3,-4.5905776E-2,3.2133624E-2,7.3399357E-3,-6.444784E-4,1.695706E-2,4.381349E-2,1.165644E-2,1.4896559E-2,2.084749E-3,5.381949E-2,-8.5803695E-2,4.428035E-2,-6.9670096E-2,3.0471414E-2,-7.4000254E-2,-9.255463E-2,5.5654425E-2,-2.9895602E-2,7.148378E-2,2.0735985E-2,-8.285468E-2,-8.538927E-2,3.9387356E-2,-4.6622735E-2,1.8976677E-2,5.3691924E-2,8.702022E-3],"categories":[],"categories_nodes":[],"categories_segments":[],"categories_sizes":[],"default_left":[0,0,0,0,0,0,0,0,0,0,0,0,0,0,0,0,0,0,0,0,0,0,0,0,0,0,0,0,0,0,0,0,0,0,0,0,0,0,0,0,0,0,0,0,0,0,0,0,0,0,0,0,0,0,0,0,0,0,0,0,0,0,0,0,0,0,0,0,0,0,0,0,0,0,0,0,0,0,0,0,0,0,0,0,0,0,0,0,0,0,0,0,0,0,0,0,0,0,0,0,0,0,0,0,0,0,0,0,0,0,0,0,0,0,0,0,0,0,0,0,0,0,0,0,0],"id":11,"left_children":[1,3,5,7,9,11,13,15,17,19,21,23,25,27,29,31,33,35,37,39,41,43,45,47,49,51,53,55,57,59,61,63,65,67,69,71,73,75,77,79,81,83,85,87,89,91,93,95,97,99,101,103,105,107,109,111,113,115,117,119,121,123,-1,-1,-1,-1,-1,-1,-1,-1,-1,-1,-1,-1,-1,-1,-1,-1,-1,-1,-1,-1,-1,-1,-1,-1,-1,-1,-1,-1,-1,-1,-1,-1,-1,-1,-1,-1,-1,-1,-1,-1,-1,-1,-1,-1,-1,-1,-1,-1,-1,-1,-1,-1,-1,-1,-1,-1,-1,-1,-1,-1,-1,-1,-1],"loss_changes":[1.585673E3,4.962011E2,3.824096E2,1.0359631E2,1.4702673E2,7.112488E1,8.384473E1,4.4422302E1,4.252298E1,1.0272876E2,1.3284431E2,5.0394966E1,2.873462E1,2.0988617E1,1.7405945E1,4.4348083E1,6.609317E1,5.822415E1,4.0709686E1,6.0743202E1,4.9524437E1,3.2241806E1,5.8157974E1,4.4019497E1,4.225264E1,2.3763062E1,1.2500725E1,1.4087128E1,2.0840256E1,1.5742859E1,1.2285309E1,3.1676392E1,3.232895E1,2.309665E1,4.6978104E1,3.2128815E1,3.9307E1,3.93824E1,3.4879566E1,4.7357628E1,3.4737755E1,8.1594925E1,6.173117E1,2.078888E1,1.0770235E1,3.2947174E1,1.9090055E1,3.232842E1,2.4831833E1,8.044914E1,3.8448822E1,1.8095001E1,1.7182907E1,1.2961043E1,1.5615166E1,1.1426819E1,1.5475475E1,1.7569023E1,1.755838E1,2.0632019E1,1.0925654E1,8.66629E0,0E0,0E0,0E0,0E0,0E0,0E0,0E0,0E0,0E0,0E0,0E0,0E0,0E0,0E0,0E0,0E0,0E0,0E0,0E0,0E0,0E0,0E0,0E0,0E0,0E0,0E0,0E0,0E0,0E0,0E0,0E0,0E0,0E0,0E0,0E0,0E0,0E0,0E0,0E0,0E0,0E0,0E0,0E0,0E0,0E0,0E0,0E0,0E0,0E0,0E0,0E0,0E0,0E0,0E0,0E0,0E0,0E0,0E0,0E0,0E0,0E0,0E0,0E0],"parents":[2147483647,0,0,1,1,2,2,3,3,4,4,5,5,6,6,7,7,8,8,9,9,10,10,11,11,12,12,13,13,14,14,15,15,16,16,17,17,18,18,19,19,20,20,21,21,22,22,23,23,24,24,25,25,26,26,27,27,28,28,29,29,30,30,31,31,32,32,33,33,34,34,35,35,36,36,37,37,38,38,39,39,40,40,41,41,42,42,43,43,44,44,45,45,46,46,47,47,48,48,49,49,50,50,51,51,52,52,53,53,54,54,55,55,56,56,57,57,58,58,59,59,60,60,61,61],"right_children":[2,4,6,8,10,12,14,16,18,20,22,24,26,28,30,32,34,36,38,40,42,44,46,48,50,52,54,56,58,60,62,64,66,68,70,72,74,76,78,80,82,84,86,88,90,92,94,96,98,100,102,104,106,108,110,112,114,116,118,120,122,124,-1,-1,-1,-1,-1,-1,-1,-1,-1,-1,-1,-1,-1,-1,-1,-1,-1,-1,-1,-1,-1,-1,-1,-1,-1,-1,-1,-1,-1,-1,-1,-1,-1,-1,-1,-1,-1,-1,-1,-1,-1,-1,-1,-1,-1,-1,-1,-1,-1,-1,-1,-1,-1,-1,-1,-1,-1,-1,-1,-1,-1,-1,-1],"split_conditions":[1E0,2E0,3E0,7E0,2.2E1,2E0,5E0,1E0,1E0,6E0,2.3E1,2E0,1.9E1,9E0,8E0,5.5E1,1.8E1,5E1,6.5E1,5E0,9E0,1E0,2.8E1,1E0,6E0,4.5E1,5.5E1,1E0,9E0,1E1,8.2E1,1E0,1E0,1E0,5.8E1,1E0,1.7E1,2E0,3.9E1,6E0,7.8E1,6.5E1,1E1,1E0,1E1,1.9E1,1E0,1E0,5.2E1,9E0,1.5E1,1E0,1E0,2E0,3E0,7E0,6.9E1,7E0,4.1E1,2.5E1,1E0,1E1,-7.249857E-2,-3.252273E-2,3.728095E-2,-1.647893E-2,-4.4236373E-2,-5.8161136E-2,-3.318156E-2,1.8841906E-2,-8.3475225E-2,-1.4679789E-2,-4.308058E-2,-1.1875472E-2,1.7176828E-3,-5.4018836E-2,-1.5006201E-2,-3.1945642E-4,-2.4986872E-2,8.870189E-5,2.974549E-2,2.6632488E-2,-8.847993E-2,-3.6232326E-2,-8.756624E-3,2.0244413E-3,-2.1270705E-2,3.3953354E-2,-5.029558E-2,2.4667153E-2,-8.30932E-2,-8.590964E-2,-1.4830957E-2,4.896404E-2,-7.461823E-2,5.5516283E-3,-1.0651141E-2,-9.5448755E-3,-4.5905776E-2,3.2133624E-2,7.3399357E-3,-6.444784E-4,1.695706E-2,4.381349E-2,1.165644E-2,1.4896559E-2,2.084749E-3,5.381949E-2,-8.5803695E-2,4.428035E-2,-6.9670096E-2,3.0471414E-2,-7.4000254E-2,-9.255463E-2,5.5654425E-2,-2.9895602E-2,7.148378E-2,2.0735985E-2,-8.285468E-2,-8.538927E-2,3.9387356E-2,-4.6622735E-2,1.8976677E-2,5.3691924E-2,8.702022E-3],"split_indices":[10,2,10,11,2,10,10,39,39,2,2,2,2,11,10,35,7,5,35,2,11,52,2,44,2,35,35,46,7,4,5,58,16,0,5,40,7,1,5,1,5,35,2,39,7,5,39,39,5,11,2,33,12,5,8,1,5,8,7,35,34,2,0,0,0,0,0,0,0,0,0,0,0,0,0,0,0,0,0,0,0,0,0,0,0,0,0,0,0,0,0,0,0,0,0,0,0,0,0,0,0,0,0,0,0,0,0,0,0,0,0,0,0,0,0,0,0,0,0,0,0,0,0,0,0],"split_type":[0,0,0,0,0,0,0,0,0,0,0,0,0,0,0,0,0,0,0,0,0,0,0,0,0,0,0,0,0,0,0,0,0,0,0,0,0,0,0,0,0,0,0,0,0,0,0,0,0,0,0,0,0,0,0,0,0,0,0,0,0,0,0,0,0,0,0,0,0,0,0,0,0,0,0,0,0,0,0,0,0,0,0,0,0,0,0,0,0,0,0,0,0,0,0,0,0,0,0,0,0,0,0,0,0,0,0,0,0,0,0,0,0,0,0,0,0,0,0,0,0,0,0,0,0],"sum_hessian":[2.8604406E4,1.703498E4,1.1569427E4,9.726711E3,7.308269E3,8.526171E3,3.0432559E3,3.5912825E3,6.1354287E3,6.3968438E3,9.114252E2,5.894007E3,2.6321638E3,1.9830593E3,1.0601965E3,3.1247793E3,4.6650308E2,5.2453716E3,8.900569E2,3.3406414E3,3.0562024E3,6.379764E2,2.734488E2,3.0709038E3,2.823103E3,2.5010757E3,1.31088E2,8.3517487E2,1.1478844E3,7.5772675E2,3.024698E2,8.6012036E2,2.264659E3,3.844881E2,8.2014984E1,3.1179348E3,2.127437E3,2.7497076E2,6.150862E2,3.0192563E3,3.213849E2,1.4061721E3,1.6500303E3,6.280586E2,9.917772E0,2.2768103E2,4.5767757E1,2.7702395E3,3.006643E2,1.3737063E3,1.4493966E3,1.8755833E2,2.3135173E3,5.0779977E0,1.2601001E2,8.293315E2,5.843369E0,3.6854347E1,1.11103E3,7.0393945E2,5.3787327E1,3.0130377E2,1.1660143E0,8.443418E2,1.5778563E1,2.1549382E3,1.09720665E2,2.0732198E2,1.7716612E2,6.96788E1,1.2336186E1,3.0156313E3,1.0230344E2,1.034388E3,1.0930491E3,1.6886002E2,1.0611074E2,2.2685416E2,3.88232E2,2.8790422E3,1.4021422E2,3.1564615E2,5.738743E0,3.6432294E2,1.0418492E3,1.2859392E3,3.64091E2,6.214924E2,6.566193E0,2.6979191E0,7.2198534E0,1.6758667E1,2.1092236E2,4.3281754E1,2.4860044E0,2.4184407E3,3.5179892E2,2.4321303E2,5.7451283E1,5.372006E2,8.3650574E2,1.0007843E3,4.4861224E2,1.1629635E2,7.1261986E1,2.0122988E3,3.012185E2,1.8966638E0,3.1813338E0,1.237894E2,2.2206059E0,8.27622E2,1.7095014E0,3.9194527E0,1.9239162E0,3.292692E1,3.927425E0,1.1078855E3,3.1446292E0,2.4263134E0,7.015131E2,6.337761E0,4.7449566E1,2.897486E2,1.1555183E1],"tree_param":{"num_deleted":"0","num_feature":"66","num_nodes":"125","size_leaf_vector":"1"}},{"base_weights":[-3.6552537E-4,-1.4007871E-1,3.0161023E-1,-2.780055E-1,3.820187E-2,2.2783092E-1,5.7354796E-1,-4.197491E-1,-1.957728E-1,1.441948E-1,-5.251067E-2,2.979389E-1,-1.1008893E-2,7.059651E-1,3.19343E-2,-3.7643704E-1,-7.0770323E-1,-2.5648448E-1,-5.385908E-2,3.603632E-1,6.2883966E-2,-2.1430926E-1,1.8441348E-1,3.0078128E-1,-9.571548E-2,-9.1103196E-2,7.896432E-3,7.9224473E-1,5.243103E-1,7.1541876E-2,-8.84537E-2,-9.266305E-1,-3.6102435E-1,-1.0477047E0,-3.7521455E-1,-3.0729976E-1,-1.8856736E-2,-3.49713E-2,-6.662506E-1,8.1676817E-1,2.7200612E-1,1.9821368E-2,5.0103295E-1,-1.0066079E-1,-1.260397E0,2.578086E-1,-2.0422328E-1,3.135338E-1,-1.5534452E-1,-7.347102E-2,3.6541128E-1,8.103697E-1,-7.529065E-2,4.4411814E-1,9.6287704E-1,1.3207346E-1,-7.848561E-1,-2.5458602E-2,-6.7258276E-2,-2.4031477E-2,-1.4262833E-2,-6.265585E-2,-1.7960297E-2,-2.6315851E-2,3.6985E-2,-1.4581484E-2,-4.3679234E-2,3.9852927E-3,-2.2957494E-2,-6.327861E-3,6.0534794E-3,-4.8090037E-2,2.3928192E-2,1.4402898E-2,6.402423E-2,2.0930214E-2,3.7228004E-3,2.900236E-3,-2.168899E-2,-4.2164292E-2,3.0518955E-2,-1.6234314E-2,6.713076E-5,-7.73632E-2,-3.8621213E-2,2.7544214E-3,2.6770918E-2,-2.078089E-2,1.4460066E-2,1.4570861E-2,2.9031226E-2,-1.8345093E-2,3.209403E-2,-5.743284E-3,3.0265803E-2,-8.329401E-2,2.0369707E-2,4.0747344E-2,-7.2715014E-2,1.4459739E-2,-9.49424E-2,2.4779828E-2,-1.6868275E-2,5.2279796E-2,-1.741462E-2,8.993379E-3,-5.9991267E-2,-9.890989E-2,3.994645E-2],"categories":[],"categories_nodes":[],"categories_segments":[],"categories_sizes":[],"default_left":[0,0,0,0,0,0,0,0,0,0,0,0,0,0,0,0,0,0,0,0,0,0,0,0,0,0,0,0,0,0,0,0,0,0,0,0,0,0,0,0,0,0,0,0,0,0,0,0,0,0,0,0,0,0,0,0,0,0,0,0,0,0,0,0,0,0,0,0,0,0,0,0,0,0,0,0,0,0,0,0,0,0,0,0,0,0,0,0,0,0,0,0,0,0,0,0,0,0,0,0,0,0,0,0,0,0,0,0,0],"id":12,"left_children":[1,3,5,7,9,11,13,15,17,19,21,23,25,27,29,31,33,35,37,39,41,43,45,47,-1,-1,49,51,53,55,-1,57,59,61,63,65,67,69,71,73,75,77,79,81,83,85,87,89,91,93,95,97,99,101,103,105,107,-1,-1,-1,-1,-1,-1,-1,-1,-1,-1,-1,-1,-1,-1,-1,-1,-1,-1,-1,-1,-1,-1,-1,-1,-1,-1,-1,-1,-1,-1,-1,-1,-1,-1,-1,-1,-1,-1,-1,-1,-1,-1,-1,-1,-1,-1,-1,-1,-1,-1,-1,-1],"loss_changes":[1.2008771E3,4.785274E2,1.8050934E2,1.27805725E2,8.163016E1,1.1861691E2,1.3773273E2,4.99635E1,5.9826843E1,6.879301E1,1.754196E2,3.5010803E1,5.5084892E1,2.3774109E1,2.7118681E1,2.9370789E1,5.9006134E1,5.872943E1,2.4062023E1,4.2924194E1,5.369191E1,3.231243E2,5.3023468E1,3.1866913E1,0E0,0E0,4.636189E1,1.6483643E1,1.7155457E1,1.9346941E1,0E0,1.588179E1,3.075766E1,3.6211365E1,4.5405704E1,3.530365E1,3.727018E1,2.889843E1,2.1521412E1,4.2054573E1,2.5972092E1,4.4928185E1,3.7948765E1,5.6069305E1,3.6090973E1,8.7903564E1,3.0948957E1,3.126654E1,2.544057E1,3.655058E1,2.5876183E1,1.1790894E1,1.5363759E1,1.724553E1,8.653496E0,2.2340517E1,4.816842E1,0E0,0E0,0E0,0E0,0E0,0E0,0E0,0E0,0E0,0E0,0E0,0E0,0E0,0E0,0E0,0E0,0E0,0E0,0E0,0E0,0E0,0E0,0E0,0E0,0E0,0E0,0E0,0E0,0E0,0E0,0E0,0E0,0E0,0E0,0E0,0E0,0E0,0E0,0E0,0E0,0E0,0E0,0E0,0E0,0E0,0E0,0E0,0E0,0E0,0E0,0E0,0E0],"parents":[2147483647,0,0,1,1,2,2,3,3,4,4,5,5,6,6,7,7,8,8,9,9,10,10,11,11,12,12,13,13,14,14,15,15,16,16,17,17,18,18,19,19,20,20,21,21,22,22,23,23,26,26,27,27,28,28,29,29,31,31,32,32,33,33,34,34,35,35,36,36,37,37,38,38,39,39,40,40,41,41,42,42,43,43,44,44,45,45,46,46,47,47,48,48,49,49,50,50,51,51,52,52,53,53,54,54,55,55,56,56],"right_children":[2,4,6,8,10,12,14,16,18,20,22,24,26,28,30,32,34,36,38,40,42,44,46,48,-1,-1,50,52,54,56,-1,58,60,62,64,66,68,70,72,74,76,78,80,82,84,86,88,90,92,94,96,98,100,102,104,106,108,-1,-1,-1,-1,-1,-1,-1,-1,-1,-1,-1,-1,-1,-1,-1,-1,-1,-1,-1,-1,-1,-1,-1,-1,-1,-1,-1,-1,-1,-1,-1,-1,-1,-1,-1,-1,-1,-1,-1,-1,-1,-1,-1,-1,-1,-1,-1,-1,-1,-1,-1,-1],"split_conditions":[2E0,2E0,6E0,7E0,6E0,2E0,5E0,1E0,1E0,5E0,1.5E1,1E0,1.0833334E0,2E0,7.7E1,2.5E1,1E0,7E0,1.1E1,3E0,5E0,1E1,2.3E1,1E0,-9.571548E-2,-9.1103196E-2,1E0,8.125E0,2.7E1,9E0,-8.84537E-2,4.4E1,3.7E1,1E0,8.5E1,8.571428E0,1.1E1,1.8E1,7.8E1,1E0,1E0,9.5E1,1.2142857E0,3E0,1.2E1,2.2E1,1E0,1.8E1,8.5E1,1.8E1,4.5E1,2.4E1,4.8E1,6.8E1,8E0,1E0,8.5E1,-2.5458602E-2,-6.7258276E-2,-2.4031477E-2,-1.4262833E-2,-6.265585E-2,-1.7960297E-2,-2.6315851E-2,3.6985E-2,-1.4581484E-2,-4.3679234E-2,3.9852927E-3,-2.2957494E-2,-6.327861E-3,6.0534794E-3,-4.8090037E-2,2.3928192E-2,1.4402898E-2,6.402423E-2,2.0930214E-2,3.7228004E-3,2.900236E-3,-2.168899E-2,-4.2164292E-2,3.0518955E-2,-1.6234314E-2,6.713076E-5,-7.73632E-2,-3.8621213E-2,2.7544214E-3,2.6770918E-2,-2.078089E-2,1.4460066E-2,1.4570861E-2,2.9031226E-2,-1.8345093E-2,3.209403E-2,-5.743284E-3,3.0265803E-2,-8.329401E-2,2.0369707E-2,4.0747344E-2,-7.2715014E-2,1.4459739E-2,-9.49424E-2,2.4779828E-2,-1.6868275E-2,5.2279796E-2,-1.741462E-2,8.993379E-3,-5.9991267E-2,-9.890989E-2,3.994645E-2],"split_indices":[63,2,63,11,2,8,8,39,63,3,2,23,64,8,5,35,27,4,4,2,2,2,2,40,0,0,9,64,7,4,0,5,5,63,35,64,4,7,5,63,53,35,64,3,2,2,63,2,35,2,35,9,5,5,2,22,35,0,0,0,0,0,0,0,0,0,0,0,0,0,0,0,0,0,0,0,0,0,0,0,0,0,0,0,0,0,0,0,0,0,0,0,0,0,0,0,0,0,0,0,0,0,0,0,0,0,0,0,0],"split_type":[0,0,0,0,0,0,0,0,0,0,0,0,0,0,0,0,0,0,0,0,0,0,0,0,0,0,0,0,0,0,0,0,0,0,0,0,0,0,0,0,0,0,0,0,0,0,0,0,0,0,0,0,0,0,0,0,0,0,0,0,0,0,0,0,0,0,0,0,0,0,0,0,0,0,0,0,0,0,0,0,0,0,0,0,0,0,0,0,0,0,0,0,0,0,0,0,0,0,0,0,0,0,0,0,0,0,0,0,0],"sum_hessian":[2.8461547E4,1.9459076E4,9.00247E3,1.0970889E4,8.488188E3,7.0827026E3,1.9197676E3,4.0264453E3,6.9444434E3,3.9141345E3,4.5740537E3,5.4752686E3,1.6074342E3,1.5423748E3,3.773929E2,3.5020051E3,5.244402E2,4.863148E3,2.0812954E3,1.0689232E3,2.8452112E3,2.717995E3,1.8560588E3,5.4691055E3,6.16286E0,1.5621053E1,1.5918131E3,1.043424E3,4.9895078E2,3.7021155E2,7.1813745E0,9.3818085E1,3.408187E3,2.5822717E2,2.66213E2,4.0061606E3,8.5698706E2,2.020049E3,6.124657E1,1.7203564E2,8.9688763E2,2.591551E3,2.5366017E2,2.4526335E3,2.653614E2,1.5615016E3,2.9455722E2,5.3206616E3,1.484441E2,1.297343E3,2.9447015E2,1.02213495E3,2.128902E1,4.235222E2,7.5428566E1,3.4656177E2,2.3649763E1,4.8079155E1,4.5738926E1,1.3196589E3,2.088528E3,1.9825737E2,5.996979E1,2.3490471E2,3.1308304E1,3.8997627E3,1.0639816E2,7.00904E2,1.5608311E2,1.2730436E3,7.470053E2,4.8806374E1,1.2440196E1,8.114205E1,9.0893585E1,5.141947E2,3.8269293E2,2.391141E3,2.0040996E2,1.8575686E1,2.3508449E2,7.666631E2,1.6859706E3,1.6575021E2,9.961118E1,9.031725E2,6.583291E2,2.0632185E2,8.823537E1,4.915705E3,4.0495648E2,1.1773965E2,3.0704453E1,1.2235573E3,7.378575E1,5.1796303E0,2.8929053E2,1.0207121E3,1.4228592E0,1.8443932E1,2.845089E0,3.9769104E2,2.583115E1,7.114286E1,4.2857046E0,3.3539148E2,1.1170299E1,1.334535E1,1.0304413E1],"tree_param":{"num_deleted":"0","num_feature":"66","num_nodes":"109","size_leaf_vector":"1"}},{"base_weights":[2.7724405E-4,-1.7014554E-1,2.5317782E-1,-2.943709E-1,-3.1847598E-3,1.8114345E-1,6.6658574E-1,-4.537288E-1,-2.3862512E-1,-3.9021436E-2,2.5910416E-1,9.556578E-2,3.0957422E-1,5.590617E-1,8.4014E-1,-4.037766E-1,-8.102918E-1,-2.87593E-1,-7.110842E-2,6.837553E-2,-1.5364268E-1,4.788235E-1,-2.2483334E-1,1.1305829E-1,-4.174323E-1,3.4492657E-1,6.310246E-2,5.098011E-1,8.7872607E-1,8.7710327E-1,4.8774016E-1,-3.928183E-1,-1.345045E0,-8.4923536E-1,7.767837E-2,-2.3755679E-1,-4.911061E-1,-5.3713977E-2,-1.1307185E0,1.691427E-1,-5.7224322E-2,-1.4066938E-1,-8.922789E-2,5.0699925E-1,-1.0582892E0,-4.0214846E-1,7.5644547E-1,2.771507E-2,2.0239747E-1,-2.852197E-1,-1.4549869E0,3.482165E-1,-8.841973E-2,-9.262303E-2,3.0857253E-1,-2.900382E-1,5.286206E-1,1.0545075E0,4.9722543E-1,8.8985735E-1,-9.011948E-2,-8.976304E-2,5.8453894E-1,-2.0807663E-2,4.787319E-3,-8.2289614E-2,-3.8536738E-3,-5.421067E-2,-2.8810814E-2,-1.9989729E-2,-8.516884E-3,-2.1630691E-2,-5.1225096E-2,-9.929375E-3,1.7139995E-3,-6.9154195E-2,3.886832E-2,6.709683E-3,2.7578456E-2,7.666976E-5,-2.186526E-2,-6.1963736E-3,-4.0041164E-2,2.8288025E-2,-1.4428291E-2,5.8428813E-2,-8.299353E-2,-5.8174778E-2,-1.3565617E-2,4.470889E-2,-6.723727E-2,3.3176502E-3,-1.5320547E-2,1.76782E-2,2.4761173E-3,-7.5978497E-3,-6.9847845E-2,-9.023155E-2,-4.580054E-3,1.4952019E-2,2.4255594E-2,3.463034E-3,-2.5952483E-2,1.7820254E-2,-8.292607E-2,1.3150349E-2,-1.0260321E-1,2.815148E-2,5.3087473E-3,5.6304913E-2,-2.13614E-2,5.120493E-2,2.3601258E-3,3.952807E-2,5.0904084E-2,3.3354748E-2,-7.3603556E-2],"categories":[],"categories_nodes":[],"categories_segments":[],"categories_sizes":[],"default_left":[0,0,0,0,0,0,0,0,0,0,0,0,0,0,0,0,0,0,0,0,0,0,0,0,0,0,0,0,0,0,0,0,0,0,0,0,0,0,0,0,0,0,0,0,0,0,0,0,0,0,0,0,0,0,0,0,0,0,0,0,0,0,0,0,0,0,0,0,0,0,0,0,0,0,0,0,0,0,0,0,0,0,0,0,0,0,0,0,0,0,0,0,0,0,0,0,0,0,0,0,0,0,0,0,0,0,0,0,0,0,0,0,0,0,0,0,0],"id":13,"left_children":[1,3,5,7,9,11,13,15,17,19,21,23,25,27,29,31,33,35,37,39,41,43,45,47,49,51,53,55,57,59,61,63,65,67,-1,69,71,73,75,77,79,81,-1,83,85,87,89,91,93,95,97,99,-1,101,103,105,107,109,111,113,-1,-1,115,-1,-1,-1,-1,-1,-1,-1,-1,-1,-1,-1,-1,-1,-1,-1,-1,-1,-1,-1,-1,-1,-1,-1,-1,-1,-1,-1,-1,-1,-1,-1,-1,-1,-1,-1,-1,-1,-1,-1,-1,-1,-1,-1,-1,-1,-1,-1,-1,-1,-1,-1,-1,-1,-1],"loss_changes":[1.2275604E3,3.52912E2,3.4133887E2,8.656238E1,6.825193E1,1.0730817E2,3.1274841E1,4.4687134E1,5.9286865E1,7.864986E1,9.291751E1,5.265331E1,3.400244E1,1.6138916E1,8.022675E0,2.2357452E1,2.9816559E1,5.6850006E1,3.0106297E1,4.175988E1,6.5139E1,2.6548752E1,4.784485E1,4.3223633E1,2.6131378E1,2.4357819E1,1.8799479E1,1.3927628E1,8.814934E0,2.1626953E1,1.5157541E1,2.5060059E1,9.452808E0,1.8954285E1,0E0,4.8921814E1,3.397168E1,2.0548174E1,1.378022E1,2.4392334E1,3.281157E1,3.380018E1,0E0,2.7767227E1,1.685683E1,2.280082E1,1.3404491E1,3.7470787E1,6.399341E1,2.5401838E1,1.0144989E1,2.281308E1,0E0,2.0829426E1,1.8546917E1,2.1668135E1,1.2941101E1,1.0499733E1,1.0815882E1,6.628235E0,0E0,0E0,1.1508352E1,0E0,0E0,0E0,0E0,0E0,0E0,0E0,0E0,0E0,0E0,0E0,0E0,0E0,0E0,0E0,0E0,0E0,0E0,0E0,0E0,0E0,0E0,0E0,0E0,0E0,0E0,0E0,0E0,0E0,0E0,0E0,0E0,0E0,0E0,0E0,0E0,0E0,0E0,0E0,0E0,0E0,0E0,0E0,0E0,0E0,0E0,0E0,0E0,0E0,0E0,0E0,0E0,0E0,0E0],"parents":[2147483647,0,0,1,1,2,2,3,3,4,4,5,5,6,6,7,7,8,8,9,9,10,10,11,11,12,12,13,13,14,14,15,15,16,16,17,17,18,18,19,19,20,20,21,21,22,22,23,23,24,24,25,25,26,26,27,27,28,28,29,29,30,30,31,31,32,32,33,33,35,35,36,36,37,37,38,38,39,39,40,40,41,41,43,43,44,44,45,45,46,46,47,47,48,48,49,49,50,50,51,51,53,53,54,54,55,55,56,56,57,57,58,58,59,59,62,62],"right_children":[2,4,6,8,10,12,14,16,18,20,22,24,26,28,30,32,34,36,38,40,42,44,46,48,50,52,54,56,58,60,62,64,66,68,-1,70,72,74,76,78,80,82,-1,84,86,88,90,92,94,96,98,100,-1,102,104,106,108,110,112,114,-1,-1,116,-1,-1,-1,-1,-1,-1,-1,-1,-1,-1,-1,-1,-1,-1,-1,-1,-1,-1,-1,-1,-1,-1,-1,-1,-1,-1,-1,-1,-1,-1,-1,-1,-1,-1,-1,-1,-1,-1,-1,-1,-1,-1,-1,-1,-1,-1,-1,-1,-1,-1,-1,-1,-1,-1],"split_conditions":[1E0,2E0,4E0,6E0,2.2E1,2E0,6E0,1E0,6E0,6E0,2.3E1,1E0,1E0,1E0,6.6E1,1.1E1,1E0,1E0,1E0,1E0,1E0,1E0,2.8E1,2E0,1E0,1E0,2E1,5E0,5E0,3.6E1,3E0,8E0,1.4E1,1E0,7.767837E-2,1E0,1E0,5.1E1,1E0,6E0,9E0,6E0,-8.922789E-2,1E0,7E0,9E0,1E0,1E0,6E0,9E0,1E0,3E0,-8.841973E-2,5E0,1E1,1E0,9E0,1E0,8E0,1E0,-9.011948E-2,-8.976304E-2,1.2E1,-2.0807663E-2,4.787319E-3,-8.2289614E-2,-3.8536738E-3,-5.421067E-2,-2.8810814E-2,-1.9989729E-2,-8.516884E-3,-2.1630691E-2,-5.1225096E-2,-9.929375E-3,1.7139995E-3,-6.9154195E-2,3.886832E-2,6.709683E-3,2.7578456E-2,7.666976E-5,-2.186526E-2,-6.1963736E-3,-4.0041164E-2,2.8288025E-2,-1.4428291E-2,5.8428813E-2,-8.299353E-2,-5.8174778E-2,-1.3565617E-2,4.470889E-2,-6.723727E-2,3.3176502E-3,-1.5320547E-2,1.76782E-2,2.4761173E-3,-7.5978497E-3,-6.9847845E-2,-9.023155E-2,-4.580054E-3,1.4952019E-2,2.4255594E-2,3.463034E-3,-2.5952483E-2,1.7820254E-2,-8.292607E-2,1.3150349E-2,-1.0260321E-1,2.815148E-2,5.3087473E-3,5.6304913E-2,-2.13614E-2,5.120493E-2,2.3601258E-3,3.952807E-2,5.0904084E-2,3.3354748E-2,-7.3603556E-2],"split_indices":[10,2,10,11,2,10,10,39,4,2,2,40,12,37,5,4,14,12,40,53,60,52,2,2,18,23,7,5,4,7,4,4,4,0,0,34,21,5,47,1,4,1,0,57,7,7,39,44,2,11,22,1,0,4,63,8,2,44,11,8,0,0,4,0,0,0,0,0,0,0,0,0,0,0,0,0,0,0,0,0,0,0,0,0,0,0,0,0,0,0,0,0,0,0,0,0,0,0,0,0,0,0,0,0,0,0,0,0,0,0,0,0,0,0,0,0,0],"split_type":[0,0,0,0,0,0,0,0,0,0,0,0,0,0,0,0,0,0,0,0,0,0,0,0,0,0,0,0,0,0,0,0,0,0,0,0,0,0,0,0,0,0,0,0,0,0,0,0,0,0,0,0,0,0,0,0,0,0,0,0,0,0,0,0,0,0,0,0,0,